svm_type c_svc
kernel_type rbf
gamma 0.5
nr_class 2
total_sv 475
rho 42.4841
label 0 1
nr_sv 242 233
SV
8192 1:-0.940968 2:-0.29691 3:-0.875 4:-0.666667 5:-0.963895 6:-0.400664 7:-0.493333 
8192 1:-0.956436 2:-0.475837 3:-0.75 4:-0.333333 5:-0.95901 6:-0.593179 7:-0.68 
8192 1:-0.959997 2:0.538644 3:-1 4:-1 5:-0.996317 6:-0.341779 7:-0.733333 
8192 1:-0.972407 2:0.575842 3:-1 4:-1 5:-1 6:-0.306676 7:-0.28 
8192 1:-0.965629 2:-0.421831 3:-0.625 4:-0.666667 5:-0.939474 6:-0.516297 7:-0.68 
8192 1:-0.958322 2:-0.36426 3:-0.875 4:-1 5:-0.972241 6:-0.565935 7:-0.76 
6264.654489795264 1:-0.956191 2:-0.240006 3:-1 4:-0.666667 5:-0.868088 6:-0.33517 7:-0.413333 
8192 1:-0.975876 2:-0.365432 3:-1 4:-1 5:-0.987378 6:-0.565266 7:-0.466667 
8192 1:-0.983375 2:0.168841 3:-1 4:-1 5:-0.993727 6:-0.416061 7:0.0933333 
6852.818522692318 1:-0.952639 2:-0.00110907 3:-0.75 4:-0.666667 5:-0.919 6:-0.326358 7:-0.36 
8192 1:-0.971414 2:0.487659 3:-0.875 4:-1 5:-0.962364 6:-0.229671 7:-0.493333 
19.40523494773464 1:-0.965186 2:-0.571236 3:1 4:-0.333333 5:-0.936111 6:-0.423008 7:-0.52 
8192 1:-0.97522 2:-0.0556982 3:-0.75 4:-1 5:-0.87758 6:-0.278368 7:-0.546667 
5953.339079216303 1:-0.948579 2:-0.105086 3:-0.75 4:-1 5:-0.856535 6:-0.373263 7:-0.466667 
1233.741358237454 1:-0.874866 2:-0.800291 3:-0.875 5:-0.921887 6:-0.548112 7:-0.253333 
8192 1:-0.960758 2:-0.409825 3:-0.875 4:-0.666667 5:-0.874967 6:-0.478649 7:-0.68 
8192 1:-0.989175 2:-0.361726 3:-1 4:-1 5:-0.985525 6:-0.605343 7:0.173333 
8192 1:-0.954668 2:0.0178931 3:-0.875 4:-1 5:-0.983571 6:-0.487753 7:-0.76 
8192 1:-0.93843 2:-0.181857 3:-1 4:-0.333333 5:-0.957466 6:-0.386486 7:-0.68 
7124.494701492004 1:-0.976851 2:-0.613207 3:-1 4:-0.666667 5:-0.922021 6:-0.637799 7:0.146667 
8192 1:-0.961817 2:-0.6679 3:-0.875 4:-0.666667 5:-0.931 6:-0.623958 7:-0.68 
8192 1:-0.948579 2:0.1838 3:-1 4:-0.666667 5:-0.963036 6:-0.347706 7:-0.786667 
3653.615811705934 1:-0.975372 2:-0.0687082 3:-0.875 4:-1 5:-0.969559 6:-0.510292 7:-0.0666667 
8192 1:-0.954379 2:-0.541688 3:-1 4:-0.333333 5:-0.948572 6:-0.545071 7:-0.626667 
563.1204351170018 1:-0.951347 2:-0.420341 3:-0.375 4:-0.666667 5:-0.897186 6:-0.586019 7:-0.733333 
8192 1:-0.957278 2:-0.517072 3:-0.875 4:-0.666667 5:-0.933654 6:-0.535025 7:-0.68 
8192 1:-0.957278 2:-0.185007 3:-1 4:-1 5:-0.993007 6:-0.528741 7:-0.52 
8192 1:-0.955345 2:-0.214646 3:-0.75 4:-0.666667 5:-0.939513 6:-0.372942 7:-0.68 
8192 1:-0.968877 2:-0.609277 3:-0.875 4:-0.666667 5:-0.757895 6:-0.53614 7:-0.653333 
8192 1:-0.957278 2:0.0924368 3:-0.875 4:-0.666667 5:-0.933936 6:-0.463379 7:-0.813333 
8192 1:-0.967112 2:-0.730441 3:-0.625 4:-0.333333 5:-0.553069 6:-0.57766 7:-0.68 
8192 1:-0.960178 2:-0.300895 3:-1 4:-0.666667 5:-0.964796 6:-0.510242 7:-0.626667 
8192 1:-0.967112 2:-0.136864 3:-0.875 4:-1 5:-0.905909 6:-0.48228 7:-0.68 
8192 1:-0.960289 2:-0.423532 3:-0.875 4:-0.666667 5:-0.935313 6:-0.57932 7:-0.733333 
8192 1:-0.959651 2:-0.361154 3:-1 4:-1 5:-0.97902 6:-0.591126 7:-0.6 
1311.892110082372 1:-0.986637 2:-0.563338 3:-1 4:-1 5:-0.982155 6:-0.699878 7:0.546667 
8192 1:-0.967112 2:-0.58719 3:-1 4:-0.666667 5:-0.905909 6:-0.614383 7:-0.626667 
8192 1:-0.938965 2:-0.314638 3:-0.875 4:-0.666667 5:-0.963684 6:-0.49222 7:-0.786667 
8192 1:-0.960289 2:-0.680757 3:-0.875 4:-0.666667 5:-0.926447 6:-0.688177 7:-0.6 
8192 1:-0.958728 2:-0.344233 3:-0.75 4:-0.666667 5:-0.832319 6:-0.488134 7:-0.68 
8192 1:-0.960758 2:-0.679848 3:-0.5 4:-0.333333 5:-0.836302 6:-0.550937 7:-0.786667 
8192 1:-0.959169 2:-0.203745 3:-0.875 4:-1 5:-0.96431 6:-0.415888 7:-0.52 
8192 1:-0.971677 2:-0.423646 3:-0.75 4:-1 5:-0.939709 6:-0.490314 7:-0.52 
8192 1:-0.955605 2:-0.203643 3:-0.875 4:-0.666667 5:-0.973731 6:-0.537983 7:-0.6 
8192 1:-0.948579 2:-0.589273 3:-1 4:-0.666667 5:-0.976477 6:-0.59704 7:-0.546667 
8192 1:-0.956191 2:-0.0254442 3:-1 4:-1 5:-0.978769 6:-0.45472 7:-0.733333 
8074.925317616861 1:-0.945535 2:-0.117554 3:-0.625 4:-0.666667 5:-0.952304 6:-0.381663 7:-0.733333 
8192 1:-0.962788 2:-0.221238 3:-0.875 4:-1 5:-0.987063 6:-0.543711 7:-0.626667 
6709.0607189338 1:-0.974115 2:-0.679831 3:-0.875 4:-0.333333 5:-0.926941 6:-0.556378 7:-0.493333 
4083.137223503955 1:-0.979026 2:-0.805573 3:-1 4:-1 5:-0.895 6:-0.666694 7:-0.306667 
8192 1:-0.970186 2:-0.165096 3:-1 4:-0.666667 5:-0.992247 6:-0.447019 7:-0.52 
8192 1:-0.954668 2:-0.66944 3:-0.875 4:-0.333333 5:-0.940857 6:-0.543162 7:-0.573333 
8192 1:-0.948579 2:-0.853289 3:-0.75 4:-0.666667 5:-0.668192 6:-0.610666 7:-0.76 
8192 1:-0.963341 2:-0.470526 3:-0.75 4:-1 5:-0.875676 6:-0.550813 7:-0.76 
8192 1:-0.946788 2:-0.665173 3:-0.5 4:-0.666667 5:-0.981279 6:-0.665791 7:-0.653333 
8192 1:-0.989175 2:0.0211896 3:-1 4:-1 5:-0.98875 6:-0.499449 7:-0.173333 
8192 1:-0.955345 2:-0.443369 3:-0.75 4:-0.666667 5:-0.905909 6:-0.398113 7:-0.786667 
8192 1:-0.989175 2:-0.182619 3:-0.875 4:-1 5:-0.989105 6:-0.425206 7:-0.28 
8192 1:-0.948579 2:-0.0754769 3:-0.875 4:-1 5:-0.897525 6:-0.344116 7:-0.226667 
8192 1:-0.988292 2:-0.0326231 3:-1 4:-1 5:-0.978438 6:-0.409792 7:-0.36 
8192 1:-0.97226 2:0.465287 3:-1 4:-1 5:-0.98933 6:-0.407892 7:-0.28 
3292.65233164893 1:-0.957278 2:0.329195 3:-0.875 4:-0.666667 5:-0.958182 6:-0.315395 7:-0.386667 
8192 1:-0.951962 2:-0.411842 3:-1 4:-0.333333 5:-0.964 6:-0.617786 7:-0.653333 
8192 1:-0.994249 2:0.0622267 3:-1 4:-1 5:-1 6:-0.270857 7:-0.12 
8192 1:-0.989986 2:-0.161434 3:-1 4:-1 5:-0.989752 6:-0.450414 7:-0.226667 
8192 1:-0.959997 2:-0.269191 3:-0.875 4:-0.666667 5:-0.813514 6:-0.414369 7:-0.333333 
4607.123460868492 1:-0.937162 2:-0.00509411 3:-1 4:-0.666667 5:-0.970144 6:-0.562714 7:-0.786667 
8192 1:-0.952929 2:-0.133348 3:-0.875 4:-0.666667 5:-0.889466 6:-0.318482 7:-0.28 
8192 1:-0.986637 2:-0.0968672 3:-1 4:-1 5:-0.989439 6:-0.527078 7:-0.28 
7142.040191097533 1:-0.948579 2:0.013659 3:-1 4:-1 5:-0.899248 6:-0.335574 7:-0.28 
514.0917701533788 1:-0.959997 2:0.247516 3:-0.875 4:-0.666667 5:-0.979505 6:-0.373263 7:-0.413333 
3023.568408137602 1:-0.989175 2:-0.365667 3:-0.75 4:-0.666667 5:-0.890088 6:-0.36862 7:-0.173333 
8192 1:-0.948579 2:-0.0789931 3:-0.875 4:-0.666667 5:-0.953795 6:-0.456646 7:-0.733333 
8192 1:-0.962907 2:0.508404 3:-1 4:-1 5:-1 6:-0.406022 7:-0.173333 
8192 1:-0.989175 2:-0.0717703 3:-1 4:-1 5:-0.98965 6:-0.42818 7:-0.253333 
8192 1:-0.989175 2:-0.0709498 3:-1 4:-1 5:-1 6:-0.424891 7:-0.28 
8192 1:-0.97349 2:-0.189036 3:-1 4:-1 5:-0.990841 6:-0.554472 7:-0.173333 
8192 1:-0.989175 2:0.0610399 3:-1 4:-1 5:-0.981182 6:-0.438844 7:-0.333333 
8192 1:-0.989175 2:0.387769 3:-1 4:-1 5:-1 6:-0.346997 7:-0.333333 
8192 1:-0.948579 2:-0.52456 3:-1 4:-0.666667 5:-0.9655 6:-0.662101 7:-0.706667 
1042.812205097318 1:-0.989986 2:-0.00214928 3:-1 4:-1 5:-0.990759 6:-0.329844 7:-0.146667 
7515.67039029125 1:-0.967809 2:-0.0782606 3:-0.875 4:-0.666667 5:-0.938077 6:-0.375427 7:-0.333333 
8192 1:-0.963078 2:-0.296661 3:-1 4:-1 5:-0.982458 6:-0.598041 7:-0.546667 
8192 1:-0.958194 2:-0.354444 3:-1 4:-1 5:-0.946466 6:-0.519423 7:-0.68 
8192 1:-0.948579 2:-0.248621 3:-0.875 4:-0.666667 5:-0.898197 6:-0.453906 7:-0.84 
8192 1:-0.958194 2:-0.111752 3:-0.875 4:-1 5:-0.916831 6:-0.471955 7:-0.706667 
8192 1:-0.92955 2:-0.164437 3:-1 4:-0.333333 5:-0.991516 6:-0.614956 7:-0.76 
8192 1:-0.948579 2:0.109622 3:-0.75 4:-1 5:-0.954605 6:-0.452977 7:-0.84 
8192 1:-0.954115 2:-0.568176 3:-0.875 4:-0.666667 5:-0.936633 6:-0.621439 7:-0.733333 
8192 1:-0.952161 2:-0.101394 3:-0.875 4:-0.666667 5:-0.97516 6:-0.44891 7:-0.706667 
8192 1:-0.951624 2:-0.0944352 3:-0.875 4:-0.666667 5:-0.950714 6:-0.500347 7:-0.733333 
8192 1:-0.948579 2:0.364855 3:-1 4:-1 5:-1 6:-0.475849 7:-0.84 
8192 1:-0.954989 2:-0.256401 3:-1 4:-0.666667 5:-0.976477 6:-0.493912 7:-0.6 
8192 1:-0.964973 2:-0.757302 3:-0.75 4:-0.666667 5:-0.9241 6:-0.738074 7:-0.52 
8192 1:-0.948579 2:-0.122682 3:-0.875 4:-0.666667 5:-0.968397 6:-0.466376 7:-0.706667 
8192 1:-0.968877 2:-0.353844 3:-1 4:-0.666667 5:-0.944695 6:-0.515206 7:-0.546667 
8192 1:-0.98864 2:0.273126 3:-1 4:-1 5:-0.993077 6:-0.269059 7:0.2 
8192 1:-0.958728 2:-0.731394 3:-0.75 4:-0.666667 5:-0.94825 6:-0.687073 7:-0.52 
8192 1:-0.909912 2:-0.364275 3:-0.875 4:-0.666667 5:-0.999259 6:-0.349204 7:-1 
59.20234250849154 1:-0.987483 2:-0.13852 3:-0.625 4:-1 5:-0.967555 6:-0.324609 7:0.253333 
8192 1:-0.98089 2:-0.142417 3:-0.875 4:-1 5:-0.995732 6:-0.625607 7:-0.386667 
8030.639608561274 1:-0.970604 2:-0.720007 3:-0.5 4:-0.333333 5:-0.967334 6:-0.610322 7:-0.386667 
8192 1:-0.996424 2:-0.0343666 3:-1 4:-1 5:-0.990591 6:-0.271736 7:-0.0933333 
241.33634244795 1:-0.93553 2:0.0454368 3:-0.75 4:-0.333333 5:-0.965034 6:-0.313069 7:-0.2 
8192 1:-0.973387 2:-0.157405 3:-0.625 4:-1 5:-0.960625 6:-0.493738 7:-0.786667 
165.3898216409301 1:-0.967477 2:-0.53023 3:-0.375 4:-0.666667 5:-0.938841 6:-0.591619 7:-0.52 
8192 1:-0.971414 2:-0.056885 3:-1 4:-1 5:-0.991154 6:-0.553726 7:-0.146667 
2360.216432209753 1:-0.956191 2:-0.176011 3:-0.375 4:-0.333333 5:-0.8275 6:-0.301764 7:-0.44 
8192 1:-0.948579 2:-0.272326 3:-0.625 4:-0.666667 5:-0.874546 6:-0.433266 7:-0.786667 
5721.276797091168 1:-0.968877 2:-0.719664 3:-0.75 4:-0.666667 5:-0.764178 6:-0.637528 7:-0.52 
3753.776586416468 1:-0.968877 2:-0.344482 3:-1 4:-1 5:-0.926072 6:-0.468941 7:0.04 
8192 1:-0.967112 2:-0.481876 3:-0.875 4:-1 5:-0.918094 6:-0.560013 7:-0.653333 
2586.465798809925 1:-0.966847 2:-0.692084 3:-0.875 4:-1 5:-0.974444 6:-0.76988 7:-0.493333 
8192 1:-0.969577 2:-0.821042 3:-0.875 4:-0.333333 5:-0.938024 6:-0.787969 7:-0.493333 
768.8013424723595 1:-0.921938 2:-0.629475 3:-0.25 4:0.333333 5:-0.8758 6:-0.595724 7:-0.626667 
8192 1:-0.987725 2:0.216559 3:-1 4:-1 5:-1 6:-0.404614 7:-0.333333 
8192 1:-0.948579 2:-0.655512 3:-0.75 4:-0.666667 5:-0.828521 6:-0.536189 7:-0.84 
8192 1:-0.962111 2:-0.613321 3:-0.875 4:-0.666667 5:-0.964104 6:-0.62023 7:-0.493333 
3802.859091438714 1:-0.954668 2:-0.462061 3:-0.375 4:-1 5:-0.868481 6:-0.399159 7:-0.786667 
8192 1:-0.946324 2:-0.659919 3:-0.375 4:-0.666667 5:-0.919141 6:-0.651947 7:-0.813333 
7436.867579403366 1:-0.948579 2:-0.832182 3:-0.75 4:-0.333333 5:-0.8896 6:-0.657091 7:-0.68 
4113.491077013583 1:-0.962329 2:-0.547455 3:-0.75 4:-0.666667 5:-0.911286 6:-0.603546 7:-0.68 
3245.373502667439 1:-0.898276 2:-0.94138 3:-0.875 4:-0.666667 5:-0.971364 6:-0.760917 7:-0.04 
8192 1:-0.923668 2:-0.822431 3:-1 4:-0.333333 5:-0.946395 6:-0.681578 7:-0.52 
2901.543170092891 1:-0.998401 2:-0.265909 3:-1 4:-1 5:-0.986645 6:-0.431996 7:0.6 
8192 1:-0.958194 2:-0.0873588 3:-0.875 4:-1 5:-0.97125 6:-0.469539 7:-0.653333 
8192 1:-0.948579 2:-0.363967 3:-0.875 4:-0.666667 5:-0.809342 6:-0.360841 7:-0.36 
6095.131702740294 1:-0.948579 2:-0.366985 3:-1 4:-0.333333 5:-0.952955 6:-0.619535 7:-0.68 
3670.236468814319 1:-0.913058 2:-0.37412 3:-1 5:-0.941963 6:-0.534202 7:0.0133333 
8192 1:-0.958194 2:-0.357052 3:-0.75 4:-0.666667 5:-0.931651 6:-0.593676 7:-0.733333 
8192 1:-0.956191 2:-0.156159 3:-0.875 4:-0.666667 5:-0.869369 6:-0.326225 7:-0.333333 
8192 1:-0.963802 2:0.0337014 3:-0.875 4:-1 5:-0.8965 6:-0.317842 7:-0.44 
1712.215391077403 1:-0.980476 2:-0.239332 3:-0.875 4:-1 5:-0.931 6:-0.37724 7:-0.173333 
8192 1:-0.976258 2:-0.5672 3:-0.75 4:-1 5:-0.739212 6:-0.506698 7:-0.36 
8192 1:-0.954989 2:-0.273 3:-1 4:-0.333333 5:-0.967402 6:-0.473018 7:-0.493333 
8192 1:-0.959651 2:-0.559685 3:-0.875 4:-0.666667 5:-0.891053 6:-0.567763 7:-0.706667 
8192 1:-0.948579 2:-0.160906 3:-0.75 4:-0.666667 5:-0.905909 6:-0.333439 7:-0.173333 
8192 1:-0.972 2:-0.677247 3:-0.75 4:-0.666667 5:-0.94443 6:-0.612918 7:-0.466667 
8192 1:-0.967112 2:-0.426925 3:-0.75 4:-0.666667 5:-0.917748 6:-0.523992 7:-0.68 
8192 1:-0.954115 2:-0.247757 3:-0.625 4:-0.333333 5:-0.94101 6:-0.401991 7:-0.733333 
8192 1:-0.987981 2:0.215636 3:-1 4:-1 5:-0.990921 6:-0.367221 7:0.173333 
8192 1:-0.960178 2:-0.235772 3:-1 4:-1 5:-0.945044 6:-0.534084 7:-0.68 
57.01337871731387 1:-0.972407 2:-0.300309 3:-1 4:-0.666667 5:-0.973687 6:-0.577418 7:-0.0933333 
1236.13322603811 1:-0.896385 2:-0.482465 3:-1 4:-0.333333 5:-0.985423 6:-0.548394 7:-0.52 
8192 1:-0.948579 2:-0.400937 3:-0.75 4:-0.666667 5:-0.924268 6:-0.417202 7:-0.893333 
322.7773410628873 1:-0.944519 2:-0.334534 3:-0.125 4:-0.666667 5:-0.889714 6:-0.439208 7:-0.386667 
8192 1:-0.958194 2:-0.496917 3:-0.75 4:-1 5:-0.872305 6:-0.437259 7:-0.68 
8192 1:-0.958401 2:-0.585663 3:-0.875 4:-0.333333 5:-0.962846 6:-0.657977 7:-0.573333 
8192 1:-0.990038 2:0.0688342 3:-1 4:-1 5:-0.999381 6:-0.407734 7:-0.573333 
8192 1:-0.953874 2:-0.0448126 3:-1 4:-1 5:-0.989803 6:-0.446467 7:-0.573333 
8192 1:-0.979026 2:-0.297101 3:-0.75 4:-1 5:-0.958182 6:-0.477527 7:-0.493333 
8192 1:-0.9576 2:-0.0106028 3:-0.875 4:-1 5:-0.982155 6:-0.469358 7:-0.786667 
8192 1:-0.952161 2:-0.0682101 3:-1 4:-0.666667 5:-0.954605 6:-0.473095 7:-0.68 
8192 1:-0.987329 2:0.29522 3:-1 4:-1 5:-0.972027 6:-0.254658 7:-0.253333 
8192 1:-0.974413 2:-0.17752 3:-1 4:-1 5:-0.994282 6:-0.618832 7:-0.706667 
8192 1:-0.951962 2:-0.510753 3:-0.875 4:-0.666667 5:-0.96521 6:-0.571739 7:-0.626667 
8192 1:-0.964817 2:0.273551 3:-0.875 4:-1 5:-0.944947 6:-0.295674 7:-0.573333 
8192 1:-0.955345 2:0.387916 3:-1 4:-1 5:-1 6:-0.451179 7:-0.786667 
8192 1:-0.930669 2:-0.578078 3:-0.875 4:-0.666667 5:-0.799273 6:-0.48086 7:-0.866667 
8192 1:-0.964464 2:-0.30384 3:-0.875 4:-0.666667 5:-0.967453 6:-0.553799 7:-0.626667 
2683.29490063293 1:-0.967112 2:-0.132879 3:-0.75 4:-1 5:-0.977377 6:-0.528047 7:-0.546667 
8192 1:-0.948579 2:-0.0556836 3:-0.625 4:-1 5:-0.932865 6:-0.372767 7:-0.733333 
8192 1:-0.951116 2:-0.457827 3:-0.875 4:-0.666667 5:-0.976042 6:-0.588908 7:-0.626667 
7902.875310655225 1:-0.974172 2:0.888507 3:-0.875 4:-1 5:-0.998611 6:-0.228413 7:-0.866667 
8192 1:-0.989175 2:-0.157229 3:-1 4:-0.666667 5:-0.988989 6:-0.466918 7:-0.386667 
1274.990959868464 1:-0.944061 2:-0.529225 3:-0.25 4:-1 5:-0.133792 6:-0.675488 7:-1 
8192 1:-0.964604 2:-0.449877 3:-0.875 4:-0.666667 5:-0.819286 6:-0.531979 7:-0.173333 
8174.26071053313 1:-0.944997 2:-0.608467 3:-0.625 4:-0.333333 5:-0.870625 6:-0.546585 7:-0.76 
8192 1:-0.954668 2:-0.44249 3:-0.875 4:-0.666667 5:-0.963363 6:-0.650083 7:-0.573333 
4478.315395129208 1:-0.93553 2:-0.21595 3:-1 4:-0.333333 5:-0.980833 6:-0.513862 7:-0.2 
4050.657676053268 1:-0.948579 2:0.124537 3:-0.875 4:-1 5:-0.990676 6:-0.420157 7:-0.786667 
8192 1:-0.948579 2:-0.157287 3:-0.75 4:-0.666667 5:-0.888108 6:-0.39039 7:-0.786667 
4274.1172879462 1:-0.958728 2:-0.325641 3:-0.875 4:-0.333333 5:-0.924879 6:-0.394351 7:-0.226667 
8192 1:-0.945679 2:-0.383178 3:-0.75 4:-0.666667 5:-0.963895 6:-0.494005 7:-0.76 
8192 1:-0.979026 2:-0.450742 3:-1 4:-1 5:-1 6:-0.689159 7:-0.626667 
6574.670864799544 1:-0.945932 2:-0.761132 3:-0.75 5:-0.85625 6:-0.607105 7:-0.626667 
8192 1:-0.969511 2:-0.644327 3:-0.875 4:-0.666667 5:-0.981518 6:-0.792223 7:-0.733333 
996.7493225861475 1:-0.926832 2:-0.303708 3:-0.875 4:-0.666667 5:-0.789167 6:-0.53637 7:-0.253333 
5056.715598195356 1:-0.932341 2:0.00527871 3:-0.875 4:-1 5:-0.960192 6:-0.32344 7:-0.173333 
1327.694609961428 1:-0.93988 2:-0.82392 3:-1 4:-0.666667 5:-0.771338 6:-0.67064 7:-0.546667 
227.2430829621746 1:-0.957563 2:-0.513918 3:0.375 4:-1 5:-0.938621 6:-0.360841 7:-0.786667 
8192 1:-0.948579 2:-0.117349 3:-0.875 4:-0.666667 5:-0.941781 6:-0.388846 7:-0.68 
6934.646068632008 1:-0.958194 2:-0.325538 3:-0.375 4:-0.666667 5:-0.894641 6:-0.355732 7:-0.626667 
8192 1:-0.956522 2:-0.147647 3:-1 4:-1 5:-0.909011 6:-0.466138 7:-0.733333 
8192 1:-0.947845 2:-0.83297 3:-0.5 4:-0.333333 5:-0.965443 6:-0.633978 7:-0.733333 
8192 1:-0.946405 2:-0.449325 3:-1 4:-0.666667 5:-0.963811 6:-0.554597 7:-0.68 
8192 1:-0.97162 2:-0.307649 3:-0.875 4:-1 5:-0.972853 6:-0.53587 7:-0.6 
199.0695529501172 1:-0.940968 2:-0.576625 3:-0.375 4:-0.333333 5:-0.900541 6:-0.458517 7:-0.76 
8192 1:-0.974911 2:-0.354986 3:-0.875 4:-1 5:-0.982556 6:-0.598808 7:-0.493333 
8192 1:-0.959997 2:-0.407919 3:-0.625 4:-0.666667 5:-0.97125 6:-0.503021 7:-0.546667 
8192 1:-0.926832 2:-0.427505 3:-1 4:-0.666667 5:-0.959806 6:-0.68921 7:-0.0933333 
8192 1:-0.943895 2:-0.0615293 3:-0.75 4:-0.666667 5:-0.857941 6:-0.342712 7:-0.6 
5011.224485512917 1:-0.956698 2:0.698763 3:-1 4:-0.666667 5:-1 6:-0.260408 7:-0.413333 
8192 1:-0.979026 2:-0.605215 3:-0.875 4:-0.666667 5:-0.942897 6:-0.637225 7:-0.493333 
310.9986351255623 1:-0.956883 2:-0.342108 3:-0.625 4:-0.333333 5:-0.962018 6:-0.462333 7:-0.546667 
647.1006441509799 1:-0.964973 2:0.853257 3:-1 4:-1 5:-0.995941 6:-0.259405 7:-0.893333 
4124.311950719195 1:-0.942387 2:-0.0826559 3:-0.5 4:-0.333333 5:-0.981712 6:-0.302217 7:-0.76 
8192 1:-0.958728 2:0.237832 3:-0.75 4:-1 5:-0.964104 6:-0.314401 7:-0.04 
3170.918562906971 1:-0.940968 2:-0.583265 3:-0.5 5:-0.79038 6:-0.443793 7:-0.653333 
124.9675022599124 1:-0.934252 2:-0.463315 3:-0.125 4:-0.333333 5:-0.88793 6:-0.441237 7:-0.706667 
8192 1:-0.987821 2:-0.567216 3:-1 4:-1 5:-0.98893 6:-0.796536 7:-0.413333 
8192 1:-0.972501 2:-0.499381 3:-0.75 4:-0.333333 5:-0.913325 6:-0.474878 7:-0.6 
105.2505778494755 1:-0.964237 2:-0.886787 3:0.375 4:-1 5:-0.88964 6:-0.65543 7:-0.386667 
1683.706315974075 1:-0.952639 2:-0.202383 3:-0.25 4:-0.666667 5:-0.87656 6:-0.361194 7:-0.36 
8192 1:-0.974218 2:-0.145962 3:-0.875 4:-0.666667 5:-0.989545 6:-0.460413 7:-0.226667 
8192 1:-0.939211 2:0.113739 3:-1 4:-0.666667 5:-0.979706 6:-0.342712 7:-0.36 
8192 1:-0.974218 2:0.0148457 3:-1 4:-1 5:-0.981182 6:-0.366415 7:-0.333333 
8192 1:-0.954668 2:-0.414271 3:-0.875 4:-1 5:-0.917857 6:-0.512532 7:-0.786667 
8192 1:-0.963078 2:-0.497308 3:-0.75 4:-0.666667 5:-0.90892 6:-0.493784 7:-0.68 
2948.055126547511 1:-0.966847 2:-0.345419 3:-0.625 4:-1 5:-0.858105 6:-0.388846 7:-0.36 
8192 1:-0.951784 2:-0.519784 3:-0.75 4:-0.666667 5:-0.73245 6:-0.462549 7:-0.68 
3182.749415037175 1:-0.901738 2:0.115644 3:-1 4:-1 5:-0.971773 6:-0.438844 7:-0.12 
8192 1:-0.951784 2:-0.265528 3:-0.875 4:-0.666667 5:-0.976828 6:-0.524787 7:-0.493333 
1598.291938857692 1:-0.913058 2:-0.325641 3:-0.875 5:-0.919768 6:-0.387512 7:-0.2 
7316.89499342724 1:-0.948579 2:-0.306111 3:-0.75 4:-0.666667 5:-0.891865 6:-0.411314 7:-0.733333 
836.2706412688827 1:-0.983375 2:-0.658128 3:-0.875 4:-0.333333 5:-0.880818 6:-0.571587 7:0.12 
8192 1:-0.954878 2:-0.551329 3:-0.375 4:-0.666667 5:-0.945 6:-0.516677 7:-0.733333 
8192 1:-0.939558 2:-0.682959 3:-0.875 5:-0.966493 6:-0.657858 7:-0.52 
8192 1:-0.94655 2:-0.673641 3:-0.75 4:-0.333333 5:-0.947194 6:-0.615164 7:-0.6 
8192 1:-0.952929 2:0.219372 3:-0.375 4:-1 5:-0.924531 6:-0.293423 7:-0.466667 
8192 1:-0.948579 2:0.0493339 3:-1 4:-0.666667 5:-1 6:-0.39516 7:-0.2 
8192 1:-0.954668 2:-0.432888 3:-0.875 4:-0.666667 5:-0.949919 6:-0.547046 7:-0.653333 
8192 1:-0.948579 2:-0.344745 3:-0.625 4:-0.666667 5:-0.872746 6:-0.468081 7:-0.84 
1395.726479052819 1:-0.977576 2:0.239502 3:-1 4:-1 5:-0.982308 6:-0.33086 7:-0.386667 
1920.108406813822 1:-0.897054 2:-0.482724 3:-1 4:-0.333333 5:-0.992333 6:-0.617548 7:0.0933333 
8192 1:-0.958194 2:-0.0559034 3:-0.75 4:-1 5:-0.959252 6:-0.379273 7:-0.733333 
8192 1:-0.935048 2:-0.357726 3:-0.875 4:-0.333333 5:-0.984667 6:-0.511999 7:-0.573333 
1673.382230316618 1:-0.991089 2:-0.486551 3:-1 4:-1 5:-0.996806 6:-0.498047 7:-0.146667 
495.0279322023585 1:-0.92955 2:-0.253163 3:-0.125 4:-0.666667 5:-0.907036 6:-0.421496 7:-0.706667 
8192 1:-0.982175 2:0.66722 3:-1 4:-1 5:-1 6:-0.279161 7:-0.0133333 
8192 1:-0.968877 2:-0.0385128 3:-0.75 4:-1 5:-0.9325 6:-0.324636 7:-0.2 
8192 1:-0.945535 2:-0.126858 3:-1 4:-0.666667 5:-0.969257 6:-0.510071 7:-0.866667 
3072.483804211919 1:-0.99143 2:0.391593 3:-0.875 4:-1 5:-0.9925 6:-0.239869 7:-0.0933333 
8192 1:-0.979026 2:0.175419 3:-1 4:-1 5:-1 6:-0.442521 7:-0.306667 
1350.256368716318 1:-0.959856 2:-0.766081 3:-0.75 4:-0.666667 5:-0.927484 6:-0.760539 7:-0.44 
8192 1:-0.960758 2:-0.110024 3:-0.5 4:-0.666667 5:-0.94665 6:-0.361437 7:-0.6 
8192 1:-0.948579 2:-0.228095 3:-0.5 4:-1 5:-0.894388 6:-0.375797 7:-0.706667 
8192 1:-0.998055 2:0.146264 3:-1 4:-1 5:-1 6:-0.264863 7:-0.173333 
8192 1:-0.951479 2:-0.351309 3:-0.875 4:-0.666667 5:-0.973797 6:-0.61945 7:-0.68 
1335.013500236762 1:-0.938965 2:-0.584346 3:-0.875 5:-0.935979 6:-0.527027 7:-0.36 
210.8793114878862 1:-0.940637 2:-0.808575 3:-0.5 5:-0.840184 6:-0.517666 7:-0.653333 
8192 1:-0.963802 2:-0.755601 3:-0.875 4:-1 5:-0.978287 6:-0.882146 7:-0.84 
-673.7011036797386 1:-0.951784 2:0.180415 3:-0.875 4:-1 5:-0.835462 6:-0.379046 7:-0.733333 
-8192 1:-0.968508 2:0.168973 3:-0.875 4:-1 5:-0.995125 6:-0.394372 7:-0.733333 
-8192 1:-0.959018 2:0.0281048 3:-0.875 4:-0.666667 5:-0.868371 6:-0.396556 7:-0.733333 
-22.52925221223004 1:-0.951784 2:-0.959344 3:-0.75 4:-0.666667 5:1 6:-0.891093 7:-1 
-8192 1:-0.971414 2:-0.507413 3:-1 4:-0.333333 5:-0.968424 6:-0.629126 7:-0.466667 
-8192 1:-0.952385 2:-0.178385 3:-0.875 4:-1 5:-0.914345 6:-0.410777 7:-0.173333 
-8192 1:-0.943505 2:0.0381113 3:-0.5 4:-1 5:-0.899515 6:-0.286163 7:-0.36 
-8192 1:-0.952639 2:-0.447403 3:-1 5:-0.938077 6:-0.517416 7:-0.0933333 
-8192 1:-0.925482 2:-0.225883 3:-1 4:-0.333333 5:-0.998582 6:-0.502018 7:-0.76 
-428.4697861449399 1:-0.989492 2:0.973204 3:-1 4:-1 5:-1 6:-0.274432 7:-0.946667 
-3107.535820609601 1:-0.972209 2:-0.595897 3:-0.75 4:-0.333333 5:-0.98712 6:-0.747363 7:-0.68 
-3.487299943276444 1:-0.92067 2:-0.287314 3:-1 4:-0.333333 5:-0.993912 6:-0.428058 7:-0.733333 
-8192 1:-0.939211 2:0.0218782 3:-0.875 4:-0.666667 5:-0.91829 6:-0.341135 7:-0.146667 
-8192 1:-0.980817 2:-0.28771 3:-0.875 4:-1 5:-0.990591 6:-0.591619 7:-0.52 
-2628.432761499701 1:-0.989492 2:0.911274 3:-1 4:-1 5:-1 6:-0.27364 7:-0.946667 
-2717.709642114457 1:-0.990392 2:-0.28935 3:-0.25 4:-1 5:-0.989743 6:-0.286743 7:-0.36 
-909.5705755448676 1:-0.98619 2:-0.490116 3:-1 4:-1 5:-1 6:-0.730129 7:0.2 
-8127.065344526231 1:-0.953263 2:0.248864 3:-1 4:-0.666667 5:-1 6:-0.457068 7:-0.84 
-8192 1:-0.920475 2:-0.427243 3:-0.875 4:-0.333333 5:-0.972718 6:-0.425937 7:-0.253333 
-96.19837945097311 1:-0.960385 2:-0.803856 3:-0.125 4:-0.666667 5:-0.989587 6:-0.742808 7:-0.893333 
-8192 1:-0.979948 2:-0.310799 3:-1 4:-0.666667 5:-0.977 6:-0.609924 7:-0.52 
-8192 1:-0.960289 2:-0.346797 3:-0.875 4:-0.666667 5:-0.966217 6:-0.431011 7:-0.653333 
-8192 1:-0.93988 2:0.684655 3:-0.875 4:-1 5:-0.958041 6:-0.229196 7:-0.386667 
-928.9583988045406 1:-0.954288 2:-0.38166 3:-1 4:-1 5:-0.980654 6:-0.752541 7:-0.84 
-2870.388784787986 1:-0.95155 2:-0.320088 3:-0.875 4:-1 5:-0.957239 6:-0.370226 7:-0.626667 
-8192 1:-0.969457 2:-0.358942 3:-0.875 4:-1 5:-0.873086 6:-0.488655 7:-0.52 
-650.480551709019 1:-0.98816 2:0.452218 3:-0.875 4:-1 5:-0.989752 6:-0.273052 7:0.2 
-8166.862569111065 1:-0.949963 2:-0.144644 3:-0.875 4:-0.666667 5:-0.986348 6:-0.394892 7:-0.786667 
-8192 1:-0.959997 2:0.055707 3:-1 4:-1 5:-0.983828 6:-0.399449 7:-0.36 
-7667.218923765766 1:-0.97851 2:0.0201054 3:-1 4:-1 5:-0.998809 6:-0.52505 7:-0.52 
-4317.285073057331 1:-0.94655 2:-0.761764 3:-0.875 5:-0.984366 6:-0.775763 7:-0.493333 
-8192 1:-0.958728 2:-0.0802385 3:-1 4:-1 5:-0.964615 6:-0.410316 7:-0.306667 
-8192 1:-0.937162 2:-0.576267 3:-0.75 4:-0.666667 5:-0.937082 6:-0.526377 7:-0.92 
-8192 1:-0.956191 2:-0.0536471 3:-0.875 4:-1 5:-0.889894 6:-0.367626 7:-0.386667 
-8192 1:-0.9841 2:0.22324 3:-0.875 4:-1 5:-0.98344 6:-0.322214 7:-0.0666667 
-8192 1:-0.933356 2:-0.00220789 3:-1 4:-0.666667 5:-0.997653 6:-0.527078 7:-0.76 
-8192 1:-0.986637 2:-0.535766 3:-1 4:-1 5:-0.950377 6:-0.642507 7:0.146667 
-8192 1:-0.959997 2:-0.110375 3:-0.75 4:-0.666667 5:-0.853192 6:-0.324697 7:-0.28 
-8192 1:-0.959997 2:-0.0902597 3:-1 4:-1 5:-0.867706 6:-0.320532 7:-0.253333 
-8192 1:-0.972501 2:-0.195028 3:-1 4:-1 5:-0.946923 6:-0.459835 7:-0.573333 
-8192 1:-0.967157 2:-0.468775 3:-0.875 4:-0.666667 5:-0.908145 6:-0.514737 7:-0.733333 
-8192 1:-0.969338 2:-0.439815 3:-1 4:-0.666667 5:-0.943826 6:-0.573163 7:-0.626667 
-8192 1:-0.953451 2:-0.532259 3:-0.875 4:-0.666667 5:-0.96688 6:-0.685016 7:-0.68 
-8192 1:-0.969577 2:-0.533186 3:-0.875 4:-0.666667 5:-0.984015 6:-0.599542 7:-0.573333 
-8192 1:-0.971013 2:-0.471459 3:-0.5 4:-0.333333 5:-0.84077 6:-0.504561 7:-0.52 
-8192 1:-0.971197 2:-0.450551 3:-0.875 4:-0.666667 5:-0.974909 6:-0.441299 7:-0.28 
-8192 1:-0.969658 2:0.0429901 3:-0.875 4:-1 5:-0.989275 6:-0.512946 7:-0.573333 
-8192 1:-0.962111 2:-0.226352 3:-0.875 4:-1 5:-0.919315 6:-0.386995 7:-0.6 
-868.5434814842723 1:-0.974459 2:0.973277 3:-0.5 4:-1 5:-0.996757 6:-0.218955 7:-0.893333 
-5571.374894474066 1:-0.966906 2:-0.465181 3:-0.625 4:-0.666667 5:-0.859761 6:-0.47628 7:-0.84 
-8192 1:-0.972151 2:-0.290816 3:-1 4:-1 5:-0.945906 6:-0.552173 7:-0.733333 
-8192 1:-0.967809 2:0.0748557 3:-1 4:-1 5:-0.964796 6:-0.351029 7:-0.12 
-8192 1:-0.956808 2:-0.647034 3:-0.875 4:-0.666667 5:-0.758622 6:-0.577005 7:-0.733333 
-8192 1:-0.968222 2:-0.627729 3:-0.875 4:-1 5:-0.981518 6:-0.751845 7:-0.733333 
-2222.723628625938 1:-0.96634 2:-0.739938 3:-0.75 4:-0.666667 5:-0.982052 6:-0.753065 7:-0.626667 
-8192 1:-0.946405 2:-0.219539 3:-1 4:-0.666667 5:-0.99541 6:-0.500503 7:-0.68 
-8192 1:-0.952385 2:-0.109086 3:-0.875 4:-0.666667 5:-0.902752 6:-0.349041 7:-0.333333 
-8192 1:-0.948579 2:-0.145801 3:-1 4:-0.666667 5:-0.990048 6:-0.522685 7:-0.52 
-8192 1:-0.972936 2:-0.510607 3:-0.875 4:-0.666667 5:-0.772467 6:-0.453171 7:-0.52 
-8192 1:-0.933356 2:-0.400233 3:-0.75 4:-1 5:-0.887799 6:-0.419622 7:-0.813333 
-8192 1:-0.965705 2:-0.320527 3:-0.875 4:-0.666667 5:-0.871233 6:-0.425144 7:-0.626667 
-8192 1:-0.954668 2:-0.312484 3:-1 4:-0.666667 5:-0.997565 6:-0.608658 7:-0.493333 
-2800.550682621849 1:-0.962631 2:0.397527 3:-0.75 4:-1 5:-0.993675 6:-0.349746 7:-0.893333 
-584.1681290273474 1:-0.970568 2:-0.714283 3:-0.875 4:-0.333333 5:-0.981751 6:-0.671728 7:-0.52 
-4520.359183580498 1:-0.931435 2:-0.407491 3:-1 4:-0.666667 5:-0.998285 6:-0.647325 7:-0.84 
-2561.486598274204 1:-0.960758 2:0.103484 3:-0.625 4:-0.666667 5:-0.941781 6:-0.303909 7:-0.733333 
-8192 1:-0.952385 2:-0.00279392 3:-0.875 4:-0.333333 5:-0.934401 6:-0.323785 7:-0.333333 
-8192 1:-0.92294 2:-0.378105 3:-0.625 4:-0.666667 5:-0.95767 6:-0.392275 7:-0.68 
-8192 1:-0.957947 2:0.643573 3:-1 4:-1 5:-1 6:-0.257524 7:-0.44 
-8192 1:-0.944519 2:-0.106727 3:-1 4:-0.666667 5:-0.982605 6:-0.44923 7:-0.173333 
-8192 1:-0.948579 2:0.0336721 3:-1 4:-1 5:-0.948762 6:-0.494705 7:-0.786667 
-8192 1:-0.970071 2:-0.27634 3:-0.875 4:-0.666667 5:-0.881778 6:-0.351775 7:-0.573333 
-8192 1:-0.970722 2:-0.381998 3:-0.875 4:-0.666667 5:-0.862632 6:-0.479856 7:-0.626667 
-8192 1:-0.971862 2:-0.585266 3:-0.875 4:-0.666667 5:-0.979572 6:-0.693582 7:-0.466667 
-8192 1:-0.951702 2:-0.439822 3:-0.75 4:-0.666667 5:-0.861772 6:-0.552042 7:-0.786667 
-8192 1:-0.962111 2:-0.0946696 3:-0.875 4:-1 5:-0.992218 6:-0.484141 7:0.0133333 
-2573.38391459342 1:-0.926436 2:-0.642952 3:-1 4:-0.333333 5:-0.990417 6:-0.595087 7:-0.626667 
-8192 1:-0.967608 2:-0.373754 3:-0.75 4:-0.333333 5:-0.899561 6:-0.397333 7:-0.733333 
-3544.069781931512 1:-0.948579 2:0.0740646 3:-0.875 4:-0.666667 5:-0.907116 6:-0.30151 7:-0.786667 
-8192 1:-0.982997 2:-0.029356 3:-0.875 4:-1 5:-0.949299 6:-0.343646 7:-0.2 
-8192 1:-0.936739 2:-0.521237 3:-0.875 4:-0.333333 5:-0.966654 6:-0.611586 7:-0.733333 
-8192 1:-0.954472 2:-0.671374 3:-0.875 4:-0.666667 5:-0.830951 6:-0.657811 7:-0.68 
-1708.560064487239 1:-0.965897 2:-0.61425 3:-0.625 4:-1 5:-0.993839 6:-0.71494 7:-0.733333 
-8192 1:-0.945932 2:-0.573567 3:-0.875 4:-0.666667 5:-0.983239 6:-0.628126 7:-0.546667 
-3690.473034735239 1:-0.985398 2:-0.473869 3:-0.875 4:-0.666667 5:-0.996538 6:-0.580335 7:-0.386667 
-8192 1:-0.953263 2:-0.266627 3:-0.875 4:-0.666667 5:-0.889305 6:-0.444668 7:-0.733333 
-8192 1:-0.952639 2:-0.116924 3:-0.875 4:-1 5:-0.887876 6:-0.371319 7:-0.493333 
-8192 1:-0.982409 2:-0.0816596 3:-0.875 4:-1 5:-0.993876 6:-0.47564 7:-0.466667 
-8192 1:-0.972616 2:-0.574843 3:-0.875 4:-0.666667 5:-0.979359 6:-0.702353 7:-0.573333 
-8192 1:-0.971414 2:-0.533755 3:-1 4:-0.333333 5:-0.978046 6:-0.575436 7:-0.36 
-8192 1:-0.969821 2:-0.190472 3:-0.875 4:-0.666667 5:-0.983198 6:-0.442193 7:-0.44 
-4898.26504015352 1:-0.97226 2:-0.863803 3:-1 4:-1 5:-0.977102 6:-0.901061 7:-0.52 
-8192 1:-0.963802 2:-0.106727 3:-0.875 4:-0.666667 5:-0.979881 6:-0.427464 7:-0.68 
-8192 1:-0.992074 2:0.442871 3:-1 4:-1 5:-1 6:-0.365281 7:-0.0666667 
-6354.735115414464 1:-0.993724 2:0.714762 3:-1 4:-1 5:-1 6:-0.249785 7:-0.0666667 
-8192 1:-0.962631 2:0.180899 3:-1 4:-1 5:-0.993168 6:-0.447473 7:-0.733333 
-8192 1:-0.975086 2:-0.358883 3:-0.875 4:-1 5:-0.994495 6:-0.576039 7:-0.546667 
-8192 1:-0.969723 2:-0.80072 3:-0.875 4:-0.666667 5:-0.820647 6:-0.622363 7:-0.626667 
-8192 1:-0.959997 2:-0.128879 3:-1 4:-0.666667 5:-0.989752 6:-0.543598 7:-0.253333 
-5237.236770081739 1:-0.980175 2:0.776003 3:-1 4:-1 5:-1 6:-0.272987 7:-0.786667 
-542.6077515262728 1:-0.959325 2:-0.982813 3:-0.625 4:-0.333333 5:-0.473314 6:-0.755989 7:-0.68 
-282.459192677844 1:-0.957534 2:-0.603234 3:-0.875 4:-1 5:-0.993689 6:-0.903793 7:-0.733333 
-1668.944254997924 1:-0.971013 2:-0.728383 3:-0.875 4:-0.666667 5:-0.97743 6:-0.75396 7:-0.573333 
-1136.339224003795 1:-0.987038 2:0.561792 3:-1 4:-1 5:-0.997319 6:-0.268044 7:0.12 
-8192 1:-0.980929 2:-0.383544 3:-1 4:-1 5:-0.979505 6:-0.653545 7:-0.04 
-8192 1:-0.924657 2:-0.269425 3:-1 4:-0.333333 5:-0.998434 6:-0.535213 7:-0.76 
-8192 1:-0.956191 2:-0.404127 3:-0.875 4:-0.666667 5:-0.784376 6:-0.447521 7:-0.253333 
-8192 1:-0.969511 2:-0.620925 3:-0.625 4:-0.666667 5:-0.800517 6:-0.581592 7:-0.52 
-8192 1:-0.928282 2:-0.917249 3:-0.875 4:-0.333333 5:-0.955835 6:-0.740977 7:-0.36 
-8192 1:-0.970146 2:-0.585341 3:-0.5 5:-0.826915 6:-0.48578 7:-0.653333 
-8192 1:-0.959018 2:-0.475104 3:-0.875 4:-1 5:-0.925222 6:-0.479418 7:-0.493333 
-8192 1:-0.968877 2:-0.6268 3:-0.75 4:-0.666667 5:-0.928844 6:-0.578016 7:-0.573333 
-8192 1:-0.965494 2:-0.408453 3:-0.75 4:-0.666667 5:-0.957435 6:-0.531979 7:-0.626667 
-8192 1:-0.936401 2:0.381103 3:-1 4:-0.666667 5:-1 6:-0.284816 7:-0.413333 
-8192 1:-0.996306 2:0.212955 3:-1 4:-1 5:-1 6:-0.238925 7:0.146667 
-8192 1:-0.918133 2:-0.342357 3:-1 4:-0.333333 5:-0.990048 6:-0.552045 7:-0.52 
-8192 1:-0.951784 2:-0.152921 3:-0.875 4:-0.666667 5:-0.895953 6:-0.439313 7:-0.706667 
-8192 1:-0.984399 2:0.291791 3:-1 4:-1 5:-0.995633 6:-0.432199 7:-0.226667 
-8192 1:-0.948579 2:-0.606644 3:-0.75 4:-1 5:-0.782106 6:-0.540567 7:-0.76 
-1983.528943820301 1:-0.942207 2:-0.3005 3:-0.125 4:-0.666667 5:-0.921507 6:-0.4424 7:-0.84 
-8192 1:-0.912883 2:-0.616058 3:-0.625 4:-0.333333 5:-0.969793 6:-0.575676 7:-0.573333 
-8192 1:-0.936401 2:-0.6914 3:-0.875 4:-0.666667 5:-0.869812 6:-0.672944 7:-0.733333 
-8192 1:-0.986275 2:0.202626 3:-1 4:-1 5:-1 6:-0.468493 7:-0.28 
-8192 1:-0.922104 2:-0.397522 3:-1 4:-0.333333 5:-0.988103 6:-0.487105 7:-0.52 
-8192 1:-0.975139 2:-0.548308 3:-0.625 4:-0.666667 5:-0.971325 6:-0.549901 7:-0.6 
-216.0322184127331 1:-0.934252 2:-0.263785 3:-1 4:-1 5:-0.975085 6:-0.376791 7:-0.92 
-5339.157223949725 1:-0.951784 2:0.212589 3:-0.75 4:-1 5:-0.91375 6:-0.30506 7:-0.786667 
-8192 1:-0.956191 2:-0.0924426 3:-1 4:-0.666667 5:-0.9885 6:-0.616176 7:-0.52 
-8192 1:-0.950482 2:-0.582604 3:-0.75 4:-0.333333 5:-0.782529 6:-0.566438 7:-0.733333 
-8192 1:-0.973951 2:-0.464125 3:-1 4:-1 5:-0.996381 6:-0.707117 7:-0.413333 
-8192 1:-0.962715 2:-0.272253 3:-1 4:-1 5:-0.99725 6:-0.560582 7:-0.573333 
-8192 1:-0.948579 2:0.159845 3:-0.5 4:-1 5:-0.895455 6:-0.272631 7:-0.493333 
-8192 1:-0.980182 2:-0.284823 3:-0.875 4:-1 5:-0.993799 6:-0.469539 7:-0.52 
-6498.779612354938 1:-0.970146 2:-0.348481 3:-0.375 4:-1 5:-0.799198 6:-0.465471 7:-0.733333 
-8192 1:-0.974676 2:-0.700179 3:-0.75 4:-0.666667 5:-0.983261 6:-0.760766 7:-0.466667 
-8192 1:-0.999559 2:-0.0456477 3:-1 4:-1 5:-1 6:-0.368849 7:-0.146667 
-8192 1:-0.948579 2:-0.308616 3:-0.75 4:-0.666667 5:-0.935042 6:-0.511444 7:-0.84 
-8192 1:-0.93988 2:-0.651381 3:-0.75 4:-0.333333 5:-0.947652 6:-0.668191 7:-0.68 
-8192 1:-0.967809 2:0.412588 3:-1 4:-1 5:-1 6:-0.298971 7:-0.226667 
-8192 1:-0.970438 2:-0.585386 3:-0.75 4:-0.666667 5:-0.92936 6:-0.499932 7:-0.76 
-8192 1:-0.969658 2:-0.211935 3:-1 4:-1 5:-0.98394 6:-0.57526 7:-0.626667 
-8192 1:-0.956191 2:-0.330153 3:-0.75 4:-0.666667 5:-0.911846 6:-0.435475 7:-0.68 
-2160.689501159576 1:-0.976996 2:-0.514162 3:-0.5 4:-1 5:-0.978744 6:-0.742048 7:-0.653333 
-8192 1:-0.973951 2:-0.6499 3:-1 4:-0.666667 5:-0.937061 6:-0.669908 7:0.226667 
-1763.071186430959 1:-0.909253 2:-0.438825 3:-0.75 4:-0.333333 5:-0.987965 6:-0.387245 7:-0.626667 
-8192 1:-0.988595 2:0.172562 3:-1 4:-1 5:-1 6:-0.258341 7:0.146667 
-8192 1:-0.937923 2:-0.572654 3:-0.375 4:-0.666667 5:-0.907169 6:-0.542194 7:-0.84 
-8192 1:-0.961265 2:-0.201474 3:-0.75 4:-0.666667 5:-0.951346 6:-0.515287 7:-0.76 
-8192 1:-0.94423 2:0.271075 3:-0.875 4:-0.666667 5:-0.902205 6:-0.273827 7:-0.386667 
-8192 1:-0.961628 2:-0.215202 3:-0.625 4:-0.666667 5:-0.947462 6:-0.384464 7:-0.626667 
-99.60157714733505 1:-0.943505 2:0.669637 3:-0.875 4:-0.666667 5:-0.882629 6:-0.2464 7:-0.6 
-3409.860417522674 1:-0.974491 2:-0.778568 3:-1 4:-0.333333 5:-0.758392 6:-0.671844 7:-0.68 
-3996.342962028901 1:-0.922655 2:-0.240578 3:-0.75 4:-0.333333 5:-0.894256 6:-0.449757 7:-0.946667 
-6659.014666216864 1:-0.967112 2:-0.220008 3:-1 4:-0.666667 5:-0.973995 6:-0.473637 7:-0.653333 
-8192 1:-0.961817 2:-0.348555 3:-0.875 4:-0.666667 5:-0.815 6:-0.511837 7:-0.706667 
-8192 1:-0.948579 2:-0.0710524 3:-0.625 4:-1 5:-0.943065 6:-0.357725 7:-0.706667 
-8192 1:-0.948579 2:-0.185725 3:-1 4:-0.666667 5:-0.992813 6:-0.489882 7:-0.626667 
-8192 1:-0.970604 2:-0.802739 3:-0.75 4:-0.666667 5:-0.842408 6:-0.679941 7:-0.706667 
-8192 1:-0.959997 2:-0.206207 3:-1 4:-1 5:-0.90064 6:-0.392949 7:-0.146667 
-2810.204681941643 1:-0.953874 2:-0.849124 3:-0.75 4:-0.333333 5:-0.966018 6:-0.595595 7:-0.626667 
-7037.854117799541 1:-0.953263 2:-0.678289 3:-1 4:-0.666667 5:-0.988103 6:-0.775958 7:-0.573333 
-8192 1:-0.945496 2:-0.79148 3:-0.5 4:-0.666667 5:-0.867188 6:-0.658314 7:-0.866667 
-8192 1:-0.976996 2:-0.264239 3:-1 4:-1 5:-0.998258 6:-0.459439 7:-0.44 
-8192 1:-0.969511 2:-0.0524164 3:-1 4:-1 5:-0.989256 6:-0.512477 7:-0.52 
-8192 1:-0.967608 2:0.192341 3:-1 4:-1 5:-0.994914 6:-0.474346 7:-0.653333 
-8192 1:-0.971237 2:-0.848914 3:-0.5 4:-0.333333 5:-0.906617 6:-0.640737 7:-0.52 
-8192 1:-0.928282 2:-0.578241 3:-0.875 4:-0.666667 5:-0.989314 6:-0.561658 7:-0.786667 
-8192 1:-0.970186 2:0.222405 3:-1 4:-1 5:-0.994052 6:-0.340903 7:-0.626667 
-8192 1:-0.958728 2:-0.24928 3:-0.75 4:-1 5:-0.8275 6:-0.408974 7:-0.28 
-8192 1:-0.998401 2:0.0901805 3:-1 4:-1 5:-1 6:-0.279544 7:0.0933333 
-8192 1:-0.968013 2:-0.615422 3:-0.75 4:-0.333333 5:-0.74887 6:-0.556668 7:-0.733333 
-8192 1:-0.970071 2:-0.0775134 3:-0.375 4:-0.666667 5:-0.949562 6:-0.404299 7:-0.68 
-8192 1:-0.955345 2:-0.424902 3:-0.875 4:-0.666667 5:-0.854038 6:-0.461421 7:-0.84 
-8192 1:-0.926026 2:-0.495532 3:-0.75 4:-0.333333 5:-0.991834 6:-0.641561 7:-0.706667 
-8192 1:-0.933356 2:-0.313568 3:-0.75 4:-1 5:-0.90078 6:-0.326513 7:-0.733333 
-8192 1:-0.956191 2:-0.389995 3:-0.875 4:-0.666667 5:-0.798496 6:-0.534084 7:-0.0666667 
-8192 1:-0.962907 2:0.472935 3:-1 4:-1 5:-1 6:-0.450189 7:-0.253333 
-7850.51454165674 1:-0.928282 2:-0.584651 3:-0.875 4:-0.333333 5:-0.988626 6:-0.622583 7:-0.68 
-1159.053063463961 1:-0.962869 2:-0.69616 3:-0.125 4:-0.666667 5:-0.142358 6:-0.69375 7:-0.893333 
-6816.593697537465 1:-0.966258 2:-0.199072 3:-0.625 4:-1 5:-0.993624 6:-0.523052 7:-0.733333 
-8192 1:-0.969821 2:-0.276091 3:-0.875 4:-0.666667 5:-0.981637 6:-0.439915 7:-0.44 
-8192 1:-0.944519 2:-0.0616172 3:-0.625 4:-0.666667 5:-0.899188 6:-0.363587 7:-0.253333 
-8192 1:-1 2:0.121563 3:-1 4:-1 5:-0.995461 6:-0.284031 7:-0.333333 
-8192 1:-0.946788 2:-0.477838 3:-0.875 4:-0.666667 5:-0.893727 6:-0.539705 7:-0.786667 
-5547.585936848531 1:-0.981635 2:-0.530378 3:-1 4:-1 5:-0.981627 6:-0.646913 7:-0.626667 
-8192 1:-0.953654 2:-0.277132 3:-0.875 4:-1 5:-0.972763 6:-0.605237 7:-0.84 
-8192 1:-0.951784 2:0.0943707 3:-0.875 4:-1 5:-0.931 6:-0.337899 7:-0.786667 
-8192 1:-0.961265 2:-0.881408 3:-0.75 5:-0.829777 6:-0.612191 7:-0.68 
-8192 1:-0.992727 2:0.114325 3:-0.875 4:-1 5:-0.992305 6:-0.413046 7:-0.226667 
-8192 1:-0.957278 2:-0.0358463 3:-0.75 4:-0.666667 5:-0.980515 6:-0.382908 7:-0.786667 
-8192 1:-0.955345 2:-0.336761 3:-1 4:-0.666667 5:-0.961902 6:-0.506203 7:-0.786667 
-8192 1:-0.981972 2:0.0212628 3:-1 4:-1 5:-0.996573 6:-0.467701 7:-0.493333 
-8192 1:-0.968877 2:-0.102566 3:-1 4:-1 5:-0.983033 6:-0.391652 7:-0.173333 
-8192 1:-0.959078 2:-0.329582 3:-0.5 4:-0.666667 5:-0.905705 6:-0.397331 7:-0.626667 
-8192 1:-0.964973 2:-0.214616 3:-0.875 4:-1 5:-0.975259 6:-0.490768 7:-0.653333 
-8192 1:-0.944379 2:-0.273982 3:-0.625 4:-0.666667 5:-0.907658 6:-0.411838 7:-0.813333 
-8192 1:-0.959325 2:0.111102 3:-1 4:-1 5:-1 6:-0.430852 7:-0.04 
-8192 1:-0.983593 2:-0.382356 3:-1 4:-1 5:-0.994893 6:-0.585019 7:-0.466667 
-8192 1:-0.957142 2:0.0659626 3:-0.75 4:-1 5:-0.937203 6:-0.404749 7:-0.84 
-742.7898508526368 1:-0.950609 2:-0.304104 3:-1 4:-0.333333 5:-0.987183 6:-0.683841 7:-0.733333 
-6452.897151408813 1:-0.967269 2:-0.425904 3:-0.75 4:-1 5:-0.822864 6:-0.510497 7:-0.733333 
-8192 1:-0.962111 2:-0.573699 3:-0.75 4:-0.666667 5:-0.810601 6:-0.542837 7:-0.6 
-4805.605013696731 1:-0.936194 2:-0.486433 3:-1 4:-0.666667 5:-0.989271 6:-0.569325 7:-0.866667 
-4598.168486756783 1:-0.969457 2:0.642372 3:-1 4:-1 5:-1 6:-0.430646 7:-0.84 
-8192 1:-0.948579 2:-0.090582 3:-1 4:-0.666667 5:-0.994876 6:-0.419986 7:-0.626667 
-8192 1:-0.980476 2:0.0254823 3:-1 4:-1 5:-1 6:-0.478685 7:-0.28 
-8192 1:-0.951962 2:-0.519535 3:-0.875 4:-0.666667 5:-0.841793 6:-0.520905 7:-0.733333 
-8192 1:-0.953799 2:-0.194676 3:-0.875 4:-1 5:-0.988847 6:-0.644615 7:-0.84 
-8192 1:-0.950754 2:-0.387423 3:-0.875 4:-0.666667 5:-0.974473 6:-0.449678 7:-0.493333 
-8192 1:-0.975401 2:0.0663875 3:-0.75 4:-1 5:-0.996747 6:-0.418123 7:-0.626667 
-8192 1:-0.964973 2:-0.276883 3:-0.875 4:-1 5:-0.972763 6:-0.465315 7:-0.44 
-8192 1:-0.973731 2:-0.783986 3:-0.875 4:-0.666667 5:-0.767653 6:-0.625478 7:-0.466667 
-8192 1:-0.934186 2:-0.768203 3:-0.5 4:-0.666667 5:-0.987079 6:-0.664681 7:-0.546667 
-4939.015051215621 1:-0.954288 2:-0.202324 3:-0.875 4:-1 5:-0.991608 6:-0.673666 7:-0.84 
-8192 1:-0.967608 2:-0.206133 3:-0.875 4:-0.666667 5:-0.881714 6:-0.424891 7:-0.573333 
-8192 1:-0.958728 2:-0.357667 3:-0.75 4:-0.666667 5:-0.882324 6:-0.436896 7:-0.786667 
-8192 1:-0.963194 2:-0.0901571 3:-0.875 4:-1 5:-0.90625 6:-0.440327 7:-0.76 
-8192 1:-0.967608 2:-0.293658 3:-0.75 4:-0.666667 5:-0.943585 6:-0.453755 7:-0.573333 
-8192 1:-0.925297 2:-0.731105 3:-0.875 4:-0.333333 5:-0.983348 6:-0.619105 7:-0.52 
-8192 1:-0.935893 2:-0.0847949 3:-0.875 4:-0.666667 5:-0.968825 6:-0.335354 7:-0.626667 
-2354.591941146525 1:-0.966489 2:-0.397855 3:-1 4:-1 5:-0.994538 6:-0.63858 7:-0.706667 
-875.9552291061158 1:-0.992865 2:-0.344848 3:-1 4:-1 5:-0.997255 6:-0.450974 7:1 
-8192 1:-0.984399 2:0.322807 3:-1 4:-1 5:-0.982678 6:-0.35679 7:-0.28 
-8192 1:-0.979026 2:-0.217883 3:-0.875 4:-1 5:-0.989545 6:-0.575011 7:-0.52 
-8192 1:-0.970501 2:-0.601514 3:-0.875 4:-0.666667 5:-0.796394 6:-0.583962 7:-0.493333 
-8192 1:-0.961265 2:-0.427307 3:-1 4:-1 5:-1 6:-0.649201 7:-0.573333 
-3032.743659854661 1:-0.96287 2:0.0825474 3:-0.875 4:-0.666667 5:-0.940025 6:-0.394496 7:-0.786667 
-8192 1:-0.999598 2:0.0208379 3:-1 4:-1 5:-0.992762 6:-0.322883 7:-0.333333 
-8192 1:-0.952385 2:-0.446081 3:-0.625 4:-0.666667 5:-0.906546 6:-0.533592 7:-0.626667 
-440.9666688281527 1:-0.962657 2:-0.733622 3:-0.5 4:-0.666667 5:-0.698129 6:-0.638188 7:-0.84 
-8192 1:-0.94465 2:-0.508339 3:-0.375 4:-0.333333 5:-0.933936 6:-0.415652 7:-0.706667 
-7299.03851463082 1:-0.985115 2:0.0505206 3:-1 4:-1 5:-1 6:-0.552486 7:0.2 
-8192 1:-0.958194 2:-0.1406 3:-0.75 4:-0.666667 5:-0.90641 6:-0.410227 7:-0.786667 
