svm_type c_svc
kernel_type rbf
gamma 0.142857
nr_class 2
total_sv 1283
rho 2.15585
label 0 1
nr_sv 642 641
SV
1 1:0.0135746 2:0.366147 3:0.0625 4:0.166667 5:0.0180523 7:0.253333 
1 1:0.0104237 2:0.644432 5:0.0153713 7:0.28 
1 1:0.0128123 2:0.371782 3:0.1875 4:0.166667 5:0.0363157 7:0.186667 
1 1:0.0126598 2:0.231222 3:0.25 4:0.166667 5:0.057047 7:0.133333 
1 1:0.0142024 2:0.668241 5:0.0149566 7:0.0666667 
1 1:0.0104762 2:0.278698 3:0.125 4:0.333333 5:0.020495 7:0.16 
1 1:0.00976304 2:0.774516 5:0.00184163 7:0.133333 
1 1:0.01205 2:0.631729 3:0.125 5:0.0147857 7:0.306667 
1 1:0.00727726 2:0.792697 7:0.36 
1 1:0.00863483 2:0.305093 3:0.1875 4:0.166667 5:0.0302631 7:0.16 
1 1:0.0100985 2:0.33323 3:0.0625 5:0.0138793 7:0.12 
1 1:0.00866193 2:0.392505 3:0.0625 4:0.166667 5:0.0580867 7:0.28 
1 1:0.0105253 2:0.393958 4:0.166667 5:0.0659558 7:0.293333 
1 1:0.00658238 2:0.332657 5:0.00631095 7:0.266667 
1 1:0.0113325 2:0.298257 4:0.166667 5:0.0390565 7:0.186667 
1 1:0.00747612 2:0.749598 3:0.0625 5:0.0188181 7:0.253333 
1 1:0.0109412 2:0.171312 3:0.1875 4:0.166667 5:0.125636 7:0.186667 
1 1:0.00671381 2:0.484037 3:0.125 5:0.0612098 7:0.226667 
1 1:0.01205 2:0.459899 3:0.125 5:0.0717326 7:0.266667 
1 1:0.0143369 2:0.359373 3:0.0625 5:0.0226973 7:0.133333 
1 1:0.00866193 2:0.631579 3:0.0625 5:0.0132692 7:0.346667 
1 1:0.0166238 2:0.237618 3:0.0625 4:0.5 5:0.10666 7:0.173333 
1 1:0.00961058 2:0.310961 3:0.0625 4:0.166667 5:0.0625165 7:0.16 
1 1:0.0133338 2:0.349678 3:0.125 4:0.166667 5:0.0145774 7:0.173333 
1 1:0.0108303 2:0.520004 3:0.0625 5:0.00821427 7:0.12 
1 1:0.0143369 2:0.434358 3:0.0625 5:0.0244763 7:0.173333 
1 1:0.0140828 2:0.422378 4:0.333333 5:0.0212671 7:0.16 
1 1:0.0128123 2:0.35744 3:0.1875 4:0.166667 5:0.0369642 7:0.133333 
1 1:0.0150992 2:0.29907 3:0.0625 4:0.333333 5:0.0238322 7:0.24 
1 1:0.0146178 2:0.324812 3:0.125 4:0.166667 5:0.03105 7:0.146667 
1 1:0.00939846 2:0.184829 3:0.0625 4:0.166667 5:0.0345 7:0.16 
1 1:0.01205 2:0.60109 4:0.166667 5:0.0184821 7:0.106667 
1 1:0.00992876 2:0.350523 5:0.0270588 7:0.213333 
1 1:0.0108884 2:0.246514 4:0.333333 5:0.0257142 7:0.186667 
1 1:0.0115197 2:0.282374 3:0.1875 4:0.166667 5:0.0272368 7:0.146667 
1 1:0.0152597 2:0.206843 3:0.125 4:0.333333 5:0.0362579 7:0.213333 
1 1:0.0114956 2:0.305821 3:0.3125 4:0.166667 5:0.0514072 7:0.133333 
1 1:0.0173861 2:0.230869 3:0.125 4:0.5 5:0.0251562 7:0.2 
1 1:0.0192247 2:0.294642 4:0.166667 7:0.266667 
1 1:0.0170722 2:0.326285 4:0.166667 5:0.0109331 7:0.24 
1 1:0.0173861 2:0.171626 3:0.125 4:0.333333 5:0.140286 7:0.226667 
1 1:0.0135746 2:0.508061 3:0.0625 4:0.166667 5:0.00367021 7:0.186667 
1 1:0.0103075 2:0.384628 3:0.25 5:0.0342715 7:0.186667 
1 1:0.0102204 2:0.312347 4:0.166667 5:0.0548342 7:0.173333 
1 1:0.0103075 2:0.258545 3:0.0625 4:0.166667 5:0.033173 7:0.16 
1 1:0.0137131 2:0.180983 3:0.1875 4:0.166667 5:0.0347103 7:0.186667 
1 1:0.0103075 2:0.420839 5:0.00349662 7:0.24 
1 1:0.0106948 2:0.406353 3:0.125 4:0.166667 5:0.0302435 7:0.16 
1 1:0.00798433 2:0.21348 3:0.0625 4:0.166667 5:0.121052 7:0.173333 
1 1:0.0143369 2:0.333545 3:0.0625 4:0.333333 5:0.0543053 7:0.266667 
1 1:0.0149198 2:0.383704 3:0.1875 4:0.166667 5:0.033173 7:0.133333 
1 1:0.0103075 2:0.556437 3:0.0625 4:0.166667 5:0.0330319 7:0.0933333 
1 1:0.00833786 2:0.154263 3:0.1875 4:0.333333 5:0.223465 7:0.16 
1 1:0.0126919 2:0.409053 3:0.125 5:0.0265384 7:0.12 
1 1:0.00972674 2:0.364199 4:0.166667 5:0.017602 7:0.186667 
1 1:0.01205 2:0.277981 3:0.0625 4:0.333333 5:0.0364903 7:0.173333 
1 1:0.0109412 2:0.235884 3:0.0625 4:0.166667 5:0.0730212 7:0.24 
1 1:0.0140828 2:0.325432 3:0.0625 4:0.166667 5:0.0537661 7:0.226667 
1 1:0.01205 2:0.402322 3:0.1875 5:0.0367257 7:0.173333 
1 1:0.00833786 2:0.444368 3:0.0625 5:0.0470454 7:0.16 
1 1:0.00992876 2:0.244588 4:0.333333 5:0.0433832 7:0.213333 
1 1:0.0138795 2:0.327953 4:0.166667 5:0.0417856 7:0.16 
1 1:0.0097044 2:0.304262 3:0.0625 4:0.166667 5:0.0323437 7:0.133333 
1 1:0.0101241 2:0.299532 3:0.25 4:0.166667 5:0.0889969 7:0.2 
1 1:0.0127674 2:0.247994 3:0.1875 4:0.333333 5:0.0616072 7:0.16 
1 1:0.00983234 2:0.334748 5:0.0104899 7:0.2 
0.1740388468132222 1:0.01205 2:0.320625 3:0.1875 4:0.166667 5:0.0441768 7:0.24 
1 1:0.0134849 2:0.486479 5:0.00964282 7:0.133333 
1 1:0.0143369 2:0.415368 3:0.125 4:0.333333 5:0.0629393 7:0.106667 
1 1:0.00876618 2:0.228097 3:0.1875 5:0.048421 7:0.226667 
1 1:0.0115418 2:0.165776 3:0.125 4:0.333333 5:0.0509016 7:0.213333 
1 1:0.015438 2:0.311173 3:0.125 4:0.333333 5:0.0386637 7:0.186667 
1 1:0.0140828 2:0.584191 3:0.0625 5:0.0171357 7:0.16 
1 1:0.011408 2:0.337777 3:0.0625 4:0.333333 5:0.0722093 7:0.226667 
1 1:0.0133338 2:0.501387 5:0.00958331 7:0.146667 
1 1:0.0101241 2:0.308663 3:0.125 4:0.333333 5:0.0453947 7:0.186667 
1 1:0.0086853 2:0.211011 3:0.0625 5:0.0452458 7:0.266667 
1 1:0.0137924 2:0.187627 3:0.25 4:0.166667 5:0.0867163 7:0.173333 
1 1:0.0204353 2:0.483872 3:0.0625 4:0.166667 5:0.00608822 7:0.2 
1 1:0.0115418 2:0.21448 3:0.0625 4:0.333333 5:0.03375 7:0.186667 
1 1:0.0103867 2:0.33139 3:0.125 5:0.0765531 7:0.213333 
1 1:0.00833786 2:0.224276 4:0.166667 5:0.0470454 7:0.186667 
1 1:0.0152318 2:0.130386 3:0.125 4:0.166667 5:0.0845418 7:0.24 
1 1:0.0108884 2:0.279315 3:0.25 4:0.166667 5:0.03375 7:0.186667 
1 1:0.0139757 2:0.357483 3:0.0625 4:0.166667 5:0.0181579 7:0.106667 
1 1:0.0097044 2:0.178545 3:0.0625 4:0.166667 5:0.0367766 7:0.2 
1 1:0.0108303 2:0.417695 3:0.0625 4:0.166667 5:0.0302631 7:0.186667 
1 1:0.0171855 2:0.206048 3:0.3125 4:0.333333 5:0.0826933 7:0.146667 
1 1:0.0100171 2:0.343019 3:0.125 4:0.166667 5:0.0838406 7:0.16 
1 1:0.015438 2:0.439098 5:0.0170604 7:0.146667 
1 1:0.015438 2:0.244553 3:0.125 4:0.166667 5:0.0463432 7:0.186667 
1 1:0.00961058 2:0.17899 3:0.25 4:0.333333 5:0.0818492 7:0.106667 
1 1:0.01205 2:0.241411 3:0.25 4:0.166667 5:0.0424999 7:0.16 
1 1:0.015438 2:0.387041 3:0.125 4:0.333333 5:0.0463026 7:0.186667 
1 1:0.00992876 2:0.41168 3:0.0625 5:0.0178448 7:0.24 
1 1:0.00843607 2:0.306428 3:0.125 5:0.0298557 7:0.213333 
1 1:0.0139265 2:0.107876 3:0.3125 4:0.166667 5:0.0697501 7:0.16 
1 1:0.0181484 2:0.380525 4:0.166667 5:0.0463026 7:0.133333 
1 1:0.0103867 2:0.221116 3:0.1875 4:0.333333 5:0.0605852 7:0.2 
1 1:0.0144893 2:0.257078 3:0.1875 4:0.166667 5:0.0495215 7:0.2 
1 1:0.0109894 2:0.348367 4:0.5 5:0.0150728 7:0.253333 
1 1:0.01205 2:0.45788 3:0.1875 4:0.166667 5:0.0408552 7:0.16 
1 1:0.00742355 2:0.304206 3:0.125 5:0.0301456 7:0.24 
1 1:0.0106426 2:0.411731 3:0.0625 4:0.166667 5:0.0131345 7:0.2 
1 1:0.0116144 2:0.199875 3:0.0625 5:0.0256418 7:0.186667 
1 1:0.0158615 2:0.516889 3:0.125 4:0.166667 5:0.0517499 7:0.106667 
1 1:0.00633266 2:0.248101 3:0.125 4:0.166667 5:0.0655656 7:0.24 
1 1:0.0136408 2:0.246365 4:0.166667 5:0.0326577 7:0.213333 
1 1:0.01205 2:0.223257 4:0.166667 5:0.0117614 7:0.226667 
1 1:0.0105253 2:0.498824 5:0.0106154 7:0.133333 
1 1:0.0126598 2:0.453806 3:0.1875 4:0.166667 5:0.0238479 7:0.133333 
1 1:0.0209204 2:0.165259 4:0.166667 5:0.02691 7:0.213333 
1 1:0.00920402 2:0.403131 3:0.0625 5:0.00646874 7:0.186667 
1 1:0.00693513 2:0.178998 3:0.0625 4:0.333333 5:0.0365293 7:0.253333 
1 1:0.00595151 2:0.117543 5:0.0524998 7:0.346667 
1 1:0.0111465 2:0.263693 3:0.1875 4:0.166667 5:0.0428147 7:0.16 
1 1:0.00772202 2:0.43057 4:0.166667 5:0.0038764 7:0.24 
1 1:0.0108303 2:0.184077 3:0.0625 4:0.333333 5:0.0295714 7:0.213333 
1 1:0.01205 2:0.0942219 3:0.125 4:0.166667 5:0.165904 7:0.12 
1 1:0.0139265 2:0.127496 3:0.125 4:0.333333 5:0.13974 7:0.226667 
1 1:0.0158028 2:0.269553 4:0.166667 5:0.0123214 7:0.173333 
1 1:0.00909314 2:0.281294 3:0.125 5:0.062162 7:0.12 
1 1:0.0124087 2:0.186162 3:0.25 4:0.166667 5:0.00936047 7:0.173333 
1 1:0.0106948 2:0.294566 3:0.125 4:0.166667 5:0.0470454 7:0.106667 
1 1:0.0112877 2:0.535707 3:0.0625 5:0.0275266 7:0.32 
1 1:0.01205 2:0.444576 4:0.166667 5:0.0335416 7:0.173333 
1 1:0.01205 2:0.581176 5:0.0158418 7:0.24 
1 1:0.0105253 2:0.478001 3:0.1875 4:0.166667 5:0.0365909 7:0.213333 
1 1:0.00778104 2:0.364686 5:0.0239583 7:0.32 
1 1:0.0209204 2:0.542553 4:0.166667 5:0.0251213 7:0.333333 
1 1:0.0139265 2:0.447691 5:0.0373453 7:0.293333 
1 1:0.0104237 2:0.698737 7:0.28 
1 1:0.01205 2:0.506027 4:0.166667 5:0.0290187 7:0.293333 
1 1:0.00409545 2:0.495315 5:0.0107812 7:0.32 
1 1:0.00846263 2:0.465835 4:0.166667 5:0.0358663 7:0.333333 
1 1:0.00778104 2:0.403195 5:0.0202941 7:0.36 
1 1:0.00730672 2:0.738664 5:0.00533505 7:0.36 
1 1:0.0129212 2:0.522596 4:0.166667 5:0.0253676 7:0.28 
1 1:0.0112877 2:0.459899 4:0.166667 5:0.0614851 7:0.346667 
1 1:0.0103075 2:0.67215 3:0.0625 4:0.166667 5:0.020909 7:0.306667 
1 1:0.0112368 2:0.525246 3:0.0625 4:0.166667 5:0.0161719 7:0.32 
1 1:0.0113724 2:0.309975 4:0.333333 5:0.018 7:0.173333 
1 1:0.0112368 2:0.598999 3:0.0625 5:0.0207 7:0.266667 
1 1:0.00866193 2:0.4891 3:0.0625 5:0.0452184 7:0.333333 
1 1:0.0136762 2:0.474385 3:0.0625 4:0.166667 5:0.0470454 7:0.293333 
1 1:0.0143369 2:0.508769 4:0.166667 5:0.0149279 7:0.106667 
1 1:0.01205 2:0.569225 5:0.00517499 7:0.36 
1 1:0.0155347 2:0.391309 3:0.0625 4:0.333333 5:0.0768564 7:0.253333 
1 1:0.00442689 2:0.463916 5:0.00528061 7:0.36 
1 1:0.0135746 2:0.478996 3:0.1875 5:0.027973 7:0.2 
1 1:0.01205 2:0.491692 3:0.0625 4:0.333333 5:0.0200971 7:0.28 
1 1:0.01205 2:0.298649 3:0.0625 5:0.0317763 7:0.173333 
1 1:0.01205 2:0.496074 4:0.166667 5:0.0106701 7:0.346667 
1 1:0.01205 2:0.517935 5:0.050376 7:0.36 
1 1:0.00900073 2:0.54788 5:0.0369642 7:0.386667 
1 1:0.00976304 2:0.63223 3:0.0625 4:0.166667 5:0.0102475 7:0.293333 
1 1:0.0129212 2:0.594473 3:0.0625 5:0.0150728 7:0.293333 
1 1:0.01205 2:0.472652 3:0.0625 4:0.166667 5:0.0231027 7:0.133333 
1 1:0.01205 2:0.415339 3:0.125 4:0.166667 5:0.0726315 7:0.28 
1 1:0.0135746 2:0.323537 3:0.25 4:0.166667 5:0.0613982 7:0.173333 
1 1:0.0091801 2:0.759737 7:0.413333 
1 1:0.0181484 2:0.531089 3:0.0625 4:0.166667 5:0.0107812 7:0.293333 
1 1:0.00391868 2:0.476182 5:0.00517499 7:0.373333 
1 1:0.00391868 2:0.476583 7:0.36 
1 1:0.00823843 2:0.497714 3:0.125 4:0.166667 5:0.0362249 7:0.266667 
1 1:0.0134052 2:0.390242 3:0.0625 5:0.0235227 7:0.2 
1 1:0.0114401 2:0.282849 5:0.0412167 7:0.173333 
1 1:0.00961058 2:0.597724 4:0.166667 5:0.0150728 7:0.346667 
1 1:0.0113325 2:0.37383 3:0.125 4:0.166667 5:0.0652308 7:0.173333 
1 1:0.00391868 2:0.541092 5:0.00940907 7:0.333333 
1 1:0.00391868 2:0.700778 7:0.333333 
1 1:0.01205 2:0.254885 4:0.166667 5:0.01725 7:0.146667 
1 1:0.0181484 2:0.599171 4:0.166667 5:0.0284862 7:0.28 
1 1:0.0128123 2:0.410692 4:0.166667 5:0.0210366 7:0.226667 
1 1:0.0129212 2:0.495852 3:0.0625 4:0.166667 5:0.0213843 7:0.306667 
1 1:0.00914594 2:0.366269 5:0.0087712 7:0.226667 
1 1:0.0101241 2:0.338028 5:0.0267672 7:0.16 
1 1:0.00798433 2:0.571817 5:0.0149279 7:0.36 
1 1:0.0203796 2:0.373236 4:0.166667 5:0.00106591 7:0.12 
1 1:0.0127674 2:0.230756 3:0.125 4:0.166667 5:0.0789404 7:0.186667 
1 1:0.01205 2:0.389748 3:0.0625 4:0.166667 5:0.0509016 7:0.08 
1 1:0.0108303 2:0.446208 3:0.125 5:0.0130462 7:0.226667 
1 1:0.0101241 2:0.456641 3:0.0625 5:0.0415847 7:0.146667 
1 1:0.0158615 2:0.430892 4:0.333333 5:0.0042418 7:0.12 
1 1:0.01205 2:0.54165 5:0.0087712 7:0.373333 
1 1:0.01205 2:0.650669 5:0.0131567 7:0.16 
1 1:0.0128123 2:0.489601 3:0.0625 5:0.0263135 7:0.2 
1 1:0.00866193 2:0.504237 3:0.0625 5:0.0272368 7:0.28 
1 1:0.0114401 2:0.241377 3:0.125 4:0.166667 5:0.0246428 7:0.186667 
1 1:0.0142024 2:0.314382 3:0.125 4:0.333333 5:0.0388124 7:0.173333 
1 1:0.0158028 2:0.560511 4:0.166667 5:0.0442307 7:0.253333 
1 1:0.01205 2:0.564836 3:0.125 5:0.0226973 7:0.08 
1 1:0.0135746 2:0.260047 3:0.125 4:0.333333 5:0.0750001 7:0.133333 
1 1:0.0108303 2:0.303988 3:0.125 4:0.166667 5:0.0431249 7:0.2 
1 1:0.0150992 2:0.228712 3:0.0625 4:0.333333 5:0.0874646 7:0.226667 
1 1:0.0127276 2:0.325347 3:0.0625 4:0.166667 5:0.0295714 7:0.253333 
1 1:0.0105253 2:0.450125 4:0.166667 5:0.0555991 7:0.333333 
1 1:0.0071712 2:0.480679 5:0.008625 7:0.373333 
1 1:0.0158615 2:0.334018 3:0.125 4:0.333333 5:0.0332678 7:0.186667 
1 1:0.0134052 2:0.329306 4:0.166667 5:0.0335071 7:0.173333 
1 1:0.0109412 2:0.233568 3:0.0625 4:0.166667 5:0.0316836 7:0.133333 
1 1:0.0113325 2:0.461704 3:0.0625 4:0.166667 5:0.01242 7:0.146667 
1 1:0.0114401 2:0.465105 3:0.0625 4:0.166667 5:0.0246428 7:0.133333 
1 1:0.0191648 2:0.496267 3:0.125 4:0.333333 5:0.0413999 7:0.24 
1 1:0.01205 2:0.689579 7:0.08 
1 1:0.0107661 2:0.385946 4:0.166667 5:0.0117614 7:0.2 
1 1:0.00914594 2:0.28862 4:0.166667 5:0.0485156 7:0.173333 
1 1:0.00876618 2:0.141135 3:0.125 4:0.166667 5:0.0379499 7:0.24 
1 1:0.0128631 2:0.485075 4:0.166667 5:0.0202148 7:0.346667 
1 1:0.0166238 2:0.223724 3:0.125 4:0.166667 5:0.0393038 7:0.253333 
1 1:0.01205 2:0.451299 3:0.0625 4:0.166667 5:0.0158015 7:0.146667 
1 1:0.0150992 2:0.451199 3:0.0625 4:0.166667 5:0.0256915 7:0.16 
1 1:0.00798433 2:0.338321 4:0.166667 5:0.0276526 7:0.226667 
1 1:0.0271167 2:0.264761 4:0.166667 5:0.00650942 7:0.293333 
1 1:0.0100171 2:0.153797 3:0.125 4:0.166667 5:0.025875 7:0.24 
1 1:0.01205 2:0.231709 3:0.125 4:0.166667 5:0.0332085 7:0.226667 
1 1:0.019795 2:0.333223 3:0.0625 4:0.166667 5:0.000370303 
1 1:0.00557813 2:0.441654 3:0.0625 5:0.00213402 7:0.306667 
1 1:0.0166238 2:0.295886 3:0.0625 4:0.333333 5:0.0437884 7:0.186667 
1 1:0.00708086 2:0.434329 3:0.1875 5:0.0196875 7:0.106667 
1 1:0.0143369 2:0.170838 3:0.125 4:0.166667 5:0.0631095 7:0.24 
1 1:0.0138795 2:0.354418 3:0.125 4:0.333333 5:0.032513 7:0.16 
1 1:0.00961058 2:0.298173 3:0.0625 4:0.166667 5:0.0540673 7:0.226667 
1 1:0.0105253 2:0.126187 3:0.1875 4:0.333333 5:0.0606944 7:0.16 
1 1:0.01205 2:0.264142 3:0.1875 5:0.0409532 7:0.186667 
1 1:0.0140828 2:0.259775 3:0.25 5:0.0413999 7:0.173333 
1 1:0.01205 2:0.378162 3:0.1875 4:0.166667 5:0.0627271 7:0.106667 
1 1:0.00798433 2:0.15953 3:0.125 4:0.166667 5:0.117911 7:0.24 
1 1:0.0170722 2:0.152552 3:0.125 4:0.333333 5:0.0972479 7:0.24 
1 1:0.00843607 2:0.200493 3:0.0625 5:0.0141781 7:0.306667 
1 1:0.01205 2:0.405021 3:0.125 4:0.166667 5:0.0424813 7:0.186667 
1 1:0.0138795 2:0.202561 3:0.125 4:0.166667 5:0.0419594 7:0.2 
1 1:0.0053971 2:0.625356 5:0.00398076 7:0.36 
1 1:0.00833786 2:0.275747 3:0.0625 5:0.0409532 7:0.173333 
1 1:0.0152597 2:0.228244 3:0.125 4:0.166667 5:0.0359374 7:0.24 
1 1:0.0140828 2:0.363877 3:0.1875 4:0.166667 5:0.0283561 7:0.16 
1 1:0.0204353 2:0.203953 3:0.0625 4:0.333333 5:0.0524491 7:0.186667 
1 1:0.0107661 2:0.25667 3:0.3125 4:0.166667 5:0.0638014 7:0.12 
1 1:0.01205 2:0.341894 3:0.25 4:0.333333 5:0.0398076 7:0.186667 
1 1:0.0140828 2:0.211607 3:0.25 4:0.166667 5:0.0824997 7:0.12 
1 1:0.0175386 2:0.140137 3:0.125 4:0.166667 5:0.0836677 7:0.213333 
1 1:0.00839089 2:0.173009 3:0.0625 5:0.0127778 7:0.253333 
1 1:0.0166238 2:0.259019 3:0.25 4:0.333333 5:0.066346 7:0.173333 
1 1:0.01205 2:0.129073 3:0.0625 4:0.333333 5:0.0662653 7:0.213333 
1 1:0.0114956 2:0.231339 3:0.1875 4:0.166667 5:0.0820428 7:0.106667 
1 1:0.00784413 2:0.109982 3:0.0625 4:0.333333 5:0.030988 7:0.253333 
1 1:0.0146178 2:0.149308 3:0.125 4:0.333333 5:0.0646874 7:0.186667 
1 1:0.00900073 2:0.412361 3:0.125 5:0.0179687 7:0.266667 
1 1:0.0150992 2:0.340691 3:0.3125 4:0.166667 5:0.0403246 7:0.106667 
1 1:0.01205 2:0.16752 3:0.1875 4:0.333333 5:0.0784969 7:0.186667 
1 1:0.00420909 2:0.6171 7:0.333333 
1 1:0.00735885 2:0.212997 3:0.125 4:0.166667 5:0.0488207 7:0.226667 
1 1:0.0114956 2:0.31761 3:0.1875 4:0.166667 5:0.0411258 7:0.12 
1 1:0.0125582 2:0.0911895 3:0.125 4:0.166667 5:0.0843746 7:0.226667 
1 1:0.0166238 2:0.29339 3:0.25 4:0.166667 5:0.0700145 7:0.173333 
1 1:0.0147604 2:0.26046 3:0.25 4:0.333333 5:0.0631095 7:0.173333 
1 1:0.01205 2:0.190883 3:0.125 4:0.166667 5:0.0857393 7:0.08 
1 1:0.00933954 2:0.211504 3:0.0625 4:0.166667 5:0.017948 7:0.253333 
1 1:0.0140828 2:0.268496 3:0.1875 4:0.333333 5:0.0743367 7:0.16 
1 1:0.0166238 2:0.180839 3:0.3125 4:0.166667 5:0.101187 7:0.146667 
1 1:0.0108303 2:0.285431 3:0.3125 5:0.0657597 7:0.106667 
1 1:0.0125017 2:0.18873 3:0.3125 4:0.166667 5:0.0404296 7:0.0933333 
1 1:0.01205 2:0.104538 3:0.125 4:0.333333 5:0.0552001 7:0.16 
1 1:0.0126598 2:0.265847 3:0.25 4:0.166667 5:0.0270942 7:0.2 
1 1:0.00886815 2:0.260339 3:0.1875 4:0.166667 5:0.0306048 7:0.213333 
1 1:0.0156074 2:0.14983 3:0.25 4:0.166667 5:0.0447836 7:0.173333 
1 1:0.00929583 2:0.243696 3:0.125 4:0.166667 5:0.0443571 7:0.16 
1 1:0.0155347 2:0.104123 3:0.125 4:0.333333 5:0.0671233 7:0.2 
1 1:0.0170396 2:0.109303 4:0.333333 5:0.0268027 7:0.24 
1 1:0.0101241 2:0.468563 3:0.0625 5:0.014375 7:0.173333 
1 1:0.0140828 2:0.796385 3:0.125 5:0.016875 7:0.226667 
1 1:0.0129212 2:0.476182 3:0.0625 4:0.166667 5:0.0207 7:0.306667 
1 1:0.0101241 2:0.194464 5:0.0282273 7:0.24 
1 1:0.0106948 2:0.386533 3:0.1875 5:0.0390565 7:0.173333 
1 1:0.0133338 2:0.244433 5:0.00457964 7:0.253333 
1 1:0.0201813 2:0.310118 4:0.333333 5:0.0983249 7:0.306667 
1 1:0.01205 2:0.331898 4:0.333333 5:0.0235227 7:0.16 
1 1:0.0104237 2:0.48867 3:0.0625 5:0.015525 7:0.32 
1 1:0.0106948 2:0.22982 3:0.1875 5:0.0315 7:0.24 
1 1:0.00755636 2:0.455137 5:0.0200971 7:0.306667 
1 1:0.01205 2:0.255743 3:0.0625 4:0.166667 5:0.0827999 7:0.133333 
1 1:0.0103867 2:0.197978 3:0.0625 5:0.0135 7:0.226667 
1 1:0.0135746 2:0.395047 3:0.0625 5:0.00967289 7:0.226667 
1 1:0.0127674 2:0.294044 3:0.125 4:0.333333 5:0.0482414 7:0.2 
1 1:0.00961058 2:0.311366 3:0.0625 5:0.0366371 7:0.186667 
1 1:0.0053971 2:0.471836 5:0.020909 7:0.36 
1 1:0.0150992 2:0.329435 3:0.125 4:0.166667 5:0.0256188 7:0.186667 
1 1:0.0101241 2:0.336753 3:0.125 4:0.166667 5:0.0341745 7:0.133333 
1 1:0.0135746 2:0.290789 3:0.25 4:0.166667 5:0.0732308 7:0.16 
1 1:0.00900073 2:0.52773 3:0.0625 5:0.0517499 7:0.28 
1 1:0.01205 2:0.285824 3:0.3125 5:0.0817105 7:0.133333 
1 1:0.0158615 2:0.153486 3:0.125 4:0.333333 5:0.0855369 7:0.2 
1 1:0.0134052 2:0.275427 3:0.0625 5:0.0394703 7:0.24 
1 1:0.0137924 2:0.47185 3:0.1875 4:0.166667 5:0.0512375 7:0.2 
1 1:0.0127674 2:0.232514 3:0.1875 4:0.166667 5:0.0758405 7:0.186667 
1 1:0.00914594 2:0.328648 5:0.0369642 7:0.24 
1 1:0.02196 2:0.218792 4:0.333333 5:0.0125201 7:0.293333 
1 1:0.0134849 2:0.269116 3:0.125 4:0.166667 5:0.0922675 7:0.12 
1 1:0.01205 2:0.326736 3:0.125 4:0.166667 5:0.0350847 7:0.133333 
1 1:0.0146178 2:0.292832 3:0.125 4:0.166667 5:0.0336585 7:0.226667 
1 1:0.01205 2:0.242621 3:0.25 4:0.166667 5:0.0528832 7:0.106667 
1 1:0.0166238 2:0.293263 3:0.1875 4:0.166667 5:0.0325984 7:0.146667 
1 1:0.01205 2:0.399995 3:0.125 4:0.333333 5:0.0366371 7:0.213333 
1 1:0.0181484 2:0.287275 3:0.1875 4:0.166667 5:0.0372599 7:0.213333 
1 1:0.0107661 2:0.377833 4:0.333333 5:0.0162992 7:0.253333 
1 1:0.01205 2:0.398004 3:0.125 4:0.166667 5:0.0366371 7:0.266667 
1 1:0.0106948 2:0.265271 3:0.0625 4:0.166667 5:0.040748 7:0.2 
1 1:0.0181484 2:0.269774 3:0.0625 4:0.166667 5:0.029938 7:0.213333 
1 1:0.00846263 2:0.399042 3:0.0625 5:0.0470454 7:0.333333 
1 1:0.00983234 2:0.237718 3:0.0625 4:0.166667 5:0.0544735 7:0.146667 
1 1:0.0144893 2:0.375792 5:0.0437884 7:0.36 
1 1:0.0150992 2:0.416707 3:0.125 5:0.0186486 7:0.16 
1 1:0.0146178 2:0.308661 3:0.125 4:0.166667 5:0.0283007 7:0.16 
1 1:0.0147604 2:0.229614 3:0.0625 4:0.166667 5:0.0406606 7:0.24 
1 1:0.0158615 2:0.343183 3:0.25 4:0.166667 5:0.0437884 7:0.16 
1 1:0.0134052 2:0.264901 3:0.125 4:0.166667 5:0.0386194 7:0.213333 
1 1:0.0227223 2:0.139159 4:0.166667 5:0.0754685 7:0.266667 
1 1:0.0150992 2:0.201152 3:0.3125 4:0.166667 5:0.0807444 7:0.12 
1 1:0.0106948 2:0.40404 3:0.1875 4:0.166667 5:0.0294512 7:0.16 
1 1:0.0173861 2:0.259388 3:0.0625 4:0.166667 5:0.00772388 7:0.173333 
1 1:0.0150992 2:0.248862 3:0.1875 5:0.0401162 7:0.213333 
1 1:0.011408 2:0.380855 3:0.0625 4:0.166667 5:0.0444726 7:0.146667 
1 1:0.0163547 2:0.28679 3:0.0625 4:0.166667 5:0.0570771 7:0.173333 
1 1:0.0135746 2:0.35164 3:0.125 4:0.166667 5:0.0498333 7:0.133333 
1 1:0.0126919 2:0.226697 3:0.3125 4:0.166667 5:0.0856016 7:0.173333 
1 1:0.00798433 2:0.226437 3:0.125 4:0.166667 5:0.0570771 7:0.186667 
1 1:0.01205 2:0.339116 3:0.0625 4:0.166667 5:0.0190257 7:0.213333 
1 1:0.0114401 2:0.223928 3:0.125 5:0.0182218 7:0.253333 
1 1:0.014954 2:0.122915 3:0.125 4:0.166667 5:0.0729363 7:0.186667 
1 1:0.0135746 2:0.380346 3:0.125 4:0.333333 5:0.0311278 7:0.133333 
1 1:0.00833786 2:0.302603 3:0.125 4:0.166667 5:0.0411258 7:0.16 
1 1:0.0109412 2:0.39017 3:0.1875 4:0.333333 5:0.0294948 7:0.133333 
1 1:0.0105253 2:0.279819 3:0.25 4:0.166667 5:0.0544735 7:0.133333 
1 1:0.0161156 2:0.552456 4:0.166667 5:0.0298557 7:0.32 
1 1:0.00972674 2:0.396028 5:0.0274778 7:0.16 
1 1:0.00785727 2:0.187047 3:0.0625 5:0.0346927 7:0.266667 
1 1:0.01205 2:0.503929 5:0.0306991 7:0.146667 
1 1:0.0225044 2:0.275459 4:0.333333 5:0.00728872 7:0.24 
1 1:0.01205 2:0.315305 3:0.125 4:0.166667 5:0.0378658 7:0.0533333 
1 1:0.0181484 2:0.665641 3:0.125 5:0.0126219 7:0.306667 
1 1:0.01205 2:0.247994 3:0.1875 4:0.333333 5:0.0369642 7:0.186667 
1 1:0.0106948 2:0.249728 3:0.25 4:0.166667 5:0.0640716 7:0.0933333 
1 1:0.0144893 2:0.29379 3:0.0625 4:0.166667 5:0.0356896 7:0.12 
1 1:0.0126919 2:0.308407 3:0.0625 4:0.333333 5:0.0294512 7:0.16 
1 1:0.0138795 2:0.222618 3:0.125 4:0.333333 5:0.0463965 7:0.2 
1 1:0.0101241 2:0.268396 3:0.125 5:0.0638475 7:0.16 
1 1:0.0100827 2:0.225022 3:0.0625 4:0.333333 5:0.0185769 7:0.213333 
1 1:0.00374568 2:0.544901 5:0.000309509 7:0.213333 
1 1:0.0109894 2:0.489357 5:0.00509852 7:0.213333 
1 1:0.00595151 2:0.366054 3:0.125 5:0.020909 7:0.253333 
1 1:0.010243 2:0.506077 3:0.0625 5:0.00892241 7:0.106667 
1 1:0.0113325 2:0.477922 4:0.166667 5:0.0226973 7:0.16 
1 1:0.00428829 2:0.655545 5:0.0139865 7:0.373333 
1 1:0.00884025 2:0.493439 5:0.0213843 7:0.373333 
1 1:0.0048427 2:0.639241 5:0.00438559 7:0.386667 
1 1:0.019978 2:0.326091 7:0.08 
1 1:0.01205 2:0.230687 3:0.1875 4:0.333333 5:0.0639262 7:0.173333 
1 1:0.00687552 2:0.424498 5:0.00285911 7:0.146667 
1 1:0.0113724 2:0.261633 3:0.0625 4:0.166667 5:0.0173949 7:0.186667 
1 1:0.00879745 2:0.644955 3:0.0625 5:0.0275266 7:0.213333 
1 1:0.0108303 2:0.234881 3:0.125 4:0.166667 5:0.0405882 7:0.213333 
1 1:0.00846263 2:0.484574 3:0.0625 5:0.0447836 7:0.333333 
1 1:0.00798433 2:0.246191 3:0.1875 5:0.0646874 7:0.186667 
1 1:0.0158615 2:0.309233 3:0.125 4:0.166667 5:0.0502051 7:0.146667 
1 1:0.0150992 2:0.295597 3:0.25 4:0.166667 5:0.0817105 7:0.12 
1 1:0.0134052 2:0.321214 3:0.125 4:0.333333 5:0.0591429 7:0.16 
1 1:0.0106948 2:0.700849 7:0.106667 
1 1:0.0114401 2:0.258753 3:0.0625 4:0.166667 5:0.0440425 7:0.213333 
1 1:0.0147015 2:0.232288 5:0.00369642 7:0.253333 
1 1:0.0150992 2:0.239434 3:0.125 4:0.166667 5:0.0428502 7:0.226667 
1 1:0.00833786 2:0.265771 4:0.166667 5:0.056394 7:0.253333 
1 1:0.0108303 2:0.328254 3:0.1875 4:0.166667 5:0.0482999 7:0.146667 
1 1:0.011408 2:0.2604 3:0.125 4:0.166667 5:0.0753324 7:0.226667 
1 1:0.0147604 2:0.27952 3:0.1875 4:0.166667 5:0.0369642 7:0.186667 
1 1:0.00939846 2:0.210639 3:0.1875 4:0.166667 5:0.0650942 7:0.173333 
1 1:0.0161156 2:0.192236 3:0.125 4:0.166667 5:0.0334853 7:0.213333 
1 1:0.01205 2:0.197449 3:0.0625 4:0.166667 5:0.0504877 7:0.186667 
1 1:0.0156373 2:0.228729 3:0.0625 4:0.166667 5:0.100363 7:0.0666667 
1 1:0.0115197 2:0.23466 3:0.125 5:0.0470454 7:0.2 
1 1:0.0132697 2:0.24077 3:0.1875 4:0.166667 5:0.0345 7:0.186667 
1 1:0.00886815 2:0.36276 3:0.0625 4:0.166667 5:0.0162735 7:0.186667 
1 1:0.0152597 2:0.183096 3:0.0625 4:0.166667 5:0.0387433 7:0.266667 
1 1:0.0166238 2:0.328526 3:0.125 4:0.166667 5:0.0601743 7:0.146667 
1 1:0.0115418 2:0.177957 3:0.1875 4:0.166667 5:0.0770743 7:0.16 
1 1:0.0161156 2:0.179107 3:0.0625 4:0.333333 5:0.0955381 7:0.213333 
1 1:0.0114956 2:0.192237 3:0.0625 4:0.166667 5:0.0394035 7:0.213333 
1 1:0.0115197 2:0.335285 3:0.0625 4:0.166667 5:0.020125 7:0.186667 
1 1:0.00833786 2:0.446316 3:0.125 5:0.0113114 7:0.226667 
1 1:0.0131588 2:0.190273 3:0.125 4:0.166667 5:0.112604 7:0.2 
1 1:0.00876618 2:0.268204 3:0.1875 4:0.166667 5:0.0386916 7:0.2 
1 1:0.01205 2:0.484044 3:0.1875 5:0.0335675 7:0.133333 
1 1:0.01205 2:0.128191 3:0.3125 4:0.166667 5:0.107622 7:0.16 
1 1:0.00987195 2:0.104107 3:0.1875 4:0.166667 5:0.0517499 7:0.2 
1 1:0.0115418 2:0.287501 3:0.0625 4:0.166667 5:0.0119791 7:0.186667 
1 1:0.01205 2:0.161303 3:0.3125 4:0.166667 5:0.0649674 7:0.146667 
1 1:0.00910588 2:0.105949 3:0.1875 4:0.166667 5:0.0604087 7:0.186667 
1 1:0.00692372 2:0.945509 3:0.0625 5:0.000694629 7:0.0666667 
1 1:0.0108303 2:0.18002 3:0.1875 4:0.166667 5:0.0376986 7:0.186667 
1 1:0.0124855 2:0.122779 3:0.25 4:0.166667 5:0.0676366 7:0.16 
1 1:0.0153337 2:0.160266 3:0.3125 4:0.166667 5:0.0641528 7:0.12 
1 1:0.00391868 2:0.434415 4:0.166667 5:0.00550531 7:0.306667 
1 1:0.029583 2:0.52057 3:0.125 5:0.0174158 7:0.186667 
1 1:0.012955 2:0.252605 3:0.375 5:0.433104 
1 1:0.0136762 2:0.448772 3:0.0625 4:0.166667 5:0.011129 7:0.293333 
1 1:0.0181484 2:0.611343 7:0.386667 
1 1:0.0100171 2:0.488806 4:0.166667 5:0.0215625 7:0.293333 
1 1:0.01205 2:0.326729 3:0.0625 4:0.166667 5:0.0689997 7:0.146667 
1 1:0.00914594 2:0.27122 3:0.1875 4:0.166667 5:0.0442307 7:0.2 
1 1:0.01205 2:0.347122 4:0.166667 5:0.0527083 7:0.133333 
1 1:0.0143369 2:0.360855 4:0.166667 5:0.0423409 7:0.173333 
1 1:0.0191648 2:0.412425 5:0.0580867 7:0.333333 
1 1:0.0127674 2:0.213876 3:0.1875 4:0.333333 5:0.0646874 7:0.12 
1 1:0.0108303 2:0.294996 3:0.0625 4:0.166667 5:0.0183185 7:0.213333 
1 1:0.0101241 2:0.28065 3:0.25 4:0.333333 5:0.0525583 7:0.173333 
1 1:0.0143369 2:0.337584 3:0.0625 5:0.0139865 7:0.24 
1 1:0.0166238 2:0.31107 3:0.125 4:0.166667 5:0.02898 7:0.213333 
1 1:0.01205 2:0.572125 3:0.0625 5:0.00466216 7:0.106667 
1 1:0.01205 2:0.434386 3:0.125 4:0.166667 5:0.0559458 7:0.106667 
1 1:0.0150992 2:0.213591 3:0.1875 4:0.166667 5:0.0561626 7:0.173333 
1 1:0.0135746 2:0.289214 4:0.333333 5:0.0339344 7:0.16 
1 1:0.0181484 2:0.375305 3:0.0625 5:0.0641859 7:0.306667 
1 1:0.01205 2:0.241709 3:0.0625 5:0.0350188 7:0.226667 
1 1:0.0106948 2:0.379072 3:0.125 4:0.166667 5:0.0444726 7:0.186667 
1 1:0.00950894 2:0.266288 3:0.125 5:0.0180944 7:0.266667 
1 1:0.0208588 2:0.36677 4:0.166667 5:0.00713792 7:0.253333 
1 1:0.01205 2:0.319953 3:0.25 4:0.166667 5:0.068092 7:0.12 
1 1:0.015438 2:0.222161 4:0.166667 5:0.0668878 7:0.2 
1 1:0.00784413 2:0.115689 3:0.1875 5:0.0620999 7:0.24 
1 1:0.01205 2:0.270499 3:0.25 5:0.0874155 7:0.0933333 
1 1:0.01205 2:0.130935 3:0.1875 4:0.166667 5:0.0898653 7:0.186667 
1 1:0.0126308 2:0.323985 3:0.125 4:0.166667 5:0.0180523 7:0.12 
1 1:0.00595151 2:0.290963 7:0.186667 
1 1:0.0125803 2:0.139263 3:0.125 4:0.5 5:0.071875 7:0.186667 
1 1:0.00785727 2:0.19635 3:0.0625 4:0.166667 5:0.00924104 7:0.133333 
1 1:0.0142024 2:0.345038 3:0.25 4:0.166667 5:0.0822198 7:0.12 
1 1:0.0097044 2:0.19257 3:0.125 4:0.166667 5:0.0641151 7:0.226667 
1 1:0.0071712 2:0.399586 3:0.0625 5:0.0413999 7:0.293333 
1 1:0.01205 2:0.570607 3:0.0625 4:0.166667 5:0.0427293 7:0.32 
1 1:0.00961058 2:0.366555 4:0.166667 5:0.0383333 7:0.333333 
1 1:0.0104237 2:0.626853 3:0.0625 5:0.0248798 7:0.253333 
1 1:0.0106948 2:0.41723 3:0.1875 5:0.0290187 7:0.213333 
1 1:0.0142024 2:0.300513 3:0.0625 4:0.333333 5:0.063627 7:0.186667 
1 1:0.022963 2:0.340964 4:0.166667 5:0.00869745 7:0.16 
0.9737216708199594 1:0.0106948 2:0.243698 3:0.3125 4:0.166667 5:0.0486538 7:0.173333 
1 1:0.0106948 2:0.195678 3:0.1875 4:0.166667 5:0.0903569 7:0.173333 
1 1:0.0173861 2:0.260616 3:0.125 4:0.166667 5:0.0662399 7:0.266667 
1 1:0.0158615 2:0.281919 3:0.125 4:0.166667 5:0.0328571 7:0.24 
1 1:0.00900073 2:0.678852 3:0.125 5:0.0178448 7:0.306667 
1 1:0.0158615 2:0.266494 3:0.0625 4:0.333333 5:0.0628394 7:0.2 
1 1:0.00833786 2:0.222221 3:0.25 4:0.166667 5:0.0719702 7:0.146667 
1 1:0.0140828 2:0.304915 3:0.125 4:0.333333 5:0.0571267 7:0.186667 
1 1:0.0181484 2:0.254879 3:0.125 4:0.166667 5:0.0668878 7:0.08 
1 1:0.0166238 2:0.394417 3:0.125 4:0.166667 5:0.0445529 7:0.133333 
1 1:0.0137924 2:0.108576 4:0.166667 5:0.114331 7:0.226667 
1 1:0.0135746 2:0.463315 3:0.0625 4:0.166667 5:0.0434265 7:0.133333 
1 1:0.0103867 2:0.311292 3:0.125 5:0.0349233 7:0.213333 
1 1:0.0108303 2:0.393715 3:0.25 4:0.333333 5:0.0376986 7:0.133333 
1 1:0.01205 2:0.182129 3:0.1875 4:0.333333 5:0.0565083 7:0.16 
1 1:0.01205 2:0.453906 3:0.0625 4:0.166667 5:0.0291093 7:0.16 
1 1:0.00983234 2:0.412561 3:0.25 5:0.0226406 7:0.2 
1 1:0.0163547 2:0.358034 3:0.25 5:0.0601137 7:0.12 
1 1:0.01205 2:0.177174 3:0.25 4:0.333333 5:0.0943106 7:0.106667 
1 1:0.0104591 2:0.439098 5:0.0454944 7:0.133333 
1 1:0.0121969 2:0.104153 3:0.25 4:0.333333 5:0.0172783 7:0.133333 
1 1:0.0124855 2:0.291656 4:0.166667 5:0.0180944 7:0.16 
1 1:0.00743492 2:0.360898 3:0.0625 5:0.0135737 7:0.2 
1 1:0.0135746 2:0.229439 3:0.3125 4:0.333333 5:0.0497297 7:0.12 
1 1:0.00677563 2:0.337763 3:0.0625 5:0.00872188 7:0.253333 
1 1:0.00976304 2:0.311893 3:0.1875 4:0.166667 5:0.014375 7:0.226667 
1 1:0.0197166 2:0.161848 5:0.0121117 7:0.293333 
1 1:0.0142024 2:0.372727 5:0.00528061 7:0.12 
1 1:0.0106948 2:0.336538 4:0.166667 5:0.0351699 7:0.16 
1 1:0.00879745 2:0.63251 3:0.0625 5:0.0105612 7:0.32 
1 1:0.0112368 2:0.484209 3:0.0625 5:0.0326842 7:0.253333 
1 1:0.0127276 2:0.316676 4:0.166667 5:0.0171074 7:0.226667 
1 1:0.01205 2:0.35759 4:0.166667 5:0.0272368 7:0.213333 
1 1:0.0127674 2:0.314698 3:0.0625 5:0.0386916 7:0.133333 
1 1:0.0111787 2:0.719001 3:0.0625 5:0.0156818 7:0.24 
1 1:0.00740352 2:0.504552 5:0.0135 7:0.346667 
1 1:0.0129881 2:0.481187 3:0.125 4:0.166667 5:0.0710294 7:0.2 
1 1:0.0129212 2:0.535521 4:0.166667 5:0.0199038 7:0.306667 
1 1:0.00778104 2:0.466501 3:0.0625 5:0.0199038 7:0.333333 
1 1:0.0104237 2:0.852773 4:0.166667 7:0.293333 
1 1:0.00595151 2:0.215466 3:0.0625 4:0.166667 5:0.0285517 7:0.253333 
1 1:0.0169287 2:0.498487 5:0.0250403 7:0.28 
1 1:0.0135746 2:0.262876 3:0.3125 4:0.166667 5:0.0835958 7:0.133333 
1 1:0.0173861 2:0.279938 3:0.125 4:0.166667 5:0.0313636 7:0.213333 
1 1:0.0138795 2:0.257083 3:0.1875 4:0.166667 5:0.0391 7:0.186667 
1 1:0.00876618 2:0.928281 5:0.00202941 7:0.0533333 
1 1:0.0150992 2:0.354862 3:0.0625 4:0.166667 5:0.0272368 7:0.12 
1 1:0.0132903 2:0.470862 3:0.25 4:0.333333 5:0.00914385 7:0.12 
1 1:0.0149772 2:0.14671 3:0.0625 4:0.333333 5:0.0338551 7:0.213333 
1 1:0.0140828 2:0.189173 3:0.125 4:0.166667 5:0.0434265 7:0.226667 
1 1:0.01205 2:0.223214 3:0.0625 4:0.333333 5:0.105612 7:0.173333 
1 1:0.0140828 2:0.340699 3:0.1875 4:0.333333 5:0.0218662 7:0.16 
1 1:0.0114401 2:0.242687 4:0.166667 5:0.0347315 7:0.2 
1 1:0.0165436 2:0.162827 3:0.0625 4:0.5 5:0.0383333 7:0.24 
1 1:0.00798433 2:0.246697 4:0.166667 5:0.0369642 7:0.28 
1 1:0.0114692 2:0.265715 3:0.3125 5:0.0510211 7:0.186667 
1 1:0.0143369 2:0.249647 3:0.1875 4:0.166667 5:0.109669 7:0.213333 
1 1:0.0103867 2:0.214972 3:0.125 4:0.166667 5:0.0530768 7:0.16 
1 1:0.0181484 2:0.237669 3:0.0625 4:0.333333 5:0.0336039 7:0.213333 
1 1:0.0181484 2:0.217719 3:0.125 4:0.333333 5:0.0451509 7:0.2 
0.8522394823668185 1:0.01205 2:0.208722 3:0.125 4:0.5 5:0.0662653 7:0.226667 
1 1:0.0097044 2:0.132524 3:0.125 5:0.0604869 7:0.213333 
1 1:0.0100171 2:0.345718 3:0.0625 4:0.166667 5:0.0201623 7:0.293333 
1 1:0.014954 2:0.280725 3:0.125 4:0.333333 5:0.022783 7:0.213333 
1 1:0.0152597 2:0.192924 3:0.25 4:0.166667 5:0.0825458 7:0.16 
1 1:0.0135746 2:0.377167 3:0.25 4:0.333333 5:0.0405882 7:0.146667 
1 1:0.0107661 2:0.314008 3:0.1875 5:0.0342921 7:0.253333 
1 1:0.00961058 2:0.157814 3:0.0625 4:0.333333 5:0.08625 7:0.2 
1 1:0.015438 2:0.221388 3:0.125 4:0.166667 5:0.0393421 7:0.186667 
1 1:0.0126043 2:0.151786 3:0.125 4:0.166667 5:0.0731247 7:0.226667 
1 1:0.00927793 2:0.274704 3:0.1875 5:0.0433832 7:0.24 
1 1:0.00927793 2:0.379222 3:0.125 5:0.0327531 7:0.2 
1 1:0.0132116 2:0.258016 3:0.0625 4:0.166667 5:0.0184821 7:0.226667 
1 1:0.0126308 2:0.221388 3:0.1875 4:0.166667 5:0.0363157 7:0.173333 
1 1:0.00939846 2:0.164211 3:0.1875 4:0.166667 5:0.109368 7:0.186667 
1 1:0.00418974 2:0.234037 5:0.00553476 7:0.293333 
1 1:0.00856513 2:0.20263 3:0.125 4:0.166667 5:0.0330319 7:0.253333 
1 1:0.00725832 2:0.267191 3:0.125 4:0.333333 5:0.0433374 7:0.2 
1 1:0.00950894 2:0.191625 3:0.125 4:0.166667 5:0.0903181 7:0.173333 
1 1:0.0150992 2:0.13043 3:0.1875 4:0.333333 5:0.0517499 7:0.2 
1 1:0.0150992 2:0.18964 3:0.125 4:0.333333 5:0.0396382 7:0.186667 
1 1:0.0111787 2:0.146935 3:0.25 4:0.166667 5:0.0542355 7:0.186667 
1 1:0.0109412 2:0.275676 3:0.1875 4:0.166667 5:0.0457325 7:0.186667 
1 1:0.00811547 2:0.148886 3:0.25 4:0.166667 5:0.0813535 7:0.2 
1 1:0.0100985 2:0.2002 3:0.125 5:0.0596294 7:0.2 
1 1:0.00900073 2:0.153269 3:0.3125 4:0.166667 5:0.0759818 7:0.146667 
1 1:0.00769392 2:0.221092 3:0.25 4:0.166667 5:0.0468518 7:0.186667 
1 1:0.0158615 2:0.321968 3:0.125 4:0.166667 5:0.0239583 7:0.16 
1 1:0.010615 2:0.511175 3:0.0625 5:0.026403 7:0.333333 
1 1:0.0139265 2:0.611401 3:0.1875 5:0.0220212 7:0.253333 
1 1:0.0173861 2:0.183782 3:0.0625 4:0.333333 5:0.0758405 7:0.173333 
1 1:0.00691442 2:0.445084 5:0.03105 7:0.306667 
1 1:0.0128123 2:0.34493 3:0.125 4:0.166667 5:0.0408552 7:0.213333 
1 1:0.0135746 2:0.334419 3:0.1875 4:0.166667 5:0.0560622 7:0.12 
1 1:0.0111117 2:0.584857 3:0.125 4:0.166667 5:0.0256188 7:0.293333 
1 1:0.0112368 2:0.521952 3:0.0625 5:0.0398076 7:0.333333 
1 1:0.0101241 2:0.299933 3:0.125 4:0.166667 5:0.0386916 7:0.16 
1 1:0.0139265 2:0.566848 4:0.166667 5:0.010147 7:0.32 
1 1:0.0139757 2:0.239022 3:0.0625 5:0.0376363 7:0.24 
1 1:0.00691442 2:0.518515 5:0.00940907 7:0.333333 
1 1:0.0143369 2:0.286184 4:0.166667 5:0.0766665 7:0.186667 
1 1:0.00961058 2:0.267423 3:0.125 4:0.166667 5:0.0375604 7:0.213333 
1 1:0.0108303 2:0.308788 3:0.0625 5:0.0410714 7:0.106667 
1 1:0.0135746 2:0.512701 3:0.0625 4:0.166667 5:0.0228982 7:0.106667 
1 1:0.00914594 2:0.268204 3:0.125 4:0.166667 5:0.0455399 7:0.16 
1 1:0.0128631 2:0.47553 3:0.0625 4:0.166667 5:0.0226973 7:0.293333 
1 1:0.0113724 2:0.277323 3:0.125 4:0.166667 5:0.0372599 7:0.2 
1 1:0.011408 2:0.25722 3:0.125 4:0.166667 5:0.133775 7:0.16 
1 1:0.0135746 2:0.293958 3:0.125 4:0.333333 5:0.0444726 7:0.16 
1 1:0.0173861 2:0.1604 3:0.125 4:0.166667 5:0.0539063 7:0.16 
1 1:0.0143369 2:0.383175 3:0.125 4:0.166667 5:0.0175423 7:0.186667 
1 1:0.0108884 2:0.256062 3:0.125 5:0.0481395 7:0.213333 
1 1:0.00914594 2:0.182483 3:0.0625 4:0.333333 5:0.0646874 7:0.213333 
1 1:0.011408 2:0.334877 3:0.25 5:0.0339344 7:0.146667 
1 1:0.00886815 2:0.277445 3:0.125 4:0.166667 5:0.0486241 7:0.213333 
1 1:0.0173861 2:0.261145 3:0.125 4:0.166667 5:0.0231716 7:0.226667 
1 1:0.011408 2:0.381485 3:0.0625 4:0.166667 5:0.0115858 7:0.253333 
1 1:0.00950894 2:0.206697 3:0.125 4:0.166667 5:0.0473767 7:0.213333 
1 1:0.0113325 2:0.352334 3:0.125 4:0.333333 5:0.0328571 7:0.24 
1 1:0.0166238 2:0.187242 3:0.125 4:0.166667 5:0.0695146 7:0.24 
1 1:0.00682272 2:0.222145 3:0.0625 5:0.0196023 7:0.24 
1 1:0.01205 2:0.36165 3:0.125 4:0.166667 5:0.0540673 7:0.133333 
1 1:0.0150992 2:0.235629 4:0.333333 5:0.0623933 7:0.173333 
1 1:0.0158615 2:0.2857 4:0.166667 5:0.0406606 7:0.146667 
1 1:0.0147604 2:0.219194 3:0.1875 4:0.166667 5:0.0594425 7:0.226667 
1 1:0.01205 2:0.29268 3:0.0625 5:0.0138 7:0.226667 
1 1:0.0139757 2:0.284363 3:0.0625 4:0.333333 5:0.0558454 7:0.133333 
1 1:0.0173861 2:0.288047 3:0.0625 4:0.166667 5:0.0363867 7:0.173333 
1 1:0.01205 2:0.221684 3:0.0625 4:0.333333 5:0.0903021 7:0.16 
1 1:0.0126598 2:0.182577 3:0.125 4:0.166667 5:0.0439705 7:0.16 
1 1:0.0126919 2:0.239886 3:0.1875 4:0.333333 5:0.0851152 7:0.12 
1 1:0.01205 2:0.249385 3:0.125 4:0.166667 5:0.0806492 7:0.213333 
1 1:0.0147604 2:0.332292 3:0.125 4:0.166667 5:0.0281632 7:0.16 
1 1:0.0105253 2:0.19773 3:0.125 5:0.0629005 7:0.2 
1 1:0.015709 2:0.216842 4:0.166667 5:0.0278225 7:0.226667 
1 1:0.0143732 2:0.246932 3:0.0625 4:0.166667 5:0.0144553 7:0.213333 
1 1:0.0134052 2:0.285778 3:0.1875 4:0.333333 5:0.0692005 7:0.173333 
1 1:0.0105253 2:0.130612 3:0.125 4:0.5 5:0.131816 7:0.173333 
1 1:0.0107882 2:0.241802 3:0.3125 4:0.166667 5:0.0275 7:0.133333 
1 1:0.0105863 2:0.157505 4:0.166667 5:0.0448972 7:0.266667 
1 1:0.00890237 2:0.226922 3:0.1875 4:0.166667 5:0.0476359 7:0.173333 
1 1:0.0138569 2:0.177469 3:0.0625 4:0.5 5:0.0167536 7:0.24 
1 1:0.0124565 2:0.182023 3:0.125 4:0.333333 5:0.026403 7:0.2 
1 1:0.00968927 2:0.119637 3:0.1875 4:0.333333 5:0.0772606 7:0.133333 
1 1:0.0104237 2:0.458288 3:0.125 4:0.166667 5:0.0385372 7:0.28 
1 1:0.0150992 2:0.295283 3:0.0625 5:0.0442307 7:0.213333 
1 1:0.01205 2:0.269437 3:0.125 4:0.166667 5:0.0478361 7:0.133333 
1 1:0.0108884 2:0.161119 3:0.1875 4:0.166667 5:0.0392045 7:0.16 
1 1:0.0129212 2:0.395541 4:0.166667 5:0.0353846 7:0.293333 
1 1:0.0108303 2:0.299689 3:0.0625 4:0.166667 5:0.0250403 7:0.173333 
1 1:0.01205 2:0.342768 3:0.1875 4:0.166667 5:0.063627 7:0.08 
1 1:0.01205 2:0.36266 4:0.166667 5:0.0225 7:0.186667 
1 1:0.0113724 2:0.297527 3:0.1875 4:0.166667 5:0.02484 7:0.186667 
1 1:0.00624191 2:0.628314 5:0.00884613 7:0.306667 
1 1:0.0140828 2:0.46779 3:0.0625 5:0.0126219 7:0.213333 
1 1:0.0101241 2:0.483937 3:0.125 5:0.020374 7:0.133333 
1 1:0.0147604 2:0.336424 3:0.0625 4:0.333333 5:0.00766665 7:0.213333 
1 1:0.00595151 2:0.457329 3:0.0625 5:0.0221153 7:0.32 
1 1:0.0144893 2:0.377833 3:0.0625 5:0.010147 7:0.133333 
1 1:0.00798433 2:0.23147 3:0.1875 4:0.166667 5:0.0694629 7:0.186667 
1 1:0.0147604 2:0.351425 3:0.1875 4:0.166667 5:0.0351388 7:0.173333 
1 1:0.00769392 2:0.24513 3:0.1875 5:0.0475254 7:0.226667 
1 1:0.0143856 2:0.115766 3:0.375 4:0.166667 5:0.0300568 7:0.106667 
1 1:0.00656135 2:0.541751 3:0.125 5:0.0220212 7:0.293333 
1 1:0.0126598 2:0.449259 4:0.166667 5:0.0153713 7:0.0666667 
1 1:0.0166238 2:0.236093 3:0.125 4:0.333333 5:0.0550531 7:0.24 
1 1:0.0138795 2:0.247592 3:0.1875 5:0.030219 7:0.16 
1 1:0.0158615 2:0.393221 3:0.1875 5:0.0272368 7:0.16 
1 1:0.0158615 2:0.337247 3:0.0625 4:0.166667 5:0.0461464 7:0.133333 
1 1:0.0130663 2:0.274901 3:0.1875 4:0.166667 5:0.0164285 7:0.213333 
1 1:0.00595151 2:0.596994 7:0.346667 
1 1:0.00961058 2:0.753436 3:0.0625 5:0.00574999 7:0.28 
1 1:0.0101241 2:0.222081 3:0.3125 4:0.166667 5:0.0657141 7:0.16 
1 1:0.0150992 2:0.518651 3:0.0625 5:0.0152206 7:0.346667 
1 1:0.0137924 2:0.505605 3:0.125 5:0.0420731 7:0.306667 
1 1:0.00914594 2:0.179079 3:0.1875 4:0.166667 5:0.0743714 7:0.226667 
1 1:0.01205 2:0.184112 3:0.125 4:0.333333 5:0.0679218 7:0.226667 
1 1:0.0138436 2:0.397982 3:0.125 5:0.0105433 7:0.133333 
1 1:0.0156373 2:0.308963 3:0.125 4:0.166667 5:0.03312 7:0.173333 
1 1:0.0114401 2:0.374152 3:0.1875 4:0.333333 5:0.0275999 7:0.213333 
1 1:0.00863483 2:0.184941 3:0.3125 4:0.166667 5:0.0677676 7:0.16 
1 1:0.00961058 2:0.457486 3:0.25 4:0.166667 5:0.0266752 7:0.2 
1 1:0.01205 2:0.461424 3:0.0625 5:0.026403 7:0.333333 
1 1:0.01205 2:0.342847 3:0.125 4:0.166667 5:0.0707691 7:0.12 
1 1:0.0143369 2:0.21519 3:0.1875 4:0.333333 5:0.040088 7:0.173333 
1 1:0.0150992 2:0.344938 3:0.25 4:0.166667 5:0.0705683 7:0.173333 
1 1:0.01205 2:0.39978 3:0.25 5:0.0528061 7:0.146667 
1 1:0.0127674 2:0.432632 3:0.1875 5:0.0449999 7:0.173333 
1 1:0.00933954 2:0.656311 3:0.0625 5:0.00356896 7:0.346667 
1 1:0.0114692 2:0.33956 3:0.0625 4:0.166667 5:0.0131013 7:0.16 
1 1:0.00708086 2:0.150262 3:0.0625 4:0.166667 5:0.0688165 7:0.293333 
1 1:0.0197533 2:0.128851 3:0.125 4:0.166667 5:0.0975393 7:0.226667 
1 1:0.00778104 2:0.351267 5:0.0427293 7:0.333333 
1 1:0.00900073 2:0.141966 3:0.0625 5:0.0108566 7:0.08 
1 1:0.0189107 2:0.300276 3:0.125 4:0.333333 5:0.0328571 7:0.186667 
1 1:0.01205 2:0.256196 3:0.25 4:0.166667 5:0.112681 7:0.133333 
1 1:0.01205 2:0.28862 3:0.125 4:0.166667 5:0.0768166 7:0.12 
1 1:0.01205 2:0.62144 3:0.125 5:0.02875 7:0.253333 
1 1:0.0150992 2:0.308176 4:0.166667 5:0.0492856 7:0.173333 
-1 1:0.0104659 2:0.309325 3:0.25 5:0.024816 7:0.0266667 
-1 1:0.00923529 2:0.357375 7:0.16 
-1 1:0.01205 2:0.481531 3:0.125 4:0.166667 5:0.0829003 7:0.106667 
-1 1:0.011408 2:0.599435 3:0.0625 5:0.0822689 7:0.133333 
-1 1:0.0103075 2:0.101317 3:0.0625 4:0.5 5:0.198909 7:0.08 
-1 1:0.00805824 2:0.593843 3:0.0625 5:0.00243768 7:0.133333 
-1 1:0.00869581 2:0.391889 3:0.0625 4:0.166667 5:0.00173657 7:0.08 
-1 1:0.00995906 2:0.524995 3:0.0625 4:0.166667 5:0.0658145 7:0.133333 
-1 1:0.00686627 2:0.185562 3:0.0625 5:0.00229236 7:0.106667 
-1 1:0.011408 2:0.373114 3:0.0625 5:0.0450805 7:0.08 
-1 1:0.00764552 2:0.339259 4:0.333333 5:0.00648225 7:0.146667 
-1 1:0.0109154 2:0.348783 5:0.0110843 7:0.106667 
-1 1:0.0101685 2:0.327309 3:0.1875 5:0.000669577 7:0.0533333 
-1 1:0.0108503 2:0.497742 4:0.166667 5:0.00155756 7:0.106667 
-1 1:0.00742355 2:0.442556 3:0.25 4:0.166667 5:0.0313682 7:0.106667 
-1 1:0.00755636 2:0.177254 3:0.0625 4:0.166667 5:0.499795 7:0.173333 
-1 1:0.0130663 2:0.566927 3:0.0625 5:0.0977499 7:0.28 
-1 1:0.00922661 2:0.389368 3:0.25 5:0.000542474 7:0.0533333 
-1 1:0.00747612 2:0.263266 4:0.333333 5:0.0157881 7:0.266667 
-1 1:0.00733751 2:0.403797 4:0.166667 5:0.00087268 7:0.16 
-1 1:0.0116294 2:0.113722 3:0.125 4:0.5 5:0.477819 7:0.133333 
-1 1:0.0112631 2:0.327094 3:0.25 5:0.103317 7:0.0533333 
-1 1:0.0152399 2:0.362925 3:0.0625 4:0.333333 5:0.00117881 7:0.08 
-1 1:0.0106948 2:0.410864 3:0.1875 4:0.166667 5:0.0890321 7:0.08 
-1 1:0.0112877 2:0.424075 3:0.0625 5:0.0428275 7:0.413333 
-1 1:0.0130663 2:0.529886 3:0.25 5:0.0502427 7:0.32 
-1 1:0.00654648 2:0.218097 5:0.000740345 7:0.16 
-1 1:0.0112368 2:0.292595 4:0.5 5:0.0309615 7:0.453333 
-1 1:0.0166764 2:0.400861 4:0.333333 5:0.000708902 7:0.12 
-1 1:0.0053971 2:0.502418 5:0.00819258 7:0.2 
-1 1:0.00747612 2:0.235246 3:0.0625 5:0.171217 7:0.226667 
-1 1:0.00798433 2:0.484008 5:0.00215924 7:0.16 
-1 1:0.00700297 2:0.356774 4:0.166667 5:0.00574999 7:0.186667 
-1 1:0.0101442 2:0.157619 4:0.166667 5:0.00683166 7:0.213333 
-1 1:0.00706032 2:0.426259 5:0.0123214 7:0.133333 
-1 1:0.00979128 2:0.388774 3:0.125 4:0.166667 5:0.108314 7:0.0933333 
-1 1:0.00984774 2:0.279553 3:0.125 4:0.333333 5:0.002475 7:0.08 
-1 1:0.00791875 2:0.363183 3:0.0625 5:0.00995927 7:0.133333 
-1 1:0.00731683 2:0.22002 3:0.125 4:0.333333 5:0.00643997 7:0.16 
-1 1:0.0176402 2:0.370837 4:0.333333 5:0.00304411 7:0.133333 
-1 1:0.00662202 2:0.134818 3:0.1875 4:0.166667 5:0.198585 7:0.0266667 
-1 1:0.00773022 2:0.372692 3:0.125 5:0.0920227 7:0.08 
-1 1:0.0139265 2:0.521952 3:0.0625 4:0.166667 5:0.0408552 7:0.426667 
-1 1:0.00190727 2:0.679196 7:0.186667 
-1 1:0.00559277 2:0.370644 3:0.0625 5:0.00470454 7:0.24 
-1 1:0.00671381 2:0.381069 5:0.00895807 7:0.106667 
-1 1:0.0141017 2:0.330008 3:0.0625 4:0.333333 5:0.000949347 7:0.0266667 
-1 1:0.00367474 2:0.369842 3:0.375 5:0.00512873 7:0.32 
-1 1:0.00451658 2:0.27172 7:0.6 
-1 1:0.00550528 2:0.462627 3:0.0625 5:0.00499195 7:0.133333 
-1 1:0.00821664 2:0.507617 3:0.0625 5:0.0797725 7:0.0933333 
-1 1:0.0156074 2:0.409124 3:0.125 5:0.0852471 7:0.08 
-1 1:0.00224888 2:0.430434 5:0.00214374 7:0.266667 
-1 1:0.00552603 2:0.322663 5:0.0047806 7:0.213333 
-1 1:0.00527389 2:0.50511 5:0.00150145 7:0.16 
-1 1:0.0126598 2:0.210295 3:0.125 4:0.333333 5:0.0832403 7:0.08 
-1 1:0.0115197 2:0.495372 3:0.125 5:0.00296845 7:0.0533333 
-1 1:0.0102823 2:0.28128 4:0.166667 5:0.00314075 7:0.08 
-1 1:0.00903352 2:0.458274 3:0.125 4:0.166667 5:0.00203206 7:0.0266667 
-1 1:0.0176793 2:0.302448 3:0.0625 4:0.333333 5:0.0136408 7:0.373333 
-1 1:0.00774517 2:0.108365 3:0.0625 4:0.333333 5:0.0337886 7:0.16 
-1 1:0.01205 2:0.269357 3:0.375 4:0.333333 5:0.0849444 7:0.0266667 
-1 1:0.0106358 2:0.28817 3:0.125 4:0.166667 5:0.0721637 7:0.0266667 
-1 1:0.00968525 2:0.118382 3:0.4375 4:0.166667 5:0.00520666 7:0.0533333 
-1 1:0.0057667 2:0.359359 4:0.166667 5:0.0115 7:0.24 
-1 1:0.0091801 2:0.357425 3:0.3125 5:0.0304689 7:0.0533333 
-1 1:0.00904913 2:0.282187 3:0.25 4:0.166667 5:0.0757841 7:0.0533333 
-1 1:0.0050188 2:0.148188 4:0.166667 5:0.00729607 7:0.16 
-1 1:0.0151975 2:0.235408 3:0.0625 4:0.333333 5:0.00832392 7:0.08 
-1 1:0.0097044 2:0.341766 3:0.0625 4:0.166667 5:0.0168916 7:0.173333 
-1 1:0.00209985 2:0.470332 7:0.773333 
-1 1:0.0101241 2:0.406618 4:0.166667 5:0.00952452 7:0.106667 
-1 1:0.0090685 2:0.19015 3:0.375 4:0.333333 5:0.395181 
-1 1:0.0137924 2:0.845878 3:0.0625 5:0.0209797 7:0.306667 
-1 1:0.00701632 2:0.308121 4:0.166667 5:0.00406316 7:0.106667 
-1 1:0.00722793 2:0.406496 3:0.0625 5:0.0312774 7:0.106667 
-1 1:0.00391868 2:1 7:0.306667 
-1 1:0.020041 2:0.294612 4:0.5 5:0.0176198 7:0.16 
-1 1:0.00810391 2:0.411673 3:0.0625 4:0.166667 5:0.0504877 7:0.16 
-1 1:0.00994704 2:0.437229 4:0.166667 5:0.0056868 7:0.213333 
-1 1:0.0167135 2:0.203376 3:0.0625 4:0.333333 5:0.00620502 7:0.12 
-1 1:0.0100171 2:0.276367 3:0.0625 4:0.166667 5:0.125366 7:0.08 
-1 1:0.011455 2:0.354819 3:0.0625 5:0.0213803 7:0.186667 
-1 1:0.00786817 2:0.335829 3:0.0625 5:0.0634568 7:0.24 
-1 1:0.00844632 2:0.342732 3:0.1875 4:0.333333 5:0.131473 7:0.0533333 
-1 1:0.00595151 2:0.644024 7:0.146667 
-1 1:0.0161156 2:0.054164 3:0.0625 4:0.5 5:0.0160777 7:0.213333 
-1 1:0.0131262 2:0.18824 3:0.0625 4:0.333333 5:0.0539327 7:0.0933333 
-1 1:0.0140571 2:0.161776 3:0.1875 4:0.333333 5:0.0015802 7:0.08 
-1 1:0.00412197 2:0.732277 3:0.0625 5:0.00512375 7:0.6 
-1 1:0.00900073 2:0.408021 3:0.0625 5:0.0811159 7:0.106667 
-1 1:0.0144893 2:0.112571 4:0.333333 5:0.0210971 7:0.186667 
-1 1:0.00779254 2:0.228897 3:0.1875 4:0.166667 5:0.146627 7:0.0533333 
-1 1:0.00798433 2:0.349263 3:0.0625 4:0.166667 5:0.00547618 7:0.16 
-1 1:0.0101442 2:0.157399 4:0.166667 5:0.00175423 7:0.186667 
-1 1:0.0102274 2:0.300876 4:0.5 5:0.000666881 7:0.0266667 
-1 1:0.0117728 2:0.440566 3:0.0625 4:0.166667 5:0.00682602 7:0.106667 
-1 1:0.00976304 2:0.538485 5:0.00808593 7:0.32 
-1 1:0.00959768 2:0.3907 3:0.5625 4:0.166667 5:0.00352383 7:0.0533333 
-1 1:0.00452421 2:0.345016 4:0.166667 5:0.00161719 7:0.16 
-1 1:0.00938882 2:0.322162 3:0.125 5:0.0502001 7:0.0933333 
-1 1:0.0133666 2:0.247008 3:0.1875 4:0.166667 5:0.000477676 7:0.0533333 
-1 1:0.0105253 2:0.208492 3:0.0625 4:0.166667 5:0.00400774 7:0.08 
-1 1:0.0108303 2:0.27783 3:0.0625 5:0.138363 7:0.12 
-1 1:0.0037047 2:0.485269 3:0.25 5:0.00216882 7:0.24 
-1 1:0.0111397 2:0.0864263 3:0.1875 4:0.166667 5:0.357028 7:0.0533333 
-1 1:0.00605488 2:0.521085 5:0.000595512 7:0.24 
-1 1:0.00751968 2:0.232006 5:0.00728872 7:0.186667 
-1 1:0.0124565 2:0.138954 3:0.0625 4:0.5 5:0.00781719 7:0.253333 
-1 1:0.00581599 2:0.202751 3:0.25 4:0.166667 5:0.00615312 7:0.186667 
-1 1:0.00305474 2:0.683478 3:0.0625 5:0.00121194 7:0.213333 
-1 1:0.00904913 2:0.340283 3:0.125 5:0.0733317 7:0.0533333 
-1 1:0.0100171 2:0.472043 5:0.0176923 7:0.346667 
-1 1:0.0103867 2:0.272991 3:0.0625 4:0.166667 5:0.000585074 7:0.106667 
-1 1:0.0143369 2:0.229614 3:0.125 4:0.166667 5:0.0314589 7:0.04 
-1 1:0.00965057 2:0.187505 3:0.125 5:0.00448902 7:0.0533333 
-1 1:0.0105253 2:0.48504 3:0.0625 5:0.0550531 7:0.306667 
-1 1:0.0181484 2:0.274836 3:0.0625 4:0.5 5:0.0129375 7:0.24 
-1 1:0.0049351 2:0.620366 3:0.0625 5:0.00827999 7:0.466667 
-1 1:0.0150992 2:0.51018 4:0.166667 5:0.00117347 7:0.12 
-1 1:0.00442689 2:0.249408 5:0.0248116 7:0.573333 
-1 1:0.00976304 2:0.457314 3:0.125 4:0.166667 5:0.0734042 7:0.36 
-1 1:0.00696791 2:0.209185 4:0.166667 5:0.000317484 7:0.133333 
-1 1:0.00976304 2:0.467146 5:0.0661468 7:0.373333 
-1 1:0.00725832 2:0.415941 5:0.0265384 7:0.213333 
-1 1:0.00832887 2:0.282149 3:0.0625 4:0.166667 5:0.0459276 7:0.133333 
-1 1:0.00789193 2:0.296304 4:0.166667 5:0.0280868 7:0.186667 
-1 1:0.00846263 2:0.357497 5:0.00857734 7:0.133333 
-1 1:0.0110742 2:0.251122 3:0.0625 4:0.166667 5:0.01656 7:0.16 
-1 1:0.00784413 2:0.250669 3:0.0625 4:0.166667 5:0.00799226 7:0.213333 
-1 1:0.0161156 2:0.367099 3:0.125 5:0.0635365 7:0.0533333 
-1 1:0.00755636 2:0.280838 3:0.25 4:0.333333 5:0.0796152 7:0.24 
-1 1:0.00846263 2:0.378005 5:0.00894446 7:0.12 
-1 1:0.00751968 2:0.291056 3:0.0625 4:0.166667 5:0.0125454 7:0.36 
-1 1:0.00782795 2:0.53227 3:0.0625 5:0.00536269 7:0.213333 
-1 1:0.00892255 2:0.501616 3:0.125 4:0.166667 5:0.0608822 7:0.106667 
-1 1:0.00880611 2:0.386805 3:0.125 4:0.166667 5:0.151569 7:0.0533333 
-1 1:0.0100035 2:0.475445 3:0.125 5:0.000708513 7:0.0533333 
-1 1:0.0071712 2:0.216254 3:0.0625 5:0.244154 7:0.16 
-1 1:0.0112877 2:0.310472 3:0.0625 4:0.166667 5:0.221785 7:0.36 
-1 1:0.00933954 2:0.400632 3:0.0625 5:0.0403427 7:0.2 
-1 1:0.00686627 2:0.986939 3:0.25 5:0.00162174 7:0.0533333 
-1 1:0.00926387 2:0.461804 3:0.3125 4:0.166667 5:0.000684708 7:0.0533333 
-1 1:0.00927793 2:0.13571 3:0.1875 4:0.166667 5:0.199038 7:0.0533333 
-1 1:0.0106948 2:0.209988 3:0.25 5:0.00178448 7:0.0266667 
-1 1:0.00837905 2:0.283906 3:0.1875 4:0.166667 5:0.0701196 7:0.08 
-1 1:0.00732857 2:0.369126 5:0.027047 7:0.133333 
-1 1:0.00819831 2:0.547844 5:0.017602 7:0.44 
-1 1:0.0112631 2:0.385194 3:0.0625 5:0.0470454 7:0.106667 
-1 1:0.00428829 2:0.300353 3:0.0625 4:0.166667 5:0.0337858 7:0.16 
-1 1:0.00826471 2:0.220483 3:0.125 5:0.00275632 7:0.08 
-1 1:0.0104017 2:0.195027 3:0.0625 4:0.166667 5:0.120689 7:0.133333 
-1 1:0.00763831 2:0.186296 3:0.0625 4:0.333333 5:0.309028 7:0.0533333 
-1 1:0.00811547 2:0.204463 3:0.0625 5:0.00924104 7:0.133333 
-1 1:0.00961058 2:0.192356 4:0.166667 5:0.00736277 7:0.16 
-1 1:0.00900073 2:0.445943 4:0.166667 5:0.0134067 7:0.133333 
-1 1:0.0125803 2:0.331784 3:0.0625 4:0.166667 5:0.232113 7:0.12 
-1 1:0.00849253 2:0.149621 3:0.125 4:0.166667 5:0.00897395 7:0.186667 
-1 1:0.0124855 2:0.403961 4:0.166667 5:0.0022949 7:0.16 
-1 1:0.0112877 2:0.457944 3:0.0625 4:0.166667 5:0.0486241 7:0.333333 
-1 1:0.01205 2:0.44 4:0.166667 5:0.00497595 7:0.24 
-1 1:0.0105979 2:0.117435 3:0.125 4:0.5 5:0.505384 7:0.106667 
-1 1:0.00683203 2:0.160285 3:0.375 4:0.333333 5:0.00197478 7:0.0266667 
-1 1:0.0071712 2:0.261705 3:0.0625 4:0.166667 5:0.113767 7:0.24 
-1 1:0.00904251 2:0.0225183 3:0.125 4:0.166667 5:0.00219945 7:0.0533333 
-1 1:0.0087568 2:0.368195 5:0.000909753 7:0.106667 
-1 1:0.0150992 2:0.315649 3:0.125 5:0.0561005 7:0.0933333 
-1 1:0.00861958 2:0.354604 3:0.0625 4:0.166667 5:0.0643836 7:0.186667 
-1 1:0.00947315 2:0.328469 3:0.0625 4:0.5 5:0.00153134 7:0.0533333 
-1 1:0.0108303 2:0.358535 4:0.166667 5:0.00121764 7:0.253333 
-1 1:0.00849253 2:0.355177 3:0.125 4:0.166667 5:0.109791 7:0.0533333 
-1 1:0.0127892 2:0.145101 4:0.333333 5:0.00109177 7:0.213333 
-1 1:0.00844632 2:0.385674 4:0.166667 5:0.00618831 7:0.106667 
-1 1:0.0101241 2:0.50544 3:0.125 5:0.0522478 7:0.08 
-1 1:0.00731469 2:0.357891 4:0.5 5:0.00428216 7:0.0533333 
-1 1:0.00764552 2:0.16216 3:0.0625 4:0.333333 5:0.00912465 7:0.24 
-1 1:0.015484 2:0.312102 4:0.166667 5:0.000857377 7:0.08 
-1 1:0.00961058 2:0.561836 3:0.1875 4:0.166667 5:0.0291093 7:0.133333 
-1 1:0.0112877 2:0.509894 3:0.0625 4:0.333333 5:0.0327993 7:0.333333 
-1 1:0.01205 2:0.712514 3:0.125 5:0.0600667 7:0.346667 
-1 1:0.011836 2:0.198684 3:0.0625 4:0.166667 5:0.120447 7:0.08 
-1 1:0.00786817 2:0.128575 3:0.0625 4:0.166667 5:0.00583646 7:0.16 
-1 1:0.0106948 2:0.189642 4:0.666667 5:0.01725 7:0.12 
-1 1:0.0171855 2:0.326464 3:0.1875 4:0.166667 5:0.0211648 7:0.16 
-1 1:0.00676464 2:0.257747 3:0.1875 4:0.166667 5:0.211386 7:0.106667 
-1 1:0.0101735 2:0.8258 7:0.28 
-1 1:0.0128631 2:0.459097 4:0.166667 5:0.00869745 7:0.413333 
-1 1:0.00774517 2:0.3762 3:0.0625 4:0.166667 5:0.0591108 7:0.213333 
-1 1:0.00927793 2:0.136561 3:0.125 4:0.166667 5:0.223242 7:0.0666667 
-1 1:0.00644157 2:0.339667 5:0.000918577 7:0.12 
-1 1:0.00747612 2:0.27727 3:0.1875 5:0.124453 7:0.146667 
-1 1:0.00890237 2:0.336503 3:0.125 4:0.166667 5:0.197867 7:0.0533333 
-1 1:0.00839089 2:0.217508 4:0.166667 5:0.00153409 7:0.106667 
-1 1:0.0100171 2:0.0781244 4:0.166667 5:0.00249798 7:0.08 
-1 1:0.00676464 2:0.195011 3:0.1875 4:0.166667 5:0.245184 7:0.106667 
-1 1:0.0109065 2:0.0446377 4:0.166667 5:0.00459999 7:0.186667 
-1 1:0.00313473 2:0.423402 5:0.00155912 7:0.106667 
-1 1:0.00669071 2:0.206641 3:0.25 4:0.166667 5:0.11965 7:0.0266667 
-1 1:0.00798433 2:0.185661 3:0.25 4:0.333333 5:0.229537 7:0.0266667 
-1 1:0.0071712 2:0.377568 3:0.0625 4:0.166667 5:0.000601743 7:0.08 
-1 1:0.00761473 2:0.324561 3:0.0625 4:0.166667 5:0.0686841 7:0.186667 
-1 1:0.00709497 2:0.231445 3:0.0625 5:0.194615 7:0.133333 
-1 1:0.00907892 2:0.440845 3:0.25 5:0.0134827 7:0.0533333 
-1 1:0.00647423 2:0.506048 7:0.16 
-1 1:0.00972293 2:0.285448 3:0.375 4:0.166667 5:0.00293243 7:0.106667 
-1 1:0.00738644 2:0.225216 3:0.0625 4:0.166667 5:0.0102138 7:0.266667 
-1 1:0.0114245 2:0.2963 3:0.125 4:0.166667 5:0.0691141 7:0.106667 
-1 1:0.00933954 2:0.46499 3:0.0625 5:0.00389097 7:0.506667 
-1 1:0.0131588 2:0.615196 3:0.25 5:0.0407202 7:0.0533333 
-1 1:0.010615 2:0.396543 3:0.0625 5:0.0499713 7:0.08 
-1 1:0.0164852 2:0.197022 4:0.333333 5:0.00479166 7:0.186667 
-1 1:0.0103321 2:0.408501 3:0.125 4:0.166667 5:0.000840781 7:0.0533333 
-1 1:0.00823843 2:0.32859 3:0.125 4:0.333333 5:0.0502194 7:0.133333 
-1 1:0.01205 2:0.547458 3:0.0625 4:0.166667 5:0.0464422 7:0.106667 
-1 1:0.00645971 2:0.464074 5:0.00384044 7:0.133333 
-1 1:0.0116565 2:0.373852 3:0.0625 5:0.0459421 7:0.08 
-1 1:0.00849253 2:0.339539 4:0.166667 5:0.0024468 7:0.106667 
-1 1:0.00595151 2:0.351547 5:0.00594829 7:0.186667 
-1 1:0.00747612 2:0.304899 4:0.166667 5:0.00954796 7:0.173333 
-1 1:0.00515606 2:0.496912 3:0.0625 5:0.0253505 7:0.4 
-1 1:0.0143369 2:0.189747 3:0.0625 4:0.333333 5:0.320534 7:0.106667 
-1 1:0.0106948 2:0.553422 3:0.25 5:0.0431249 7:0.0133333 
-1 1:0.0144215 2:0.256509 3:0.0625 4:0.333333 5:0.0166728 7:0.133333 
-1 1:0.00642727 2:0.238008 3:0.1875 4:0.166667 5:0.00222512 7:0.133333 
-1 1:0.0094128 2:0.344673 5:0.0153789 7:0.186667 
-1 1:0.0113325 2:0.298824 3:0.1875 4:0.166667 5:0.0458378 7:0.0266667 
-1 1:0.0108696 2:0.183131 3:0.0625 4:0.166667 5:0.0845247 7:0.16 
-1 1:0.00858111 2:0.21105 3:0.1875 5:0.00308035 7:0.133333 
-1 1:0.0102334 2:0.451922 4:0.166667 5:0.00229744 7:0.106667 
-1 1:0.0101241 2:0.502461 3:0.125 5:0.0431249 7:0.106667 
-1 1:0.0125803 2:0.230933 3:0.0625 4:0.166667 5:0.00838054 7:0.226667 
-1 1:0.0108474 2:0.348382 3:0.125 5:0.101373 7:0.0533333 
-1 1:0.00467509 2:0.27966 3:0.0625 4:0.166667 5:0.00173077 7:0.306667 
-1 1:0.0111117 2:0.380948 3:0.0625 4:0.166667 5:0.0553476 7:0.133333 
-1 1:0.00798433 2:0.396901 4:0.166667 7:0.133333 
-1 1:0.00844242 2:0.390815 3:0.125 4:0.166667 5:0.147355 7:0.0533333 
-1 1:0.0112368 2:0.454113 3:0.0625 5:0.0560622 7:0.253333 
-1 1:0.00527389 2:0.471349 3:0.0625 5:0.00306213 7:0.266667 
-1 1:0.00723539 2:0.23031 3:0.0625 4:0.166667 5:0.0103205 7:0.213333 
-1 1:0.00747612 2:0.250391 4:0.333333 5:0.0109772 7:0.32 
-1 1:0.00779523 2:0.418168 3:0.0625 4:0.166667 5:0.00840098 7:0.28 
-1 1:0.00730672 2:0.0890836 5:0.0114491 7:0.24 
-1 1:0.0138436 2:0.0381317 3:0.0625 4:0.333333 5:0.00222341 7:0.08 
-1 1:0.00790761 2:0.464611 5:0.00459999 7:0.133333 
-1 1:0.0108568 2:0.352606 3:0.25 5:0.0256991 7:0.08 
-1 1:0.0115621 2:0.166372 3:0.0625 4:0.166667 5:0.00876188 7:0.0533333 
-1 1:0.00609011 2:0.494592 5:0.000604201 7:0.12 
-1 1:0.0168416 2:0.181591 4:0.333333 5:0.00682416 7:0.133333 
-1 1:0.00502749 2:0.370708 7:0.573333 
-1 1:0.00773022 2:0.0946365 3:0.125 4:0.166667 5:0.266945 7:0.16 
-1 1:0.00900073 2:0.459097 3:0.0625 4:0.166667 5:0.0100594 7:0.16 
-1 1:0.00821664 2:0.100172 3:0.0625 4:0.166667 5:0.0217895 7:0.186667 
-1 1:0.0113847 2:0.262534 3:0.3125 4:0.333333 5:0.00250241 7:0.0533333 
-1 1:0.00761473 2:0.285946 4:0.166667 7:0.133333 
-1 1:0.00994704 2:0.242374 4:0.166667 5:0.00970311 7:0.146667 
-1 1:0.0071712 2:0.370257 3:0.125 4:0.166667 5:0.1035 7:0.0533333 
-1 1:0.00333788 2:0.727708 7:0.466667 
-1 1:0.00300743 2:0.860593 7:0.466667 
-1 1:0.00846263 2:0.383282 3:0.0625 5:0.00958331 7:0.133333 
-1 1:0.0119174 2:0.344916 3:0.1875 4:0.166667 5:0.000985246 7:0.0266667 
-1 1:0.00923529 2:0.599672 5:0.00341584 7:0.133333 
-1 1:0.00674072 2:0.335858 3:0.0625 5:0.00275266 7:0.226667 
-1 1:0.00781493 2:0.119914 3:0.0625 4:0.166667 5:0.0896764 7:0.186667 
-1 1:0.00976304 2:0.448271 4:0.166667 5:0.00512375 7:0.373333 
-1 1:0.00749449 2:0.389211 3:0.125 5:0.0338268 7:0.106667 
-1 1:0.00747612 2:0.0906818 4:0.333333 5:0.0983549 7:0.08 
-1 1:0.00849253 2:0.398312 5:0.0044612 7:0.133333 
-1 1:0.00710527 2:0.256007 5:0.00154477 7:0.16 
-1 1:0.0108303 2:0.324217 4:0.333333 7:0.186667 
-1 1:0.0150992 2:0.229247 3:0.0625 4:0.333333 5:0.00117258 7:0.16 
-1 1:0.0119304 2:0.349012 3:0.1875 4:0.166667 5:0.00100539 7:0.0533333 
-1 1:0.00989756 2:0.0309182 3:0.1875 4:0.333333 5:0.263343 7:0.16 
-1 1:0.0133567 2:0.199274 3:0.3125 4:0.833333 5:0.107478 7:0.0266667 
-1 1:0.0102563 2:0.216434 3:0.0625 5:0.00315548 7:0.133333 
-1 1:0.0094128 2:0.315033 3:0.0625 4:0.166667 5:0.00177226 7:0.106667 
-1 1:0.00755636 2:0.155269 3:0.0625 4:0.166667 5:0.0112851 7:0.213333 
-1 1:0.00785727 2:0.205507 4:0.166667 5:0.00228982 7:0.24 
-1 1:0.00765907 2:0.454192 4:0.166667 5:0.0301681 7:0.106667 
-1 1:0.00235498 2:0.593865 7:0.666667 
-1 1:0.01205 2:0.350909 3:0.0625 4:0.166667 5:0.203686 7:0.08 
-1 1:0.00774517 2:0.0902529 3:0.0625 4:0.333333 5:0.0324505 7:0.186667 
-1 1:0.0106948 2:0.272731 3:0.0625 4:0.166667 5:0.0063627 7:0.146667 
-1 1:0.0106948 2:0.223764 4:0.166667 5:0.00219279 7:0.106667 
-1 1:0.00934864 2:0.309485 3:0.125 4:0.5 5:0.231876 
-1 1:0.00434665 2:0.78583 5:0.00134067 7:0.56 
-1 1:0.01205 2:0.294887 3:0.0625 4:0.333333 5:0.199943 7:0.133333 
-1 1:0.00557035 2:0.323806 5:0.0102475 7:0.48 
-1 1:0.0102563 2:0.129213 3:0.125 4:0.333333 5:0.234207 7:0.0533333 
-1 1:0.0168416 2:0.37958 4:0.333333 5:0.000782904 7:0.12 
-1 1:0.00631024 2:0.45382 5:0.00434873 7:0.186667 
-1 1:0.00722793 2:0.409898 4:0.166667 5:0.00220212 7:0.106667 
-1 1:0.00229243 2:0.737482 7:0.226667 
-1 1:0.00769392 2:0.24502 5:0.0123214 7:0.146667 
-1 1:0.0105253 2:0.313746 3:0.0625 4:0.166667 5:0.107812 7:0.373333 
-1 1:0.00742355 2:0.472852 3:0.125 5:0.0111445 7:0.0533333 
-1 1:0.00785727 2:0.207788 3:0.1875 4:0.166667 5:0.0997413 7:0.24 
-1 1:0.0161156 2:0.0629621 3:0.0625 4:0.333333 5:0.0220825 7:0.32 
-1 1:0.0128631 2:0.179923 3:0.125 4:0.5 5:0.0162213 7:0.106667 
-1 1:0.0143369 2:0.172522 3:0.0625 4:0.166667 5:0.342772 7:0.133333 
-1 1:0.00773022 2:0.225179 3:0.25 4:0.5 5:0.0865424 7:0.173333 
-1 1:0.00995906 2:0.279056 3:0.0625 5:0.0373891 7:0.253333 
-1 1:0.00890237 2:0.314696 4:0.166667 5:0.0117614 7:0.106667 
-1 1:0.00848013 2:0.307709 3:0.25 4:0.166667 5:0.0129897 7:0.16 
-1 1:0.00827286 2:0.287788 3:0.3125 5:0.00226003 7:0.0533333 
-1 1:0.0155164 2:0.0969723 3:0.125 4:0.333333 5:0.0032174 7:0.08 
-1 1:0.0112877 2:0.222421 3:0.0625 4:0.333333 5:0.00976412 7:0.146667 
-1 1:0.0100348 2:0.127877 4:0.166667 5:0.00159581 7:0.08 
-1 1:0.0161156 2:0.200236 3:0.0625 4:0.5 5:0.127226 7:0.08 
-1 1:0.00798433 2:0.204917 3:0.125 4:0.166667 5:0.0355781 7:0.213333 
-1 1:0.00967835 2:0.533137 3:0.3125 4:0.166667 5:0.0296748 7:0.0666667 
-1 1:0.0108474 2:0.34231 3:0.1875 4:0.166667 5:0.00407279 7:0.08 
-1 1:0.00866193 2:0.311631 3:0.125 4:0.166667 5:0.0212824 7:0.186667 
-1 1:0.00748394 2:0.3645 3:0.125 5:0.000650481 7:0.0533333 
-1 1:0.00852641 2:0.0801552 5:0.00604553 7:0.106667 
-1 1:0.00839089 2:0.182312 3:0.1875 4:0.166667 5:0.123856 7:0.0533333 
-1 1:0.0144893 2:0.69752 4:0.166667 7:0.293333 
-1 1:0.00661569 2:0.18133 5:0.00150124 7:0.133333 
-1 1:0.01205 2:0.503399 3:0.125 5:0.0967289 7:0.36 
-1 1:0.00720059 2:0.479347 4:0.166667 5:0.00168567 7:0.0933333 
-1 1:0.0158833 2:0.233887 4:0.5 5:0.00619757 7:0.16 
-1 1:0.00249022 2:0.615339 7:0.573333 
-1 1:0.00682272 2:0.486064 5:0.00276737 7:0.133333 
-1 1:0.00633749 2:0.450863 3:0.0625 5:0.00333297 7:0.16 
-1 1:0.00865423 2:0.141105 3:0.0625 4:0.5 5:0.120388 7:0.08 
-1 1:0.00609011 2:0.568696 3:0.0625 5:0.00129375 7:0.106667 
-1 1:0.0117774 2:0.396708 3:0.1875 4:0.666667 5:0.152609 
-1 1:0.0181484 2:0.343935 4:0.333333 5:0.00497595 7:0.24 
-1 1:0.00872354 2:0.384421 4:0.166667 5:0.00292373 7:0.106667 
-1 1:0.011408 2:0.43652 3:0.0625 4:0.166667 5:0.0520237 7:0.146667 
-1 1:0.00487531 2:0.653869 5:0.00218354 7:0.386667 
-1 1:0.01205 2:0.214767 3:0.125 5:0.108947 7:0.12 
-1 1:0.0133264 2:0.364393 3:0.4375 4:0.166667 5:0.0392463 7:0.08 
-1 1:0.0161156 2:0.336624 3:0.0625 5:0.0558718 7:0.0933333 
-1 1:0.00786817 2:0.454779 3:0.125 5:0.0336039 7:0.133333 
-1 1:0.0105745 2:0.246649 3:0.125 4:0.5 5:0.00300932 7:0.0266667 
-1 1:0.0191999 2:0.210167 3:0.1875 4:0.333333 5:0.0151037 7:0.213333 
-1 1:0.00798433 2:0.385387 4:0.166667 7:0.133333 
-1 1:0.0127818 2:0.0697309 4:0.166667 5:0.00125912 7:0.106667 
-1 1:0.00738644 2:0.309977 4:0.166667 5:0.00163249 7:0.186667 
-1 1:0.00735885 2:0.192638 4:0.166667 5:0.000844761 7:0.16 
-1 1:0.0144893 2:0.173344 3:0.0625 4:0.166667 5:0.0650942 7:0.133333 
-1 1:0.00449949 2:0.610291 7:0.36 
-1 1:0.0106948 2:0.328626 3:0.125 4:0.166667 5:0.103296 7:0.08 
-1 1:0.00573371 2:0.430634 7:0.133333 
-1 1:0.0173529 2:0.316974 4:0.333333 5:0.00594829 7:0.24 
-1 1:0.00890237 2:0.372241 3:0.125 4:0.166667 5:0.00225982 7:0.08 
-1 1:0.0104762 2:0.305649 3:0.125 5:0.12065 7:0.08 
-1 1:0.00673004 2:0.243279 3:0.1875 4:0.166667 5:0.0143376 7:0.2 
-1 1:0.00696791 2:0.575297 5:0.00277728 7:0.133333 
-1 1:0.0112877 2:0.44991 3:0.0625 5:0.0553605 7:0.106667 
-1 1:0.00821664 2:0.143436 3:0.0625 4:0.166667 5:0.192005 7:0.16 
-1 1:0.011408 2:0.61516 3:0.125 5:0.0431249 7:0.106667 
-1 1:0.0105253 2:0.466079 4:0.166667 5:0.00574999 7:0.24 
-1 1:0.010615 2:0.380998 4:0.166667 5:0.000929082 7:0.08 
-1 1:0.0116688 2:0.226517 3:0.125 4:0.333333 5:0.108735 7:0.133333 
-1 1:0.0115982 2:0.148788 3:0.1875 4:0.666667 5:0.125226 7:0.186667 
-1 1:0.00696791 2:0.284422 5:0.00180944 7:0.293333 
-1 1:0.00921853 2:0.378198 5:0.00137511 7:0.213333 
-1 1:0.00829707 2:0.18786 3:0.125 4:0.166667 5:0.00143277 7:0.0533333 
-1 1:0.00635807 2:0.427741 3:0.25 5:0.0208437 7:0.12 
-1 1:0.01205 2:0.589382 3:0.25 5:0.0522726 7:0.253333 
-1 1:0.00900073 2:0.272711 4:0.166667 5:0.00946646 7:0.16 
-1 1:0.00758767 2:0.289421 3:0.0625 4:0.166667 5:0.00496799 7:0.213333 
-1 1:0.00662037 2:0.412411 3:0.25 4:0.166667 5:0.00215087 7:0.0533333 
-1 1:0.00571992 2:0.372054 3:0.0625 5:0.00310049 7:0.24 
-1 1:0.00761473 2:0.342295 3:0.0625 5:0.254122 7:0.106667 
-1 1:0.00773022 2:0.340942 3:0.3125 5:0.100401 7:0.133333 
-1 1:0.00650592 2:0.35169 3:0.125 4:0.166667 5:0.13162 7:0.0533333 
-1 1:0.0071712 2:0.424899 5:0.0071875 7:0.146667 
-1 1:0.00682272 2:0.169053 3:0.125 4:0.166667 5:0.00836926 7:0.266667 
-1 1:0.00933954 2:0.305771 3:0.0625 4:0.166667 5:0.169906 7:0.0666667 
-1 1:0.00807888 2:0.0536886 4:0.333333 5:0.00175935 7:0.106667 
-1 1:0.00872354 2:0.21279 3:0.125 4:0.166667 5:0.224383 7:0.12 
-1 1:0.0097732 2:0.429073 3:0.25 5:0.00209797 7:0.0266667 
-1 1:0.00513837 2:0.317426 3:0.125 5:0.00216451 7:0.2 
-1 1:0.00767748 2:0.232155 3:0.1875 4:0.333333 5:0.127582 7:0.106667 
-1 1:0.0176402 2:0.295623 3:0.0625 4:0.666667 5:0.0105612 7:0.24 
-1 1:0.0018386 2:0.488949 7:0.426667 
-1 1:0.00487531 2:0.47727 7:0.466667 
-1 1:0.00576093 2:0.473253 7:0.16 
-1 1:0.01205 2:0.360426 3:0.125 4:0.166667 5:0.032479 7:0.08 
-1 1:0.0137924 2:0.192903 3:0.125 4:0.333333 5:0.0261741 7:0.16 
-1 1:0.00675819 2:0.189803 3:0.1875 4:0.166667 5:0.274726 7:0.0533333 
-1 1:0.0103348 2:0.290138 4:0.166667 5:0.00216188 7:0.08 
-1 1:0.00819831 2:0.712908 7:0.386667 
-1 1:0.00767159 2:0.225157 3:0.125 4:0.166667 5:0.0353199 7:0.12 
-1 1:0.010615 2:0.050127 3:0.125 5:0.00597691 7:0.133333 
-1 1:0.0071712 2:0.286255 3:0.0625 4:0.333333 5:0.00629181 7:0.133333 
-1 1:0.00782795 2:0.407678 5:0.00803014 7:0.186667 
-1 1:0.0105253 2:0.3499 3:0.125 4:0.166667 5:0.0440772 7:0.16 
-1 1:0.00814695 2:0.278079 3:0.125 4:0.333333 5:0.193885 7:0.0533333 
-1 1:0.00844632 2:0.105888 4:0.333333 5:0.00520734 7:0.08 
-1 1:0.00238277 2:0.554425 5:0.00138 7:0.186667 
-1 1:0.00860981 2:0.161861 3:0.0625 4:0.166667 5:0.350606 7:0.133333 
-1 1:0.00635807 2:0.259967 3:0.25 5:0.0106279 7:0.173333 
-1 1:0.00696791 2:0.193627 4:0.166667 5:0.0314695 7:0.613333 
-1 1:0.0116912 2:0.36213 3:0.0625 4:0.166667 5:0.00494426 7:0.0533333 
-1 1:0.0100171 2:0.385137 4:0.166667 5:0.00683922 7:0.133333 
-1 1:0.00588448 2:0.449946 3:0.25 5:0.00633745 7:0.133333 
-1 1:0.00608703 2:0.448013 5:0.00109292 7:0.16 
-1 1:0.00900073 2:0.372097 3:0.0625 5:0.134692 7:0.0933333 
-1 1:0.00615707 2:0.336409 5:0.00144755 7:0.133333 
-1 1:0.0100586 2:0.166339 3:0.1875 4:0.333333 5:0.00381449 7:0.0266667 
-1 1:0.0199271 2:0.296788 3:0.125 4:0.333333 5:0.00601743 7:0.186667 
-1 1:0.00403485 2:0.595597 7:0.573333 
-1 1:0.0130663 2:0.555699 3:0.0625 4:0.166667 5:0.108466 7:0.0933333 
-1 1:0.0101527 2:0.342911 3:0.125 4:0.166667 5:0.150991 7:0.0533333 
-1 1:0.00850177 2:0.191789 3:0.1875 4:0.166667 5:0.0056529 7:0.133333 
-1 1:0.0116565 2:0.302696 3:0.0625 4:0.333333 5:0.00109466 7:0.0266667 
-1 1:0.0116342 2:0.300242 3:0.0625 4:0.333333 5:0.0647034 7:0.0266667 
-1 1:0.0141844 2:0.23138 3:0.3125 4:0.166667 5:0.0464157 7:0.08 
-1 1:0.00879189 2:0.33328 3:0.0625 4:0.333333 5:0.052579 7:0.0266667 
-1 1:0.00950894 2:0.41279 3:0.125 4:0.166667 5:0.0243269 7:0.12 
-1 1:0.0105253 2:0.341508 4:0.166667 5:0.16796 7:0.36 
-1 1:0.0129212 2:0.643745 3:0.0625 4:0.166667 5:0.0488976 7:0.306667 
-1 1:0.00943634 2:0.406081 3:0.1875 4:0.166667 5:0.026269 7:0.186667 
-1 1:0.0125191 2:0.545811 3:0.1875 5:0.045531 7:0.08 
-1 1:0.0100827 2:0.348589 4:0.166667 5:0.00226973 7:0.16 
-1 1:0.0130663 2:0.838538 3:0.0625 4:0.166667 5:0.0586854 7:0.2 
-1 1:0.00904251 2:0.427233 3:0.125 5:0.000324691 7:0.0533333 
-1 1:0.0100171 2:0.112474 3:0.0625 4:0.333333 5:0.226779 7:0.106667 
-1 1:0.00685979 2:0.130741 4:0.333333 5:0.120804 7:0.16 
-1 1:0.0172427 2:0.393679 3:0.125 4:0.333333 5:0.0528719 7:0.0266667 
-1 1:0.0109065 2:0.268391 3:0.0625 5:0.0771317 7:0.0933333 
-1 1:0.00833786 2:0.403732 4:0.166667 5:0.0130025 7:0.173333 
-1 1:0.00907892 2:0.490088 3:0.0625 4:0.166667 5:0.00805281 7:0.08 
-1 1:0.00939846 2:0.340906 3:0.0625 4:0.166667 5:0.0924999 7:0.146667 
-1 1:0.0144107 2:0.236184 4:0.333333 5:0.00813359 7:0.106667 
-1 1:0.00761473 2:0.238551 3:0.0625 4:0.166667 5:0.278297 7:0.133333 
-1 1:0.01205 2:0.476533 3:0.1875 5:0.0284675 7:0.146667 
-1 1:0.01205 2:0.420488 4:0.166667 5:0.00359374 7:0.186667 
-1 1:0.00763831 2:0.118928 3:0.125 4:0.166667 5:0.078796 7:0.146667 
-1 1:0.008598 2:0.274111 3:0.0625 4:0.166667 5:0.00222341 7:0.106667 
-1 1:0.00976304 2:0.410478 5:0.0496799 7:0.426667 
-1 1:0.0097341 2:0.176664 3:0.0625 4:0.166667 5:0.00279528 7:0.08 
-1 1:0.0071712 2:0.474528 3:0.125 4:0.166667 5:0.00276184 7:0.08 
-1 1:0.0100171 2:0.0861026 3:0.0625 4:0.333333 5:0.00897395 7:0.16 
-1 1:0.00659345 2:0.453047 3:0.0625 5:0.00722765 7:0.16 
-1 1:0.00961058 2:0.408859 3:0.0625 5:0.0253784 7:0.08 
-1 1:0.0109894 2:0.0962576 3:0.125 4:0.333333 5:0.0169911 7:0.186667 
-1 1:0.0111117 2:0.179752 4:0.166667 5:0.00594829 7:0.213333 
-1 1:0.0126675 2:0.124431 3:0.25 4:0.166667 5:0.066406 7:0.0666667 
-1 1:0.0105021 2:0.194562 3:0.3125 4:0.5 5:0.001803 7:0.0266667 
-1 1:0.00635807 2:0.382115 5:0.00087121 7:0.28 
-1 1:0.00785727 2:0.485641 5:0.00537195 7:0.24 
-1 1:0.00823843 2:0.605264 5:0.00254299 7:0.173333 
-1 1:0.0126598 2:0.340319 3:0.0625 4:0.166667 5:0.000610603 7:0.0533333 
-1 1:0.00751158 2:0.09636 3:0.25 4:0.333333 5:0.0466917 7:0.24 
-1 1:0.0107585 2:0.326771 3:0.1875 4:0.333333 5:0.232071 
-1 1:0.0161156 2:0.228649 3:0.0625 4:0.166667 5:0.00534292 7:0.106667 
-1 1:0.00834733 2:0.176038 4:0.166667 5:0.00163077 7:0.106667 
-1 1:0.00772202 2:0.619957 5:0.00297414 7:0.186667 
-1 1:0.015295 2:0.126758 3:0.125 4:0.5 5:0.00165109 7:0.08 
-1 1:0.0100439 2:0.340283 3:0.125 4:0.333333 5:0.00146469 7:0.0533333 
-1 1:0.0124311 2:0.224391 4:0.166667 5:0.0120661 7:0.106667 
-1 1:0.010615 2:0.148647 3:0.1875 4:0.166667 5:0.0015351 7:0.0533333 
-1 1:0.0112877 2:0.241034 3:0.125 4:0.166667 5:0.361296 7:0.0533333 
-1 1:0.0100171 2:0.389426 3:0.125 5:0.08625 7:0.36 
-1 1:0.00938882 2:0.439821 3:0.0625 5:0.00268598 7:0.08 
-1 1:0.0100171 2:0.0678577 3:0.1875 4:0.333333 5:0.00961897 7:0.16 
-1 1:0.00693513 2:0.263375 3:0.125 4:0.166667 5:0.102867 7:0.133333 
-1 1:0.00839089 2:0.261077 3:0.125 5:0.0911901 7:0.08 
-1 1:0.00565158 2:0.44971 5:0.00254926 7:0.24 
-1 1:0.00721723 2:0.344809 3:0.125 5:0.0475441 7:0.08 
-1 1:0.0088878 2:0.349434 3:0.1875 4:0.166667 5:0.00336976 7:0.133333 
-1 1:0.00896008 2:0.297843 3:0.0625 5:0.000361382 7:0.08 
-1 1:0.00986543 2:0.148902 3:0.125 4:0.166667 5:0.158227 7:0.0266667 
-1 1:0.00207067 2:0.555334 7:0.546667 
-1 1:0.00815733 2:0.210477 3:0.125 4:0.333333 5:0.125565 7:0.133333 
-1 1:0.00706032 2:0.373272 3:0.0625 5:0.0018351 7:0.106667 
-1 1:0.00774517 2:0.473375 3:0.3125 4:0.166667 5:0.0252192 7:0.16 
-1 1:0.00738644 2:0.376472 3:0.0625 4:0.166667 5:0.124248 7:0.173333 
-1 1:0.00682272 2:0.330101 5:0.0132057 7:0.16 
-1 1:0.0105863 2:0.340734 3:0.1875 5:0.00328832 7:0.08 
-1 1:0.00773022 2:0.369491 3:0.25 4:0.166667 5:0.098801 7:0.0933333 
-1 1:0.0103075 2:0.463 4:0.166667 5:0.000833334 7:0.186667 
-1 1:0.0106948 2:0.303592 3:0.0625 4:0.166667 5:0.0729808 7:0.08 
-1 1:0.00979128 2:0.462498 3:0.0625 4:0.166667 5:0.129 7:0.0933333 
-1 1:0.00798433 2:0.119259 4:0.166667 7:0.24 
-1 1:0.0165673 2:0.269072 3:0.125 4:0.333333 5:0.00408284 7:0.146667 
-1 1:0.00798433 2:0.120106 3:0.0625 4:0.166667 5:0.00199667 7:0.106667 
-1 1:0.0150992 2:0.358005 3:0.125 5:0.0496099 7:0.133333 
-1 1:0.0105253 2:0.320653 3:0.0625 4:0.166667 5:0.100752 7:0.466667 
-1 1:0.00755636 2:0.0576827 4:0.166667 5:0.00164285 7:0.0666667 
-1 1:0.0091801 2:0.742402 7:0.373333 
-1 1:0.00939846 2:0.373694 3:0.0625 5:0.145043 7:0.0933333 
-1 1:0.0161156 2:0.225517 3:0.0625 4:0.333333 5:0.0056868 7:0.16 
-1 1:0.00918763 2:0.171017 3:0.4375 4:0.166667 5:0.428821 7:0.0533333 
-1 1:0.00761473 2:0.539022 3:0.1875 5:0.00506855 7:0.133333 
-1 1:0.00850892 2:0.413965 3:0.1875 5:0.00318788 7:0.133333 
-1 1:0.00779523 2:0.376322 3:0.0625 4:0.166667 5:0.00918142 7:0.28 
-1 1:0.01205 2:0.52821 3:0.0625 4:0.333333 5:0.000852202 7:0.0533333 
-1 1:0.0128631 2:0.481144 3:0.1875 4:0.166667 5:0.0504058 7:0.373333 
-1 1:0.0110045 2:0.391137 3:0.0625 4:0.166667 5:0.0856156 7:0.08 
-1 1:0.0124311 2:0.239958 3:0.0625 4:0.166667 5:0.157833 7:0.133333 
-1 1:0.0091801 2:0.114757 3:0.0625 4:0.333333 5:0.00640866 7:0.133333 
-1 1:0.00175035 2:0.570672 5:0.00226973 7:0.333333 
-1 1:0.00900073 2:0.332163 3:0.0625 4:0.166667 5:0.104335 7:0.106667 
-1 1:0.0141983 2:0.156748 3:0.3125 4:0.666667 5:0.000595906 7:0.133333 
-1 1:0.00642062 2:0.552484 7:0.186667 
-1 1:0.0124087 2:0.27772 3:0.0625 4:0.166667 5:0.0531363 7:0.106667 
-1 1:0.00542878 2:0.252042 5:0.00918639 7:0.186667 
-1 1:0.0111352 2:0.150956 3:0.0625 4:0.166667 5:0.00980682 7:0.0933333 
-1 1:0.0178032 2:0.116975 4:0.333333 5:0.00241822 7:0.106667 
-1 1:0.00690439 2:0.376881 3:0.0625 5:0.13082 7:0.106667 
-1 1:0.00869581 2:0.448736 4:0.166667 5:0.00190959 7:0.106667 
-1 1:0.00769392 2:0.331261 5:0.00860234 7:0.16 
-1 1:0.00928661 2:0.116351 3:0.1875 4:0.166667 5:0.00337265 7:0.106667 
-1 1:0.00769392 2:0.153934 3:0.125 4:0.166667 5:0.077228 7:0.08 
-1 1:0.00830773 2:0.317978 3:0.0625 4:0.166667 5:0.0557373 7:0.106667 
-1 1:0.00852641 2:0.305527 4:0.166667 5:0.00327014 7:0.186667 
-1 1:0.0110336 2:0.375814 3:0.0625 5:0.0136184 7:0.08 
-1 1:0.0113325 2:0.392762 3:0.125 5:0.0911321 7:0.0933333 
-1 1:0.00861958 2:0.346105 3:0.0625 4:0.333333 5:0.20791 7:0.0666667 
-1 1:0.0049813 2:0.241322 4:0.166667 5:0.000778195 7:0.133333 
-1 1:0.011408 2:0.557382 3:0.0625 5:0.0345 7:0.106667 
-1 1:0.00950894 2:0.0804788 3:0.125 4:0.5 5:0.0851115 7:0.16 
-1 1:0.0032072 2:0.567135 3:0.0625 5:0.00384758 7:0.386667 
-1 1:0.0103075 2:0.49374 3:0.125 4:0.166667 5:0.00974249 7:0.106667 
-1 1:0.0106948 2:0.34667 4:0.166667 5:0.019049 7:0.106667 
-1 1:0.00995362 2:0.150412 3:0.125 4:0.166667 5:0.00825794 7:0.0266667 
-1 1:0.01205 2:0.300916 4:0.166667 5:0.160603 7:0.16 
-1 1:0.00536133 2:0.521651 5:0.00171357 7:0.253333 
-1 1:0.00595151 2:0.169272 4:0.166667 5:0.00129375 7:0.146667 
-1 1:0.00839089 2:0.230179 4:0.166667 5:0.00141836 7:0.173333 
-1 1:0.00798433 2:0.461131 5:0.00848357 7:0.413333 
-1 1:0.00994704 2:0.350179 3:0.25 4:0.166667 5:0.0471474 7:0.186667 
-1 1:0.00876618 2:0.406367 3:0.0625 5:0.0123705 7:0.173333 
-1 1:0.00628415 2:0.400925 7:0.16 
-1 1:0.0128912 2:0.377353 3:0.1875 4:0.166667 5:0.0461709 7:0.0933333 
-1 1:0.00972674 2:0.381155 3:0.0625 5:0.000456214 7:0.08 
-1 1:0.00829707 2:0.171864 3:0.125 4:0.333333 5:0.00709579 7:0.08 
-1 1:0.0088878 2:0.307664 3:0.0625 5:0.0756889 7:0.12 
-1 1:0.0092621 2:0.351726 3:0.125 5:0.0872286 7:0.0533333 
-1 1:0.00530022 2:0.601877 5:0.0011161 7:0.133333 
-1 1:0.0102481 2:0.357655 3:0.25 4:0.166667 5:0.111932 7:0.0533333 
-1 1:0.00961058 2:0.396178 5:0.00113238 7:0.186667 
-1 1:0.00989756 2:0.565559 7:0.48 
-1 1:0.0112877 2:0.291957 3:0.0625 4:0.166667 5:0.217437 7:0.333333 
-1 1:0.00900073 2:0.479096 3:0.0625 5:0.000940338 7:0.08 
-1 1:0.00503674 2:0.324386 5:0.00255345 7:0.266667 
-1 1:0.0128631 2:0.454164 4:0.166667 5:0.138236 7:0.44 
-1 1:0.00798433 2:0.130705 3:0.1875 4:0.166667 5:0.35987 7:0.133333 
-1 1:0.0102504 2:0.198412 3:0.25 4:0.5 5:0.477328 
-1 1:0.0104762 2:0.136535 3:0.0625 4:0.166667 5:0.00462053 7:0.16 
-1 1:0.0103348 2:0.543498 3:0.125 5:0.0313983 7:0.08 
-1 1:0.0116434 2:0.362631 4:0.333333 5:0.00640866 7:0.133333 
-1 1:0.0071712 2:0.419951 3:0.25 4:0.166667 5:0.0281043 7:0.106667 
-1 1:0.0105253 2:0.250048 3:0.0625 4:0.166667 5:0.00144452 7:0.0533333 
-1 1:0.00677563 2:0.145321 4:0.166667 5:0.00803573 7:0.28 
-1 1:0.00830635 2:0.303102 3:0.125 5:0.0885679 7:0.133333 
-1 1:0.0106948 2:0.264395 4:0.166667 5:0.00401162 7:0.186667 
-1 1:0.0071712 2:0.212556 7:0.106667 
-1 1:0.00650592 2:0.31227 3:0.125 4:0.166667 5:0.129753 7:0.0533333 
-1 1:0.00783648 2:0.471635 3:0.25 5:0.00801958 7:0.16 
-1 1:0.00933954 2:0.230869 3:0.125 4:0.166667 5:0.0946993 7:0.2 
-1 1:0.00952646 2:0.205611 4:0.166667 5:0.00692305 7:0.133333 
-1 1:0.01205 2:0.466988 4:0.166667 5:0.00256187 7:0.186667 
-1 1:0.0121918 2:0.400174 4:0.166667 5:0.00040748 7:0.106667 
-1 1:0.0056611 2:0.523713 7:0.36 
-1 1:0.0113724 2:0.257341 3:0.0625 4:0.166667 5:0.0791034 7:0.133333 
-1 1:0.015695 2:0.103305 3:0.1875 4:0.5 5:0.000845899 7:0.16 
-1 1:0.0129212 2:0.286966 3:0.1875 4:0.5 5:0.298541 
-1 1:0.0110045 2:0.416113 3:0.0625 5:0.00557652 7:0.08 
-1 1:0.00595151 2:0.465334 5:0.0033173 7:0.133333 
-1 1:0.00896008 2:0.288037 3:0.0625 5:0.00107663 7:0.08 
-1 1:0.0103321 2:0.35416 3:0.0625 5:0.0025378 7:0.08 
-1 1:0.0116144 2:0.32191 3:0.0625 4:0.166667 5:0.0127634 7:0.253333 
-1 1:0.00667752 2:0.543705 3:0.125 5:0.00162662 7:0.186667 
-1 1:0.00260719 2:0.793893 7:0.226667 
-1 1:0.00431534 2:0.259436 5:0.0136904 7:0.586667 
-1 1:0.00812952 2:0.417738 3:0.0625 5:0.118061 7:0.146667 
-1 1:0.00785727 2:0.158295 3:0.125 4:0.5 5:0.294992 7:0.186667 
-1 1:0.0148959 2:0.229614 4:0.333333 5:0.0126219 7:0.133333 
-1 1:0.0127818 2:0.330345 3:0.3125 5:0.03716 7:0.0266667 
-1 1:0.00437042 2:0.973864 7:0.226667 
-1 1:0.00615894 2:0.508748 3:0.0625 5:0.000701693 7:0.106667 
-1 1:0.00876618 2:0.375935 3:0.0625 5:0.0136184 7:0.28 
-1 1:0.00701211 2:0.449087 5:0.000672076 7:0.16 
-1 1:0.00487531 2:0.440473 7:0.586667 
-1 1:0.00701211 2:0.128093 3:0.0625 4:0.166667 5:0.116173 7:0.266667 
-1 1:0.00859114 2:0.142894 5:0.00397694 7:0.106667 
-1 1:0.00273834 2:0.770614 5:0.000308035 7:0.213333 
-1 1:0.00747612 2:0.187107 3:0.0625 5:0.138207 7:0.186667 
-1 1:0.00798433 2:0.584184 4:0.166667 5:0.00269531 7:0.133333 
-1 1:0.00719743 2:0.3933 3:0.0625 5:0.00166452 7:0.0933333 
-1 1:0.0149328 2:0.135807 3:0.25 4:0.166667 5:0.00646067 7:0.226667 
-1 1:0.0134849 2:0.178661 3:0.0625 4:0.333333 5:0.0576422 7:0.0933333 
-1 1:0.0100171 2:0.295838 3:0.0625 4:0.166667 5:0.0988077 7:0.0533333 
-1 1:0.0109065 2:0.412375 3:0.0625 5:0.00419594 7:0.08 
-1 1:0.0129486 2:0.248348 3:0.3125 4:0.333333 5:0.00219745 7:0.08 
-1 1:0.00823843 2:0.410513 3:0.0625 4:0.166667 5:0.0591429 7:0.213333 
-1 1:0.0100171 2:0.336452 3:0.125 4:0.166667 5:0.0588381 7:0.106667 
-1 1:0.0159308 2:0.221422 5:0.142709 7:0.133333 
-1 1:0.0091227 2:0.467196 3:0.0625 5:0.0468749 7:0.12 
-1 1:0.00913727 2:0.133257 4:0.166667 5:0.00182432 7:0.106667 
-1 1:0.00823843 2:0.367737 3:0.125 4:0.166667 5:0.0282075 7:0.213333 
-1 1:0.0167135 2:0.153938 3:0.0625 4:0.333333 5:0.0083261 7:0.24 
-1 1:0.00671381 2:0.53376 7:0.2 
-1 1:0.0145909 2:0.469816 3:0.0625 4:0.166667 5:0.0155873 7:0.186667 
-1 1:0.00631024 2:0.501595 5:0.00442307 7:0.133333 
-1 1:0.00778104 2:0.454772 5:0.00270942 7:0.186667 
-1 1:0.00961058 2:0.331906 3:0.0625 5:0.107668 7:0.106667 
-1 1:0.00846263 2:0.316811 5:0.00273087 7:0.146667 
-1 1:0.0097341 2:0.252463 5:0.0108417 7:0.106667 
-1 1:0.0112877 2:0.350594 3:0.125 5:0.125318 7:0.08 
-1 1:0.00927793 2:0.38533 3:0.1875 4:0.166667 5:0.00702034 7:0.106667 
-1 1:0.0131845 2:0.0595494 3:0.125 4:0.333333 5:0.00536579 7:0.16 
-1 1:0.00317948 2:0.342718 5:0.00137268 7:1 
-1 1:0.00487531 2:0.669028 5:0.00866107 7:0.36 
-1 1:0.0148378 2:0.114426 3:0.0625 4:0.333333 5:0.00532439 7:0.08 
-1 1:0.00967835 2:0.397503 3:0.125 5:0.0339079 7:0.08 
-1 1:0.00595151 2:0.404771 3:0.0625 5:0.00522726 7:0.24 
-1 1:0.00765907 2:0.217275 3:0.0625 4:0.166667 5:0.101803 7:0.253333 
-1 1:0.0103559 2:0.477815 3:0.125 5:0.0244103 7:0.106667 
-1 1:0.00272291 2:0.623445 5:0.000257847 7:0.133333 
-1 1:0.00883133 2:0.10779 4:0.166667 5:0.00393162 7:0.0933333 
-1 1:0.00950894 2:0.302417 7:0.213333 
-1 1:0.00918742 2:0.551603 3:0.0625 4:0.166667 5:0.0299875 7:0.106667 
-1 1:0.0105253 2:0.291795 3:0.125 4:0.166667 5:0.00260311 7:0.12 
-1 1:0.0104541 2:0.152687 4:0.166667 5:0.00191565 7:0.08 
-1 1:0.00183093 2:0.521443 5:0.00361888 7:0.333333 
-1 1:0.0112877 2:0.293241 3:0.1875 4:0.166667 5:0.0467268 7:0.186667 
-1 1:0.00923024 2:0.152708 3:0.25 4:0.166667 5:0.150935 7:0.08 
-1 1:0.00798433 2:0.407728 3:0.0625 4:0.166667 5:0.0035204 7:0.106667 
-1 1:0.00643552 2:0.277996 3:0.125 5:0.114258 7:0.106667 
-1 1:0.00861958 2:0.57446 3:0.0625 4:0.166667 5:0.0334853 7:0.08 
-1 1:0.00256347 2:0.727336 7:0.226667 
-1 1:0.00900073 2:0.359681 3:0.125 4:0.166667 5:0.112745 7:0.106667 
-1 1:0.00772202 2:0.248497 4:0.166667 5:0.00608822 7:0.213333 
-1 1:0.0128369 2:0.262813 3:0.3125 4:0.333333 5:0.0330319 7:0.146667 
-1 1:0.00932059 2:0.061061 3:0.0625 4:0.166667 5:0.000601044 7:0.0533333 
-1 1:0.00758767 2:0.352277 3:0.0625 5:0.0750374 7:0.106667 
-1 1:0.00224888 2:0.56185 5:0.0023903 7:0.68 
-1 1:0.00473181 2:0.535951 7:0.6 
-1 1:0.0100171 2:0.319935 3:0.0625 4:0.166667 5:0.0723143 7:0.08 
-1 1:0.00576093 2:0.458524 7:0.16 
-1 1:0.00893586 2:0.405909 3:0.125 5:0.0139113 7:0.106667 
-1 1:0.00439144 2:0.227084 5:0.0169672 7:0.16 
-1 1:0.0101241 2:0.442542 3:0.125 4:0.166667 5:0.0467951 7:0.106667 
-1 1:0.00738644 2:0.335249 3:0.1875 4:0.166667 5:0.0842716 7:0.106667 
