svm_type c_svc
kernel_type rbf
gamma 0.05
nr_class 2
total_sv 2585
rho 0.994208
label 1 0
probA -1.39317
probB 0.153186
nr_sv 1280 1305
SV
0.1 0:0 1:0.687887 2:2 
0.1 0:0 1:0.641662 2:6 
0.1 0:0 1:0.830846 2:5 
0.1 0:0 1:0.866523 2:4 
0.1 0:0 1:0.459847 2:2 
0.1 0:0 1:0.628617 2:2 
0.1 0:0.0636667 1:0.816771 2:4 
0.1 0:0 1:1.08633 2:6 
0.1 0:0 1:0.573171 2:8 
0.1 0:0.176812 1:0.591429 2:8 
0.1 0:0 1:0.56847 2:6 
0.1 0:0 1:0.593935 2:2 
0.1 0:0 1:0.634456 2:6 
0.1 0:0 1:0.399792 2:8 
0.1 0:0 1:0.568182 2:4 
0.1 0:0 1:0.795244 2:2 
0.1 0:0 1:1.14793 2:2 
0.1 0:0 1:0.608377 2:6 
0.1 0:0 1:0.450943 2:2 
0.1 0:0 1:0.557536 2:7 
0.1 0:0 1:0.733014 2:4 
0.1 0:0 1:0.457114 2:6 
0.1 0:0 1:1.09901 2:6 
0.1 0:0 1:0.655376 2:6 
0.1 0:0.266191 1:0.584802 2:6 
0.1 0:0 1:0.644402 2:4 
0.1 0:0 1:0.779333 2:8 
0.1 0:0 1:0.710586 2:4 
0.1 0:0.000702168 1:0.531578 2:5 
0.1 0:0.710938 1:0.607595 2:0 
0.1 0:0 1:0.641201 2:6 
0.1 0:0 1:0.770518 2:4 
0.1 0:0 1:0.737986 2:2 
0.1 0:0 1:0.67021 2:7 
0.1 0:0.0307529 1:0.942058 2:2 
0.1 0:0.0326923 1:0.827367 2:2 
0.1 0:0 1:0.721106 2:4 
0.1 0:0.187714 1:0.637407 2:6 
0.1 0:0 1:0.57654 2:4 
0.1 0:0 1:0.782153 2:4 
0.1 0:0 1:0.682154 2:8 
0.1 0:0 1:0.593289 2:6 
0.1 0:0 1:1.00149 2:4 
0.1 0:0 1:0.644513 2:4 
0.1 0:0 1:0.622568 2:8 
0.1 0:0 1:0.292977 2:8 
0.1 0:0 1:0.739218 2:2 
0.1 0:0 1:0.56463 2:2 
0.1 0:0.17772 1:0.556131 2:12 
0.1 0:0 1:0.676892 2:6 
0.1 0:0 1:0.707547 2:4 
0.1 0:0 1:0.486643 2:2 
0.1 0:0.00142045 1:0.990619 2:4 
0.1 0:0 1:0.570802 2:2 
0.1 0:0 1:0.67753 2:4 
0.1 0:0 1:1.06557 2:6 
0.1 0:0 1:0.77551 2:8 
0.1 0:0.388489 1:0.408258 2:8 
0.1 0:0 1:0.673754 2:6 
0.1 0:0 1:0.630491 2:6 
0.1 0:0 1:1.01246 2:0 
0.1 0:0 1:0.382789 2:6 
0.1 0:0 1:0.878431 2:6 
0.1 0:0 1:0.693031 2:4 
0.1 0:0 1:0.62753 2:4 
0.1 0:0.716346 1:0.605531 2:0 
0.1 0:0 1:0.762344 2:4 
0.1 0:0 1:0.334531 2:6 
0.1 0:0 1:0.746894 2:4 
0.1 0:0 1:0.790698 2:20 
0.1 0:0 1:0.605405 2:4 
0.1 0:0 1:0.771812 2:4 
0.1 0:0 1:0.808625 2:4 
0.1 0:0 1:0.662783 2:4 
0.1 0:0 1:0.580236 2:2 
0.1 0:0 1:0.856204 2:2 
0.1 0:0 1:0.684932 2:5 
0.1 0:0 1:0.337182 2:6 
0.1 0:0 1:0.888889 2:10 
0.1 0:0 1:0.617162 2:4 
0.1 0:0 1:0.864322 2:4 
0.1 0:0 1:0.755361 2:6 
0.1 0:0 1:0.600922 2:6 
0.1 0:0 1:1.15534 2:6 
0.1 0:0 1:0.724384 2:2 
0.1 0:0 1:0.596161 2:6 
0.1 0:0 1:0.712 2:4 
0.1 0:0 1:0.64189 2:8 
0.1 0:0 1:0.326959 2:6 
0.1 0:0.604938 1:0.660326 2:0 
0.1 0:0 1:0.639381 2:4 
0.1 0:0 1:0.449008 2:7 
0.1 0:1.89691 1:0.360149 2:0 
0.1 0:0 1:0.701486 2:4 
0.1 0:0.238985 1:0.817686 2:0 
0.1 0:0 1:0.813783 2:4 
0.1 0:0 1:0.634921 2:6 
0.1 0:0 1:0.588921 2:6 
0.1 0:0 1:0.730804 2:8 
0.1 0:0 1:0.719128 2:4 
0.1 0:0.0714143 1:0.696153 2:6 
0.1 0:0 1:0.818942 2:4 
0.1 0:0 1:0.67603 2:8 
0.1 0:0 1:0.700452 2:4 
0.1 0:0 1:0.698052 2:8 
0.1 0:0 1:0.396806 2:6 
0.1 0:0 1:0.370964 2:6 
0.1 0:0 1:0.70787 2:4 
0.1 0:0 1:0.595766 2:4 
0.1 0:0 1:0.66699 2:6 
0.1 0:0.124134 1:0.695862 2:6 
0.1 0:0 1:0.565081 2:6 
0.1 0:0 1:0.466587 2:5 
0.1 0:0 1:0.813862 2:2 
0.1 0:0 1:0.797834 2:6 
0.1 0:0.911156 1:0.519517 2:0 
0.1 0:0 1:0.404503 2:8 
0.1 0:0 1:0.703518 2:4 
0.1 0:0 1:0.581315 2:2 
0.1 0:0 1:0.672355 2:2 
0.1 0:0 1:0.624674 2:4 
0.1 0:0 1:0.568238 2:8 
0.1 0:0 1:0.835616 2:2 
0.1 0:0 1:0.733804 2:4 
0.1 0:0 1:0.781498 2:4 
0.1 0:0 1:0.580438 2:4 
0.1 0:0 1:0.615564 2:4 
0.1 0:0 1:0.8 2:4 
0.1 0:0.0815419 1:0.806818 2:4 
0.1 0:0 1:0.684646 2:8 
0.1 0:0 1:0.821703 2:6 
0.1 0:0 1:0.782237 2:8 
0.1 0:0 1:0.640212 2:4 
0.1 0:0 1:0.63306 2:7 
0.1 0:0 1:0.643681 2:2 
0.1 0:0 1:0.595078 2:6 
0.1 0:0 1:0.526295 2:6 
0.1 0:0 1:0.555114 2:7 
0.1 0:0 1:0.690217 2:8 
0.1 0:0 1:0.645645 2:6 
0.1 0:0 1:0.973333 2:6 
0.1 0:0 1:0.777778 2:8 
0.1 0:1.00243 1:0.514357 2:0 
0.1 0:0 1:0.762129 2:4 
0.1 0:1.40302 1:0.419332 2:0 
0.1 0:0 1:0.657289 2:2 
0.1 0:0 1:0.756813 2:2 
0.1 0:0 1:0.512518 2:6 
0.1 0:0 1:0.679167 2:8 
0.1 0:0 1:1.04396 2:0 
0.1 0:0 1:1.05224 2:0 
0.1 0:0 1:0.74121 2:6 
0.1 0:0 1:0.639698 2:4 
0.1 0:0 1:1.09948 2:4 
0.1 0:0.1875 1:0.605531 2:6 
0.1 0:0.143376 1:0.524762 2:6 
0.1 0:0.0753247 1:0.855556 2:4 
0.1 0:0 1:0.604811 2:8 
0.1 0:0 1:1.03933 2:8 
0.1 0:0 1:0.471324 2:8 
0.1 0:0 1:0.55002 2:8 
0.1 0:0 1:0.540278 2:8 
0.1 0:0 1:0.800233 2:6 
0.1 0:0 1:0.6721 2:7 
0.1 0:0 1:0.68215 2:4 
0.1 0:0 1:1.20879 2:2 
0.1 0:0.788462 1:0.579618 2:0 
0.1 0:0.584559 1:0.676617 2:0 
0.1 0:0 1:0.539376 2:6 
0.1 0:0 1:0.893417 2:6 
0.1 0:0 1:0.807583 2:4 
0.1 0:0 1:0.694861 2:8 
0.1 0:0.377681 1:0.398465 2:6 
0.1 0:0 1:0.548023 2:8 
0.1 0:0 1:0.721959 2:4 
0.1 0:0 1:0.820895 2:6 
0.1 0:0 1:0.790559 2:4 
0.1 0:0 1:0.628083 2:8 
0.1 0:0 1:0.737374 2:4 
0.1 0:0 1:0.846154 2:4 
0.1 0:0 1:1.07143 2:4 
0.1 0:0 1:0.808219 2:4 
0.1 0:0 1:0.63382 2:4 
0.1 0:0 1:0.756238 2:2 
0.1 0:0 1:0.479889 2:6 
0.1 0:0 1:0.988134 2:0 
0.1 0:0 1:1.01976 2:2 
0.1 0:0 1:0.598607 2:4 
0.1 0:0 1:0.351024 2:6 
0.1 0:0 1:0.746092 2:6 
0.1 0:0.0828025 1:0.937713 2:0 
0.1 0:0.687101 1:0.601065 2:0 
0.1 0:0 1:0.685333 2:4 
0.1 0:0 1:0.335681 2:8 
0.1 0:0 1:0.669253 2:4 
0.01769530220170989 0:0.0574237 1:0.865845 2:2 
0.1 0:0.695404 1:0.596646 2:0 
0.1 0:0 1:1.0312 2:2 
0.1 0:0 1:0.735484 2:4 
0.1 0:0 1:0.438938 2:7 
0.1 0:0 1:0.659274 2:8 
0.1 0:0 1:0.614659 2:4 
0.1 0:0 1:0.64838 2:6 
0.1 0:0.345766 1:0.744884 2:0 
0.1 0:0 1:0.72578 2:6 
0.1 0:0 1:0.607307 2:6 
0.1 0:0 1:0.992662 2:0 
0.1 0:0 1:0.522458 2:8 
0.1 0:0 1:0.984676 2:0 
0.1 0:0 1:0.502581 2:8 
0.1 0:0 1:0.532481 2:8 
0.1 0:0.00104849 1:0.802567 2:4 
0.1 0:0 1:0.722756 2:4 
0.1 0:0 1:0.997804 2:0 
0.1 0:0 1:0.693739 2:4 
0.1 0:0 1:0.844961 2:6 
0.1 0:0 1:0.7411 2:4 
0.1 0:0 1:1.01426 2:0 
0.1 0:1.53067 1:0.398302 2:0 
0.1 0:0 1:1.04262 2:0 
0.1 0:0 1:0.656669 2:6 
0.1 0:0 1:0.656355 2:2 
0.1 0:0 1:0.960133 2:0 
0.1 0:0 1:0.389502 2:8 
0.1 0:0 1:0.664286 2:6 
0.1 0:0 1:0.58445 2:2 
0.1 0:0 1:0.476471 2:7 
0.1 0:0 1:0.588791 2:4 
0.1 0:0 1:0.832558 2:4 
0.1 0:0 1:0.535154 2:6 
0.1 0:0 1:0.651534 2:4 
0.1 0:0 1:0.679919 2:4 
0.1 0:0 1:0.410237 2:6 
0.1 0:0.0560345 1:0.667763 2:6 
0.1 0:0 1:0.798165 2:4 
0.1 0:0 1:0.70073 2:4 
0.1 0:0 1:0.704127 2:8 
0.1 0:0 1:0.780172 2:8 
0.1 0:0 1:0.583979 2:4 
0.1 0:0 1:0.713403 2:6 
0.1 0:0 1:0.599115 2:7 
0.1 0:0 1:1.09699 2:0 
0.1 0:0.349656 1:0.754734 2:0 
0.1 0:0 1:0.660844 2:6 
0.1 0:0.0780911 1:0.721816 2:6 
0.1 0:0 1:0.716937 2:6 
0.1 0:0 1:0.79017 2:4 
0.1 0:0 1:0.690114 2:4 
0.1 0:0 1:0.759894 2:8 
0.1 0:0.00209205 1:0.610473 2:4 
0.1 0:0 1:0.408836 2:8 
0.1 0:0 1:0.431991 2:7 
0.1 0:0 1:0.723256 2:2 
0.1 0:0 1:1.12203 2:4 
0.1 0:0 1:0.689989 2:4 
0.1 0:0.356635 1:0.413928 2:6 
0.1 0:0 1:0.544081 2:6 
0.1 0:0.379249 1:0.741379 2:0 
0.1 0:0 1:0.605951 2:2 
0.1 0:0 1:0.690789 2:2 
0.1 0:0 1:0.671392 2:4 
0.1 0:0.40015 1:0.391087 2:6 
0.1 0:1.71615 1:0.374208 2:0 
0.1 0:0 1:0.476847 2:2 
0.1 0:0 1:0.744758 2:4 
0.1 0:0 1:0.702703 2:4 
0.1 0:0 1:1.021 2:2 
0.1 0:0 1:0.694382 2:2 
0.1 0:0 1:0.577705 2:4 
0.1 0:0 1:0.590308 2:4 
0.1 0:0.0458716 1:0.908333 2:2 
0.1 0:0.707763 1:0.587131 2:0 
0.1 0:0 1:0.725448 2:2 
0.1 0:0 1:0.66471 2:6 
0.1 0:0 1:0.861818 2:6 
0.1 0:1.45404 1:0.42285 2:0 
0.1 0:1.22997 1:0.466265 2:0 
0.1 0:0 1:0.573776 2:4 
0.1 0:0 1:0.300359 2:6 
0.1 0:1.11397 1:0.490532 2:0 
0.1 0:0 1:0.58794 2:4 
0.1 0:0 1:1.00305 2:2 
0.1 0:0 1:0.610409 2:4 
0.1 0:0.959375 1:0.522023 2:0 
0.1 0:0 1:0.852381 2:4 
0.1 0:0 1:0.802773 2:4 
0.1 0:0 1:0.388235 2:8 
0.1 0:0 1:0.673647 2:4 
0.1 0:0 1:0.524305 2:2 
0.1 0:0 1:0.576322 2:4 
0.1 0:0 1:0.687135 2:8 
0.1 0:0 1:0.662328 2:6 
0.1 0:0.635204 1:0.640523 2:0 
0.1 0:0 1:0.371208 2:6 
0.1 0:0 1:0.311739 2:8 
0.1 0:0 1:0.742832 2:4 
0.1 0:0 1:0.567489 2:4 
0.1 0:0 1:0.852113 2:2 
0.1 0:0.000865801 1:0.509596 2:2 
0.1 0:0 1:0.720217 2:2 
0.1 0:0 1:0.820598 2:2 
0.1 0:0 1:0.77368 2:4 
0.1 0:0.00865801 1:0.539468 2:7 
0.1 0:0 1:0.41831 2:7 
0.1 0:0 1:0.479962 2:8 
0.1 0:0 1:1.18182 2:2 
0.1 0:0.310386 1:0.617895 2:6 
0.1 0:0 1:0.623099 2:6 
0.1 0:0 1:0.684945 2:4 
0.1 0:0 1:1.1588 2:2 
0.1 0:0 1:0.727891 2:2 
0.1 0:0.298658 1:0.827778 2:0 
0.1 0:0 1:0.826667 2:10 
0.1 0:0 1:0.691964 2:2 
0.1 0:0 1:0.7865 2:6 
0.1 0:0.160526 1:0.700138 2:6 
0.1 0:0 1:0.784807 2:2 
0.1 0:0 1:0.600754 2:2 
0.1 0:0.00356824 1:0.523587 2:10 
0.1 0:0 1:0.296637 2:6 
0.1 0:0 1:0.659705 2:4 
0.1 0:0.0851988 1:0.925193 2:1 
0.1 0:0.286127 1:0.496413 2:6 
0.1 0:0.00130166 1:0.660434 2:4 
0.1 0:0 1:1.00932 2:1 
0.1 0:0 1:0.687135 2:8 
0.1 0:0 1:0.768392 2:4 
0.1 0:1.47599 1:0.412753 2:0 
0.1 0:0 1:0.551111 2:2 
0.1 0:0 1:0.694444 2:4 
0.1 0:0 1:0.442254 2:8 
0.1 0:0 1:0.463575 2:8 
0.1 0:0 1:0.734341 2:4 
0.1 0:0 1:0.633333 2:2 
0.1 0:0 1:0.752688 2:4 
0.1 0:0 1:0.670139 2:8 
0.1 0:0 1:0.612371 2:4 
0.1 0:0 1:0.606115 2:8 
0.1 0:0 1:0.802286 2:4 
0.1 0:0 1:0.728324 2:6 
0.1 0:0 1:0.670765 2:2 
0.1 0:0.0134003 1:0.548713 2:5 
0.1 0:0.386255 1:0.7317 2:0 
0.1 0:0 1:0.745798 2:4 
0.1 0:0 1:0.652158 2:4 
0.1 0:0 1:0.698377 2:4 
0.1 0:0 1:0.60601 2:2 
0.1 0:0 1:0.545273 2:8 
0.1 0:0 1:0.528517 2:2 
0.1 0:0 1:1.0267 2:0 
0.1 0:0 1:0.770535 2:4 
0.1 0:0 1:0.560045 2:2 
0.1 0:0 1:0.638164 2:4 
0.1 0:0 1:0.654504 2:6 
0.1 0:0 1:1.08951 2:2 
0.1 0:0 1:0.417384 2:8 
0.1 0:0 1:0.589462 2:6 
0.1 0:0 1:0.589949 2:4 
0.1 0:0.491486 1:0.684685 2:0 
0.1 0:0 1:0.445902 2:12 
0.1 0:0 1:0.567608 2:2 
0.1 0:0 1:0.642987 2:5 
0.1 0:0 1:0.607875 2:4 
0.1 0:0 1:0.723235 2:4 
0.1 0:0 1:0.690345 2:6 
0.1 0:1.34907 1:0.431818 2:0 
0.1 0:0 1:0.525907 2:9 
0.1 0:0 1:0.615385 2:4 
0.1 0:0 1:1.0437 2:0 
0.1 0:0 1:0.597017 2:4 
0.1 0:0 1:0.788425 2:2 
0.1 0:0 1:0.693666 2:4 
0.1 0:0 1:0.570833 2:4 
0.1 0:0.727858 1:0.582525 2:0 
0.1 0:0 1:0.617859 2:4 
0.1 0:0 1:1.06573 2:6 
0.1 0:0 1:0.670616 2:4 
0.1 0:0 1:0.772955 2:2 
0.1 0:0 1:1.02543 2:0 
0.1 0:0 1:0.409138 2:7 
0.1 0:0 1:0.337398 2:8 
0.1 0:0 1:0.758147 2:4 
0.1 0:0.162356 1:0.698094 2:8 
0.1 0:0 1:0.723586 2:4 
0.1 0:0 1:0.743388 2:2 
0.1 0:0 1:0.552239 2:6 
0.1 0:0.0329004 1:0.705128 2:6 
0.1 0:0 1:0.717004 2:2 
0.1 0:0.940744 1:0.520971 2:0 
0.1 0:0.0157729 1:0.409296 2:6 
0.1 0:0 1:0.673002 2:4 
0.1 0:0 1:0.573013 2:4 
0.1 0:0 1:0.643548 2:4 
0.1 0:0 1:0.614276 2:7 
0.1 0:0 1:0.755464 2:4 
0.1 0:0 1:0.998929 2:2 
0.1 0:0 1:0.734513 2:4 
0.1 0:0.00280899 1:0.792873 2:8 
0.1 0:0 1:0.691327 2:4 
0.1 0:0 1:0.634633 2:4 
0.1 0:0 1:0.704675 2:4 
0.1 0:0.127016 1:0.659136 2:6 
0.1 0:0 1:0.498044 2:6 
0.1 0:0 1:0.593861 2:6 
0.1 0:0.499244 1:0.665884 2:0 
0.1 0:0 1:0.718995 2:4 
0.1 0:0.266065 1:0.4706 2:6 
0.1 0:0 1:0.757669 2:2 
0.1 0:0.89597 1:0.531844 2:0 
0.1 0:0 1:0.632023 2:2 
0.1 0:0 1:1.03113 2:2 
0.1 0:0.541686 1:0.65297 2:0 
0.1 0:0 1:0.583735 2:6 
0.1 0:0.612532 1:0.639411 2:0 
0.1 0:0 1:0.664085 2:4 
0.1 0:0 1:0.703764 2:4 
0.1 0:0.000902527 1:0.469691 2:9 
0.1 0:0 1:0.422003 2:6 
0.1 0:0 1:0.696671 2:8 
0.1 0:0 1:0.630162 2:2 
0.1 0:0 1:0.552484 2:6 
0.1 0:0 1:0.711778 2:4 
0.1 0:0 1:0.786165 2:6 
0.1 0:0 1:0.692623 2:4 
0.1 0:0 1:1.00279 2:0 
0.1 0:0 1:0.570252 2:4 
0.1 0:0.46073 1:0.688337 2:0 
0.1 0:0.737242 1:0.589251 2:0 
0.1 0:0 1:1.04932 2:2 
0.1 0:0 1:0.669996 2:2 
0.1 0:0 1:0.970334 2:2 
0.1 0:0 1:1.00771 2:2 
0.1 0:0 1:0.675241 2:4 
0.1 0:0 1:0.492774 2:9 
0.1 0:0 1:0.594758 2:4 
0.1 0:0 1:0.815603 2:4 
0.1 0:0 1:0.60387 2:4 
0.1 0:0 1:0.80399 2:4 
0.1 0:0 1:0.730292 2:2 
0.1 0:0 1:0.455932 2:2 
0.1 0:0 1:0.694444 2:4 
0.1 0:0 1:0.796034 2:4 
0.1 0:0 1:0.79053 2:4 
0.1 0:0 1:1.05229 2:0 
0.1 0:0 1:0.522625 2:6 
0.1 0:0 1:0.788121 2:7 
0.1 0:0 1:0.600514 2:4 
0.1 0:0 1:0.590643 2:4 
0.1 0:0 1:0.600499 2:4 
0.1 0:0 1:0.688734 2:4 
0.1 0:0 1:0.499699 2:8 
0.1 0:0 1:0.658374 2:4 
0.1 0:1.45123 1:0.407301 2:0 
0.1 0:0 1:0.696803 2:4 
0.1 0:0.305875 1:0.620198 2:6 
0.1 0:0 1:0.54689 2:6 
0.1 0:0 1:0.724306 2:4 
0.1 0:0 1:0.798969 2:2 
0.1 0:0.948276 1:0.520735 2:0 
0.1 0:0 1:0.746828 2:4 
0.1 0:0 1:0.374911 2:6 
0.1 0:0.492188 1:0.713092 2:0 
0.1 0:0 1:0.531964 2:6 
0.1 0:0 1:0.687017 2:4 
0.1 0:0.00659631 1:0.478838 2:0 
0.1 0:0 1:0.77809 2:6 
0.1 0:0 1:0.746765 2:8 
0.1 0:0 1:0.666531 2:8 
0.1 0:0 1:0.579329 2:7 
0.1 0:0 1:0.528806 2:2 
0.1 0:0 1:0.662709 2:6 
0.1 0:0 1:0.606753 2:7 
0.1 0:0 1:0.521071 2:6 
0.1 0:0 1:0.835443 2:2 
0.1 0:0 1:0.601514 2:4 
0.1 0:0 1:0.556164 2:6 
0.1 0:0 1:0.510055 2:10 
0.1 0:0 1:0.691546 2:4 
0.1 0:0 1:0.601785 2:4 
0.1 0:0 1:0.624617 2:4 
0.1 0:0 1:0.449176 2:5 
0.1 0:0.436508 1:0.72103 2:0 
0.1 0:0 1:0.753066 2:4 
0.1 0:0 1:0.914286 2:8 
0.1 0:0 1:0.741622 2:4 
0.1 0:0 1:0.53462 2:8 
0.1 0:0 1:0.664762 2:6 
0.1 0:0 1:0.383166 2:6 
0.1 0:0 1:0.768197 2:4 
0.1 0:0 1:0.665187 2:6 
0.1 0:0 1:0.687065 2:4 
0.1 0:0 1:0.74367 2:6 
0.1 0:0 1:0.610028 2:4 
0.1 0:0 1:0.657222 2:4 
0.1 0:0 1:0.580065 2:4 
0.1 0:0 1:0.826628 2:2 
0.1 0:0 1:0.625514 2:2 
0.1 0:0 1:1.01773 2:4 
0.1 0:0 1:0.601892 2:4 
0.1 0:1.20981 1:0.458974 2:0 
0.1 0:0 1:0.745422 2:6 
0.1 0:0 1:0.634825 2:4 
0.1 0:0 1:0.397465 2:6 
0.1 0:0 1:0.688718 2:4 
0.1 0:0 1:0.809709 2:4 
0.1 0:0 1:0.438795 2:6 
0.1 0:0 1:0.742901 2:4 
0.1 0:0 1:1.03908 2:0 
0.1 0:0.47619 1:0.759036 2:0 
0.1 0:0 1:0.684568 2:2 
0.1 0:0 1:0.626603 2:6 
0.1 0:0 1:0.710515 2:4 
0.1 0:0 1:0.628499 2:6 
0.1 0:0 1:0.531646 2:6 
0.1 0:2.28026 1:0.30863 2:0 
0.1 0:0 1:0.724548 2:4 
0.1 0:0.926829 1:0.544592 2:0 
0.1 0:0 1:0.8 2:4 
0.1 0:0.0168445 1:0.476076 2:18 
0.1 0:0 1:0.557621 2:6 
0.1 0:0 1:0.586819 2:4 
0.1 0:0 1:0.45232 2:8 
0.1 0:0 1:0.716782 2:6 
0.1 0:0 1:0.760542 2:4 
0.1 0:0 1:0.501491 2:8 
0.1 0:0 1:0.701777 2:4 
0.1 0:0 1:0.422546 2:6 
0.1 0:0 1:0.752896 2:4 
0.1 0:0 1:0.637904 2:4 
0.1 0:0 1:0.552171 2:6 
0.1 0:0 1:0.758941 2:4 
0.1 0:0 1:1.04898 2:0 
0.1 0:0 1:0.941667 2:2 
0.1 0:0 1:0.707893 2:2 
0.1 0:1.18412 1:0.478411 2:0 
0.1 0:0.420797 1:0.711495 2:0 
0.1 0:0 1:0.422864 2:8 
0.1 0:0 1:0.814035 2:4 
0.1 0:0 1:0.653674 2:4 
0.1 0:0 1:0.785995 2:4 
0.1 0:0 1:0.721688 2:4 
0.1 0:0 1:0.684898 2:4 
0.1 0:0 1:0.790258 2:4 
0.1 0:0 1:0.59204 2:2 
0.1 0:0 1:0.806045 2:4 
0.1 0:0 1:0.902913 2:8 
0.1 0:0 1:0.705065 2:4 
0.1 0:0 1:0.627809 2:6 
0.1 0:0 1:0.694915 2:7 
0.1 0:0 1:1.026 2:0 
0.1 0:0 1:0.479413 2:8 
0.1 0:1.10183 1:0.485825 2:0 
0.1 0:0 1:1.01825 2:2 
0.1 0:0 1:0.566599 2:4 
0.1 0:0 1:0.921546 2:6 
0.1 0:0 1:0.684594 2:4 
0.1 0:0.618493 1:0.622115 2:0 
0.1 0:0 1:0.474548 2:6 
0.1 0:0.533937 1:0.670713 2:0 
0.1 0:0 1:0.723235 2:4 
0.1 0:0 1:0.484377 2:6 
0.1 0:0 1:0.678608 2:2 
0.1 0:0 1:0.838078 2:4 
0.1 0:0 1:0.338868 2:8 
0.1 0:0 1:0.68457 2:7 
0.1 0:0 1:0.809447 2:2 
0.1 0:0 1:0.728729 2:2 
0.1 0:0 1:0.71735 2:2 
0.1 0:0 1:0.671588 2:4 
0.1 0:0 1:0.725843 2:6 
0.1 0:0 1:0.696476 2:4 
0.1 0:0 1:0.546279 2:2 
0.1 0:0 1:0.651186 2:4 
0.1 0:0 1:0.617823 2:2 
0.1 0:0 1:0.744799 2:4 
0.1 0:0 1:0.829159 2:2 
0.1 0:0.00421053 1:0.960983 2:32 
0.1 0:0 1:0.782019 2:2 
0.1 0:0.295146 1:0.78626 2:0 
0.1 0:0 1:0.716519 2:2 
0.1 0:0 1:0.646759 2:5 
0.1 0:0 1:0.717472 2:4 
0.1 0:1.15602 1:0.477558 2:0 
0.1 0:0.860619 1:0.541696 2:0 
0.1 0:0 1:0.587025 2:4 
0.1 0:0 1:0.79694 2:4 
0.1 0:0 1:0.730561 2:8 
0.1 0:0.352227 1:0.533477 2:6 
0.1 0:0 1:0.624776 2:2 
0.1 0:0 1:0.409501 2:6 
0.1 0:0.0243902 1:0.964706 2:4 
0.1 0:0.681818 1:0.666667 2:0 
0.1 0:0.0341463 1:0.694327 2:4 
0.1 0:0 1:0.597493 2:4 
0.1 0:0 1:0.814994 2:4 
0.1 0:0 1:0.26315 2:6 
0.1 0:0 1:0.583359 2:6 
0.1 0:0 1:0.72578 2:6 
0.1 0:0 1:0.809504 2:4 
0.1 0:0 1:0.536062 2:7 
0.1 0:0 1:1.10947 2:0 
0.1 0:0 1:0.771192 2:4 
0.1 0:0 1:0.633017 2:2 
0.1 0:0.259259 1:0.521379 2:6 
0.1 0:0.526397 1:0.661307 2:0 
0.1 0:0 1:0.503667 2:2 
0.1 0:0 1:0.490617 2:2 
0.1 0:0 1:0.466571 2:8 
0.1 0:0 1:0.732143 2:4 
0.1 0:0.328358 1:0.832298 2:0 
0.1 0:0 1:1.03064 2:0 
0.1 0:0 1:0.646532 2:4 
0.1 0:0 1:0.656746 2:2 
0.1 0:0 1:0.696375 2:4 
0.1 0:0 1:0.709924 2:4 
0.1 0:0 1:0.689 2:4 
0.1 0:0 1:0.63388 2:6 
0.1 0:0.951391 1:0.511719 2:0 
0.1 0:0 1:0.685106 2:6 
0.1 0:0 1:0.482003 2:6 
0.1 0:1.22768 1:0.451783 2:0 
0.1 0:0 1:0.683557 2:2 
0.1 0:0 1:0.767101 2:4 
0.1 0:0 1:0.309568 2:8 
0.1 0:0 1:0.987111 2:0 
0.1 0:0 1:0.693642 2:6 
0.1 0:0 1:0.66474 2:4 
0.1 0:0 1:0.65787 2:4 
0.1 0:0 1:0.596203 2:4 
0.1 0:0 1:0.319444 2:1 
0.1 0:0 1:0.622396 2:4 
0.1 0:0 1:0.585385 2:4 
0.1 0:0 1:0.424362 2:8 
0.1 0:0 1:1.02439 2:2 
0.1 0:0 1:0.448625 2:6 
0.1 0:0.00635209 1:0.516886 2:7 
0.1 0:0.00846317 1:0.540661 2:8 
0.1 0:0 1:0.574534 2:6 
0.1 0:0 1:0.588065 2:8 
0.1 0:0 1:0.774415 2:4 
0.1 0:0.0786903 1:0.812487 2:6 
0.1 0:0 1:0.30665 2:6 
0.1 0:0 1:0.52381 2:6 
0.1 0:0 1:0.665369 2:4 
0.1 0:0 1:0.822794 2:6 
0.1 0:0 1:0.51578 2:6 
0.1 0:0 1:0.677419 2:4 
0.1 0:0 1:0.641256 2:2 
0.1 0:0 1:0.588398 2:4 
0.1 0:0 1:1.04747 2:6 
0.1 0:0 1:0.827751 2:6 
0.1 0:0 1:1.07558 2:10 
0.1 0:0 1:0.738491 2:4 
0.1 0:0 1:0.575846 2:4 
0.1 0:1.61282 1:0.385779 2:0 
0.1 0:0 1:0.709932 2:4 
0.1 0:0 1:0.451321 2:6 
0.1 0:0 1:1.05051 2:6 
0.1 0:0.973146 1:0.514023 2:0 
0.1 0:0 1:0.807792 2:4 
0.1 0:0 1:0.71555 2:2 
0.1 0:0 1:0.727915 2:8 
0.1 0:0 1:0.666322 2:2 
0.1 0:0.00345224 1:0.976953 2:6 
0.1 0:0 1:1.0289 2:0 
0.1 0:0 1:0.407516 2:6 
0.1 0:0 1:0.790073 2:2 
0.1 0:0 1:0.697017 2:4 
0.002600571671763412 0:0 1:0.445926 2:2 
0.1 0:0.0440735 1:0.885571 2:4 
0.1 0:0 1:0.719605 2:4 
0.1 0:0 1:0.702987 2:2 
0.1 0:0.957317 1:0.548495 2:0 
0.1 0:0 1:0.663723 2:4 
0.1 0:0.106618 1:0.933105 2:0 
0.1 0:0.308179 1:0.780156 2:0 
0.1 0:0 1:0.579934 2:4 
0.1 0:0 1:0.651526 2:4 
0.1 0:0 1:0.509554 2:2 
0.1 0:0 1:0.596133 2:4 
0.1 0:0 1:0.40997 2:6 
0.1 0:0 1:0.726898 2:4 
0.1 0:0 1:0.792663 2:4 
0.1 0:0 1:0.69421 2:4 
0.1 0:0 1:0.981395 2:2 
0.1 0:0 1:0.649351 2:8 
0.1 0:0 1:0.498896 2:8 
0.1 0:0 1:0.664683 2:4 
0.1 0:0 1:0.657289 2:2 
0.1 0:0 1:0.633714 2:2 
0.1 0:0 1:0.774864 2:4 
0.1 0:0 1:0.571429 2:4 
0.1 0:0 1:0.778182 2:10 
0.1 0:0 1:0.617778 2:2 
0.1 0:1.71533 1:0.370843 2:0 
0.1 0:0.668394 1:0.62969 2:0 
0.1 0:0 1:0.662688 2:4 
0.1 0:0 1:0.675288 2:4 
0.1 0:0 1:0.609158 2:6 
0.1 0:0.0026601 1:0.733143 2:4 
0.1 0:0.254545 1:0.815881 2:0 
0.1 0:0 1:0.598662 2:4 
0.1 0:0 1:0.570281 2:8 
0.1 0:0 1:0.540084 2:9 
0.1 0:0 1:0.730343 2:4 
0.1 0:0 1:0.628644 2:4 
0.1 0:0 1:0.557368 2:8 
0.1 0:0 1:0.600177 2:2 
0.1 0:0 1:0.571809 2:4 
0.1 0:0 1:0.619048 2:10 
0.1 0:0 1:0.358025 2:6 
0.1 0:0.0972851 1:0.777192 2:6 
0.1 0:0 1:0.733116 2:4 
0.1 0:0 1:0.583878 2:10 
0.1 0:0 1:1.13712 2:2 
0.1 0:0 1:0.722554 2:4 
0.1 0:0 1:0.669158 2:4 
0.1 0:0 1:0.625171 2:4 
0.1 0:0.247233 1:0.802129 2:0 
0.1 0:0 1:0.65564 2:4 
0.1 0:0 1:0.619008 2:2 
0.1 0:0 1:0.610645 2:8 
0.1 0:0.228457 1:0.855918 2:0 
0.1 0:0 1:0.630081 2:4 
0.1 0:0 1:0.544733 2:6 
0.1 0:0 1:0.686639 2:5 
0.1 0:0 1:0.73306 2:4 
0.1 0:0.028128 1:0.837871 2:2 
0.1 0:0 1:0.30591 2:5 
0.1 0:0 1:1.11007 2:0 
0.1 0:0 1:0.679117 2:4 
0.1 0:0 1:0.600486 2:2 
0.1 0:0 1:0.835951 2:2 
0.1 0:0 1:0.697555 2:4 
0.1 0:0 1:0.848485 2:4 
0.1 0:0.422451 1:0.710719 2:0 
0.1 0:0 1:0.617508 2:2 
0.1 0:0 1:0.681928 2:2 
0.1 0:0 1:0.562882 2:2 
0.1 0:0 1:0.732369 2:2 
0.1 0:0.0163013 1:0.43507 2:10 
0.1 0:0 1:0.544199 2:6 
0.1 0:0 1:0.719771 2:4 
0.1 0:0 1:0.967949 2:7 
0.1 0:0 1:0.618526 2:6 
0.1 0:0 1:0.702109 2:4 
0.1 0:0 1:0.666667 2:4 
0.1 0:0 1:0.614157 2:7 
0.1 0:0 1:0.655467 2:2 
0.1 0:0.38835 1:0.463268 2:6 
0.1 0:0 1:0.734311 2:8 
0.1 0:0 1:1.2585 2:4 
0.1 0:0 1:0.70288 2:6 
0.1 0:0.384524 1:0.728244 2:0 
0.1 0:0 1:0.64278 2:6 
0.1 0:0 1:0.732646 2:4 
0.1 0:0.0808203 1:0.81089 2:4 
0.1 0:0 1:0.591743 2:2 
0.1 0:1.15807 1:0.468051 2:0 
0.1 0:0.355142 1:0.746321 2:0 
0.1 0:0 1:1.14478 2:0 
0.1 0:0 1:0.886214 2:6 
0.1 0:0 1:0.885821 2:4 
0.1 0:0 1:0.602087 2:6 
0.1 0:0 1:0.9511 2:10 
0.1 0:0 1:0.58011 2:2 
0.1 0:0 1:0.574656 2:4 
0.1 0:0 1:0.729483 2:4 
0.1 0:0.239553 1:0.821567 2:0 
0.1 0:0 1:1.00964 2:0 
0.1 0:0.0550756 1:0.821286 2:4 
0.1 0:0 1:0.754185 2:2 
0.1 0:0 1:0.625603 2:6 
0.1 0:0.13278 1:0.755486 2:6 
0.1 0:0.735725 1:0.592368 2:0 
0.1 0:0 1:1.01085 2:0 
0.1 0:0.0496278 1:0.876087 2:2 
0.1 0:0 1:0.639246 2:2 
0.1 0:0 1:0.368208 2:8 
0.1 0:0 1:0.574225 2:4 
0.1 0:0 1:0.726334 2:8 
0.1 0:0 1:0.668256 2:8 
0.1 0:0 1:0.569318 2:6 
0.1 0:0 1:0.65233 2:6 
0.1 0:0.763089 1:0.580547 2:0 
0.1 0:0 1:0.626016 2:4 
0.1 0:0.643175 1:0.622345 2:0 
0.1 0:0 1:0.52532 2:2 
0.1 0:0 1:0.773523 2:4 
0.1 0:0 1:0.672549 2:4 
0.1 0:0 1:0.797771 2:2 
0.1 0:0 1:0.682119 2:4 
0.1 0:0 1:0.554692 2:6 
0.1 0:0.291896 1:0.785879 2:0 
0.1 0:0.23399 1:0.537748 2:6 
0.1 0:0 1:0.571839 2:2 
0.1 0:0.00368633 1:0.552593 2:6 
0.1 0:0 1:0.803755 2:4 
0.1 0:0 1:0.660415 2:4 
0.1 0:0 1:0.70407 2:4 
0.1 0:0 1:0.584088 2:2 
0.1 0:0 1:0.492331 2:7 
0.1 0:0 1:0.317494 2:6 
0.1 0:0 1:0.829365 2:10 
0.1 0:0.159734 1:0.619375 2:5 
0.1 0:0 1:0.66474 2:4 
0.1 0:0 1:0.787594 2:2 
0.1 0:0 1:0.64323 2:4 
0.1 0:0 1:0.836787 2:4 
0.1 0:0 1:0.485714 2:6 
0.1 0:0 1:0.630915 2:4 
0.1 0:0 1:0.536207 2:6 
0.1 0:0 1:0.573921 2:4 
0.1 0:0 1:0.752396 2:4 
0.1 0:0 1:0.479964 2:7 
0.1 0:0 1:0.296063 2:8 
0.1 0:0 1:0.534532 2:6 
0.1 0:0.053407 1:0.855567 2:2 
0.1 0:0 1:0.509927 2:2 
0.1 0:0 1:0.582306 2:4 
0.1 0:0 1:0.77266 2:4 
0.1 0:0 1:0.610165 2:2 
0.1 0:0 1:0.571839 2:2 
0.1 0:0 1:0.582947 2:4 
0.06726481950829168 0:0 1:0.241352 2:2 
0.1 0:0 1:1.09091 2:0 
0.1 0:0 1:0.583116 2:2 
0.1 0:0 1:0.596806 2:4 
0.1 0:0 1:1.00867 2:0 
0.1 0:0 1:0.612616 2:4 
0.1 0:0 1:0.846154 2:4 
0.1 0:0.118064 1:0.806528 2:8 
0.1 0:0 1:0.497311 2:6 
0.1 0:0 1:0.3539 2:5 
0.1 0:0 1:0.891304 2:6 
0.1 0:0 1:0.740869 2:7 
0.1 0:0 1:0.592593 2:10 
0.1 0:0 1:0.616438 2:8 
0.1 0:0.932045 1:0.522817 2:0 
0.1 0:0 1:0.662831 2:6 
0.1 0:0 1:0.771295 2:2 
0.1 0:0.00408163 1:0.641361 2:6 
0.1 0:0.243052 1:0.768952 2:14 
0.1 0:0 1:0.568302 2:4 
0.1 0:0 1:1.06291 2:0 
0.1 0:0 1:0.78125 2:6 
0.1 0:0 1:0.958716 2:6 
0.1 0:0 1:0.590746 2:2 
0.1 0:0 1:0.638947 2:4 
0.1 0:0 1:0.329336 2:6 
0.1 0:0 1:0.440808 2:6 
0.1 0:0 1:0.465819 2:6 
0.1 0:0.0409357 1:0.85607 2:4 
0.1 0:0 1:0.395623 2:8 
0.1 0:0 1:0.584955 2:4 
0.1 0:0 1:0.906863 2:6 
0.1 0:0 1:0.782977 2:7 
0.1 0:0 1:0.677165 2:8 
0.1 0:0 1:0.501377 2:2 
0.1 0:1.13894 1:0.478241 2:0 
0.1 0:0 1:0.586894 2:7 
0.1 0:0 1:0.475102 2:6 
0.1 0:0 1:0.34587 2:8 
0.1 0:0 1:0.416825 2:8 
0.1 0:0 1:0.514979 2:2 
0.1 0:0 1:0.371356 2:8 
0.1 0:0.213768 1:0.64903 2:6 
0.1 0:0 1:0.45985 2:2 
0.1 0:0 1:0.507042 2:6 
0.1 0:0 1:0.466949 2:8 
0.1 0:0 1:0.648736 2:4 
0.1 0:0 1:0.449096 2:6 
0.1 0:0 1:0.318915 2:6 
0.1 0:0 1:0.425314 2:8 
0.1 0:0.690729 1:0.45274 2:1 
0.1 0:0 1:1.14545 2:0 
0.1 0:0 1:0.307735 2:8 
0.1 0:0 1:0.495096 2:7 
0.1 0:0 1:0.49596 2:6 
0.1 0:0.370732 1:0.561644 2:6 
0.1 0:0 1:0.528369 2:2 
0.1 0:0 1:0.406712 2:10 
0.1 0:0 1:0.447146 2:6 
0.1 0:0 1:0.354888 2:6 
0.1 0:0.344967 1:0.417089 2:6 
0.1 0:0 1:0.511615 2:8 
0.1 0:0 1:0.433245 2:12 
0.1 0:1.30526 1:0.440294 2:0 
0.1 0:0 1:0.496689 2:8 
0.1 0:0 1:0.343371 2:8 
0.1 0:0 1:0.5 2:6 
0.1 0:0.700238 1:0.44921 2:8 
0.1 0:0.632952 1:0.493005 2:5 
0.1 0:0 1:0.487047 2:2 
0.1 0:0 1:0.375232 2:8 
0.1 0:0.871345 1:0.552951 2:0 
0.1 0:0 1:0.603394 2:8 
0.1 0:0 1:0.509804 2:6 
0.1 0:0.350303 1:0.526148 2:6 
0.1 0:1.55699 1:0.394635 2:0 
0.1 0:0 1:0.718511 2:2 
0.1 0:0 1:0.33111 2:6 
0.1 0:0 1:0.471591 2:2 
0.1 0:0 1:0.460216 2:2 
0.1 0:0 1:0.351471 2:8 
0.1 0:0 1:0.309033 2:6 
0.1 0:0 1:0.453472 2:10 
0.1 0:0 1:0.449814 2:8 
0.1 0:0 1:0.554636 2:6 
0.1 0:0.845002 1:0.54948 2:0 
0.1 0:0 1:1.12466 2:0 
0.1 0:1.07494 1:0.491778 2:0 
0.1 0:0 1:0.60069 2:2 
0.1 0:0 1:0.418661 2:6 
0.1 0:1.01828 1:0.505722 2:0 
0.1 0:0.28841 1:0.447527 2:5 
0.1 0:0 1:0.343041 2:10 
0.1 0:0 1:0.364511 2:6 
0.1 0:0 1:0.455202 2:6 
0.1 0:0 1:0.669537 2:4 
0.1 0:0.637213 1:0.444822 2:6 
0.1 0:0 1:0.577181 2:4 
0.1 0:0 1:1.11279 2:0 
0.1 0:0 1:0.341404 2:8 
0.1 0:0 1:0.403106 2:6 
0.1 0:0 1:0.286498 2:8 
0.1 0:0 1:1.04251 2:0 
0.1 0:0.871345 1:0.552951 2:0 
0.1 0:0.553374 1:0.499591 2:8 
0.1 0:0 1:0.402748 2:6 
0.1 0:1.0836 1:0.481934 2:0 
0.1 0:0 1:0.508649 2:2 
0.1 0:0 1:0.363955 2:6 
0.1 0:0 1:0.379382 2:7 
0.1 0:0 1:0.603613 2:7 
0.1 0:0 1:0.551515 2:7 
0.1 0:0 1:0.454808 2:2 
0.1 0:0 1:0.62645 2:8 
0.1 0:0.500362 1:0.49111 2:6 
0.1 0:0.534617 1:0.525511 2:5 
0.1 0:0 1:0.43167 2:8 
0.1 0:0 1:0.519761 2:6 
0.1 0:0.15625 1:0.68048 2:5 
0.1 0:0.00157398 1:0.602592 2:6 
0.1 0:0 1:0.454611 2:2 
0.1 0:0 1:0.569347 2:4 
0.1 0:0.277169 1:0.60315 2:5 
0.1 0:0 1:0.480666 2:6 
0.1 0:0 1:0.544444 2:2 
0.1 0:0.669533 1:0.608371 2:0 
0.1 0:0 1:1.01435 2:0 
0.1 0:0 1:0.44997 2:2 
0.1 0:0 1:0.565844 2:4 
0.1 0:0 1:0.626744 2:8 
0.1 0:0 1:0.681644 2:4 
0.1 0:0 1:0.500784 2:8 
0.1 0:0 1:0.554636 2:6 
0.1 0:0.902075 1:0.528741 2:0 
0.1 0:0 1:0.688162 2:4 
0.05171213040015529 0:0 1:0.565546 2:4 
0.1 0:0.498195 1:0.493937 2:6 
0.1 0:0 1:0.464523 2:7 
0.1 0:0 1:0.617666 2:4 
0.1 0:0.727563 1:0.584655 2:0 
0.1 0:0 1:0.468622 2:12 
0.1 0:0.000329707 1:0.541704 2:6 
0.1 0:0.553734 1:0.499242 2:1 
0.1 0:0 1:0.473328 2:7 
0.1 0:0 1:0.455939 2:7 
0.1 0:0.248016 1:0.600715 2:6 
0.1 0:0 1:0.519288 2:5 
0.1 0:0 1:0.498548 2:2 
0.1 0:1.34727 1:0.425857 2:0 
0.1 0:0 1:0.54629 2:2 
0.1 0:0 1:0.573048 2:2 
0.1 0:0.939532 1:0.517079 2:0 
0.1 0:0.902905 1:0.530603 2:0 
0.1 0:0 1:0.379619 2:9 
0.1 0:0 1:0.463902 2:8 
0.1 0:0.00126582 1:0.331098 2:7 
0.1 0:0 1:0.37982 2:7 
0.1 0:0.276793 1:0.60244 2:5 
0.1 0:0 1:0.516927 2:6 
0.1 0:0 1:1.02154 2:0 
0.1 0:0.253521 1:0.591667 2:6 
0.1 0:0.00139082 1:0.68738 2:2 
0.1 0:0.156 1:0.684932 2:5 
0.1 0:0.275862 1:0.608807 2:5 
0.1 0:1.34874 1:0.426101 2:0 
0.1 0:0.00155925 1:0.596774 2:6 
0.1 0:0 1:1.01349 2:0 
0.1 0:0 1:0.553021 2:6 
0.1 0:0 1:0.466638 2:11 
0.1 0:0 1:0.523359 2:2 
0.1 0:0 1:0.565988 2:4 
0.1 0:0 1:0.528369 2:2 
0.1 0:0.553418 1:0.499285 2:8 
0.1 0:0 1:0.523256 2:5 
0.1 0:0.00030175 1:0.373198 2:7 
0.1 0:0 1:0.56643 2:4 
0.1 0:0 1:0.356394 2:8 
0.1 0:0 1:0.522876 2:2 
0.1 0:0 1:0.389002 2:6 
0.1 0:0.214614 1:0.491099 2:6 
0.1 0:0 1:0.380496 2:8 
0.1 0:0 1:0.401977 2:6 
0.1 0:0 1:0.401836 2:6 
0.1 0:0.000896057 1:0.510055 2:6 
0.1 0:0 1:0.657765 2:4 
0.1 0:0 1:0.466432 2:12 
0.1 0:0 1:0.34735 2:6 
0.1 0:1.35052 1:0.426743 2:0 
0.1 0:0.000793021 1:0.464628 2:8 
0.1 0:0 1:1.0125 2:0 
0.1 0:0 1:0.623991 2:8 
0.1 0:0 1:0.500895 2:9 
0.1 0:0 1:0.655002 2:4 
0.1 0:0 1:0.452295 2:2 
0.1 0:0 1:0.347064 2:5 
0.1 0:0.66299 1:0.608955 2:0 
0.1 0:0 1:0.408308 2:8 
0.1 0:0.000911577 1:0.552089 2:7 
0.1 0:0.548699 1:0.499547 2:1 
0.1 0:0 1:0.621771 2:4 
0.1 0:0 1:0.618788 2:4 
0.1 0:0 1:0.382591 2:5 
0.1 0:0.55857 1:0.497139 2:8 
0.1 0:0 1:1.01543 2:0 
0.1 0:0 1:0.568069 2:2 
0.1 0:0.00247525 1:0.435345 2:8 
0.1 0:0 1:0.604635 2:7 
0.1 0:0.278296 1:0.45635 2:6 
0.1 0:0.214614 1:0.488614 2:5 
0.1 0:0.27393 1:0.457887 2:6 
0.1 0:0 1:0.573585 2:4 
0.1 0:0 1:0.456567 2:6 
0.1 0:0.531863 1:0.535082 2:6 
0.1 0:0 1:0.427672 2:6 
0.1 0:0 1:0.366656 2:6 
0.1 0:0.000294811 1:0.426184 2:5 
0.1 0:0 1:0.379446 2:8 
0.1 0:0 1:0.567045 2:4 
0.1 0:0 1:0.56993 2:4 
0.1 0:0.729525 1:0.580473 2:0 
0.1 0:0 1:0.456338 2:8 
0.1 0:0.000634518 1:0.329638 2:8 
0.1 0:0 1:0.497327 2:2 
0.1 0:0 1:0.651543 2:4 
0.1 0:0 1:0.517609 2:6 
0.1 0:0 1:0.626087 2:8 
0.1 0:0 1:0.404266 2:8 
0.1 0:0 1:0.624637 2:2 
0.1 0:0 1:0.422703 2:7 
0.1 0:0 1:1.01544 2:0 
0.1 0:0 1:0.35314 2:8 
0.1 0:0 1:0.5734 2:2 
0.1 0:0 1:0.377787 2:7 
0.1 0:1.0916 1:0.479096 2:0 
0.1 0:0.000295247 1:0.424755 2:5 
0.1 0:0.279111 1:0.451807 2:6 
0.1 0:0 1:0.379619 2:10 
0.1 0:0 1:0.543364 2:2 
0.1 0:0 1:0.518623 2:5 
0.1 0:1.34852 1:0.425744 2:0 
0.1 0:0.000902527 1:0.510129 2:6 
0.1 0:0.469136 1:0.569849 2:6 
0.1 0:0.460595 1:0.572718 2:6 
0.1 0:0.000893655 1:0.501456 2:6 
0.1 0:0.825038 1:0.55181 2:0 
0.1 0:0 1:0.598442 2:6 
0.1 0:0 1:0.346652 2:5 
0.1 0:0 1:0.542539 2:2 
0.1 0:0.000662032 1:0.540526 2:6 
0.1 0:0 1:0.493194 2:8 
0.1 0:0 1:0.402591 2:6 
0.1 0:0 1:0.39914 2:6 
0.1 0:0 1:0.427958 2:8 
0.1 0:0 1:0.363429 2:6 
0.1 0:0 1:1.02921 2:0 
0.1 0:0 1:0.517279 2:2 
0.1 0:0.82468 1:0.550767 2:0 
0.1 0:0 1:0.379692 2:7 
0.1 0:0 1:0.549007 2:5 
0.1 0:0.00271003 1:0.576563 2:2 
0.1 0:0 1:0.47931 2:6 
0.1 0:0 1:0.607339 2:7 
0.1 0:0 1:0.615278 2:7 
0.1 0:0 1:0.450513 2:2 
0.1 0:0.553799 1:0.499241 2:1 
0.1 0:0 1:0.516567 2:2 
0.1 0:0 1:0.511615 2:8 
0.1 0:0 1:0.355387 2:7 
0.1 0:1.08599 1:0.481761 2:0 
0.1 0:0 1:0.468284 2:12 
0.1 0:0 1:0.374085 2:7 
0.1 0:0 1:0.395316 2:6 
0.1 0:0 1:0.506325 2:2 
0.1 0:0.00033557 1:0.381611 2:9 
0.1 0:0 1:0.431938 2:7 
0.1 0:0 1:0.523214 2:2 
0.1 0:0.728834 1:0.580167 2:0 
0.1 0:0 1:0.551205 2:8 
0.1 0:0 1:0.621431 2:2 
0.1 0:0 1:0.435926 2:7 
0.1 0:1.08929 1:0.48125 2:0 
0.1 0:0 1:0.379257 2:8 
0.1 0:0 1:0.715661 2:2 
0.1 0:0 1:0.489472 2:8 
0.1 0:0.000340832 1:0.493441 2:6 
0.1 0:0.000261917 1:0.446497 2:8 
0.1 0:0 1:0.678368 2:2 
0.1 0:0 1:0.617083 2:2 
0.1 0:0 1:0.509434 2:2 
0.1 0:0.557014 1:0.498059 2:8 
0.1 0:0 1:1.01768 2:0 
0.1 0:0 1:0.575472 2:2 
0.1 0:0 1:0.565871 2:4 
0.1 0:0.156375 1:0.681049 2:5 
0.1 0:0 1:0.455202 2:2 
0.1 0:0 1:0.503156 2:2 
0.1 0:0 1:0.363996 2:6 
0.1 0:0 1:0.565566 2:8 
0.1 0:0 1:0.511032 2:2 
0.1 0:0 1:0.487885 2:7 
0.1 0:0 1:0.37984 2:6 
0.1 0:0 1:0.45601 2:7 
0.1 0:0.892562 1:0.531634 2:0 
0.1 0:0 1:0.448328 2:2 
0.1 0:0 1:0.528 2:6 
0.1 0:0 1:0.343041 2:10 
0.1 0:0 1:0.445235 2:6 
0.1 0:0 1:0.65243 2:4 
0.1 0:0.278863 1:0.451393 2:6 
0.1 0:0 1:0.651322 2:4 
0.1 0:0 1:0.378739 2:8 
0.1 0:0 1:0.502317 2:8 
0.1 0:0 1:0.50599 2:2 
0.1 0:0 1:0.405739 2:8 
0.1 0:0.000294464 1:0.425564 2:6 
0.1 0:0.501813 1:0.4925 2:6 
0.1 0:0 1:0.343371 2:7 
0.1 0:0.819955 1:0.550372 2:0 
0.1 0:0.000992392 1:0.540014 2:6 
0.1 0:0 1:0.509669 2:6 
0.1 0:0 1:0.447008 2:9 
0.1 0:0.000525762 1:0.445277 2:6 
0.1 0:0 1:0.615532 2:4 
0.1 0:0.00112108 1:0.427613 2:8 
0.1 0:0.940868 1:0.517379 2:0 
0.1 0:0 1:0.480409 2:6 
0.1 0:0 1:0.522031 2:6 
0.1 0:0 1:0.498438 2:2 
0.1 0:0 1:0.410061 2:8 
0.1 0:0.253776 1:0.595681 2:6 
0.1 0:0 1:0.710208 2:2 
0.1 0:0 1:0.51634 2:6 
0.1 0:0 1:0.523979 2:2 
0.1 0:0 1:0.573538 2:4 
0.1 0:0 1:0.565392 2:8 
0.1 0:0.496756 1:0.494298 2:6 
0.1 0:0.00198347 1:0.542504 2:6 
0.1 0:0.250752 1:0.595579 2:6 
0.1 0:0.212156 1:0.498428 2:5 
0.1 0:0 1:0.499776 2:2 
0.1 0:0 1:0.391003 2:5 
0.1 0:0.00111111 1:0.427757 2:8 
0.1 0:0 1:0.615287 2:4 
0.1 0:0.660147 1:0.607727 2:0 
0.1 0:0 1:0.400504 2:6 
0.1 0:0.941938 1:0.516625 2:0 
0.1 0:0 1:0.485807 2:8 
0.1 0:0 1:0.7146 2:2 
0.1 0:0 1:1.01544 2:0 
0.1 0:0 1:0.714348 2:2 
0.1 0:0 1:0.574627 2:2 
0.1 0:0.000340832 1:0.493856 2:8 
0.1 0:0 1:0.570862 2:4 
0.1 0:0.940189 1:0.517841 2:0 
0.1 0:0 1:0.518135 2:5 
0.1 0:0 1:0.519017 2:5 
0.1 0:0.818591 1:0.553527 2:0 
0.1 0:0.895782 1:0.536142 2:0 
0.1 0:0 1:1.02347 2:0 
0.1 0:0.000517331 1:0.620745 2:2 
0.1 0:0.152313 1:0.683751 2:5 
0.1 0:0.00109051 1:0.573483 2:6 
0.1 0:0 1:0.514993 2:6 
0.1 0:0 1:0.569231 2:2 
0.1 0:0.726475 1:0.582849 2:0 
0.1 0:0 1:0.493852 2:7 
0.1 0:0 1:0.523237 2:7 
0.1 0:0 1:0.356035 2:7 
0.1 0:0 1:0.502812 2:6 
0.1 0:0 1:0.480082 2:6 
0.1 0:0 1:0.550527 2:6 
0.1 0:0 1:0.382845 2:8 
0.1 0:0 1:0.346836 2:6 
0.1 0:0.262063 1:0.611083 2:6 
0.1 0:0.000633714 1:0.330748 2:7 
0.1 0:0 1:0.332145 2:8 
0.1 0:0 1:0.566918 2:5 
0.1 0:0 1:1.02162 2:0 
0.1 0:0 1:0.400471 2:6 
0.1 0:0.307825 1:0.750444 2:0 
0.1 0:0.491228 1:0.684685 2:0 
0.1 0:0 1:0.715474 2:6 
0.1 0:0 1:0.75 2:4 
0.1 0:0 1:0.673295 2:10 
0.1 0:0.0656806 1:0.797322 2:4 
0.1 0:0 1:0.821523 2:2 
0.1 0:0.0119048 1:0.382688 2:7 
0.1 0:0.408567 1:0.713909 2:0 
0.1 0:0.55436 1:0.651661 2:0 
0.1 0:0.0353789 1:0.82998 2:4 
0.1 0:0.688948 1:0.596173 2:0 
0.1 0:0 1:0.681604 2:2 
0.1 0:0 1:0.768701 2:4 
0.1 0:0 1:0.476351 2:8 
0.1 0:0 1:0.747143 2:2 
0.1 0:0.125 1:0.67027 2:6 
0.1 0:0 1:0.47541 2:6 
0.1 0:1.31538 1:0.464286 2:0 
0.1 0:0 1:0.475165 2:6 
0.1 0:1.21283 1:0.463514 2:0 
0.1 0:0 1:0.731832 2:8 
0.1 0:0 1:0.594675 2:4 
0.1 0:0.003003 1:0.358065 2:9 
0.1 0:0 1:0.692996 2:10 
0.1 0:0 1:0.529412 2:2 
0.1 0:0 1:0.79065 2:2 
0.1 0:0.00483092 1:0.526718 2:5 
0.1 0:0.116035 1:0.782926 2:6 
0.1 0:0 1:0.779201 2:4 
0.1 0:0.491989 1:0.676509 2:0 
0.1 0:0 1:0.805351 2:2 
0.1 0:0 1:0.485623 2:6 
0.1 0:0.4 1:0.749354 2:0 
0.1 0:0 1:0.921659 2:4 
0.1 0:0 1:0.758333 2:4 
0.1 0:0.271951 1:0.548128 2:6 
0.1 0:0 1:0.484396 2:8 
0.1 0:0 1:0.629412 2:2 
0.1 0:0 1:0.597484 2:8 
0.1 0:0.0695444 1:0.849287 2:6 
0.1 0:0 1:0.722855 2:4 
0.1 0:0.0696379 1:0.838785 2:4 
0.1 0:0 1:0.553789 2:6 
0.1 0:0.27193 1:0.544153 2:5 
0.1 0:0 1:0.792969 2:2 
0.1 0:0 1:0.716117 2:8 
0.1 0:0.283203 1:0.502947 2:6 
0.1 0:0.0573951 1:0.777015 2:4 
0.1 0:0 1:0.39685 2:7 
0.1 0:0.717822 1:0.610272 2:0 
0.1 0:0 1:0.622927 2:4 
0.1 0:0 1:0.523739 2:2 
0.1 0:0.216867 1:0.506716 2:8 
0.1 0:0.00115075 1:0.591156 2:4 
0.1 0:0 1:0.71634 2:2 
0.1 0:0 1:0.586068 2:4 
0.1 0:0 1:0.596105 2:4 
0.1 0:0 1:0.709567 2:2 
0.1 0:0 1:0.809233 2:4 
0.1 0:0 1:0.665721 2:4 
0.1 0:0 1:0.654545 2:6 
0.1 0:0 1:0.700256 2:4 
0.1 0:0 1:0.89404 2:4 
0.1 0:0 1:0.840121 2:2 
0.1 0:0 1:0.748581 2:4 
0.1 0:0.907152 1:0.532043 2:0 
0.1 0:0 1:0.68593 2:4 
0.1 0:1.75243 1:0.364309 2:0 
0.1 0:0.22043 1:0.54386 2:6 
0.1 0:0.00234192 1:0.532419 2:8 
0.1 0:0.121531 1:0.788084 2:6 
0.1 0:0.254054 1:0.570108 2:8 
0.1 0:0 1:0.656092 2:6 
0.1 0:0 1:0.462185 2:2 
0.1 0:0.604733 1:0.628591 2:0 
0.1 0:0.338282 1:0.678906 2:6 
-0.1 0:0 1:0.906934 2:2 
-0.1 0:0.00169851 1:0.540634 2:6 
-0.1 0:0 1:1.00897 2:0 
-0.1 0:0 1:0.13338 2:0 
-0.1 0:0.0035503 1:0.504478 2:7 
-0.1 0:0 1:1.07798 2:0 
-0.1 0:0 1:0.114609 2:1 
-0.1 0:0.195403 1:0.332594 2:0 
-0.1 0:2.2539 1:0.308109 2:0 
-0.1 0:0 1:0.437729 2:2 
-0.1 0:0 1:0.399299 2:1 
-0.1 0:0.0201693 1:0.319595 2:10 
-0.1 0:0 1:0.313647 2:2 
-0.1 0:0 1:1.0283 2:0 
-0.1 0:0 1:1.00964 2:4 
-0.1 0:1.01135 1:0.449468 2:0 
-0.1 0:0 1:1.04096 2:0 
-0.004817799466478707 0:0 1:0.933544 2:35 
-0.1 0:0.0252525 1:1.02326 2:0 
-0.1 0:0.000412541 1:0.42661 2:0 
-0.1 0:0.0114735 1:0.326406 2:2 
-0.1 0:0 1:1.14019 2:2 
-0.1 0:0.0403071 1:1.00774 2:0 
-0.1 0:0.0607112 1:0.889317 2:2 
-0.1 0:0.00684135 1:0.987302 2:4 
-0.1 0:0.0787162 1:0.834914 2:0 
-0.1 0:0 1:1.01802 2:4 
-0.1 0:0.0285714 1:0.883838 2:4 
-0.1 0:0.0614964 1:0.576307 2:0 
-0.1 0:0 1:1.00154 2:0 
-0.1 0:0 1:1.07772 2:0 
-0.1 0:0.0283969 1:0.381837 2:0 
-0.1 0:0 1:0.868552 2:2 
-0.1 0:0.161788 1:0.878037 2:0 
-0.1 0:0 1:0.885362 2:0 
-0.1 0:0.0923077 1:0.767717 2:6 
-0.1 0:0.00203574 1:0.213957 2:2 
-0.1 0:0 1:1.08763 2:0 
-0.1 0:0 1:0.27551 2:10 
-0.1 0:0.0175423 1:0.925901 2:0 
-0.1 0:0 1:1.00794 2:4 
-0.1 0:0 1:0.58104 2:7 
-0.1 0:0 1:0.297688 2:7 
-0.1 0:0.213135 1:0.665842 2:5 
-0.1 0:0.245265 1:0.529712 2:3 
-0.1 0:0.0196344 1:0.891101 2:4 
-0.1 0:0.0365213 1:0.553681 2:0 
-0.1 0:0 1:1.10096 2:0 
-0.1 0:0 1:0.812571 2:2 
-0.1 0:0 1:1.11667 2:6 
-0.1 0:0 1:0.509027 2:2 
-0.1 0:0.0719581 1:0.924916 2:2 
-0.1 0:0.1575 1:0.590811 2:0 
-0.1 0:0.00162404 1:0.902528 2:2 
-0.1 0:0.0037037 1:0.735695 2:6 
-0.1 0:0.0393258 1:0.998131 2:2 
-0.1 0:0.0667965 1:0.206146 2:7 
-0.1 0:0.00630915 1:1.01603 2:4 
-0.1 0:0 1:1.0024 2:0 
-0.1 0:1.09186 1:0.480845 2:0 
-0.1 0:0 1:0.780873 2:6 
-0.1 0:0 1:1.07453 2:0 
-0.1 0:0 1:0.780764 2:2 
-0.1 0:0 1:0.471348 2:4 
-0.1 0:0 1:0.603215 2:2 
-0.1 0:0.0874486 1:0.624578 2:0 
-0.1 0:0.588377 1:0.6332 2:0 
-0.1 0:0.608768 1:0.623895 2:0 
-0.1 0:0 1:1.00697 2:0 
-0.1 0:0.33659 1:0.441982 2:0 
-0.1 0:0.0835391 1:0.605532 2:0 
-0.1 0:0.0220044 1:0.849863 2:0 
-0.1 0:0.00765378 1:0.338249 2:5 
-0.1 0:0 1:1.10593 2:6 
-0.1 0:2.39819 1:0.284366 2:6 
-0.1 0:0.179752 1:0.382609 2:4 
-0.1 0:0 1:1.06306 2:4 
-0.1 0:0.00419727 1:0.433971 2:1 
-0.1 0:0 1:0.184991 2:1 
-0.07982945539468056 0:0.00659576 1:0.792434 2:19 
-0.1 0:0 1:1.03165 2:0 
-0.1 0:0.0118343 1:0.931129 2:6 
-0.1 0:0.0193793 1:0.59678 2:4 
-0.1 0:0 1:0.94702 2:4 
-0.1 0:0.000564573 1:0.335178 2:2 
-0.1 0:0 1:0.956452 2:4 
-0.1 0:0 1:0.970149 2:2 
-0.1 0:0 1:1 2:2 
-0.1 0:0 1:0.955285 2:1 
-0.1 0:0 1:0.479426 2:2 
-0.1 0:0.183908 1:0.490888 2:0 
-0.1 0:0.0486931 1:0.427807 2:0 
-0.1 0:0 1:0.601295 2:4 
-0.1 0:0.0312815 1:0.573827 2:0 
-0.1 0:0 1:1.07729 2:0 
-0.1 0:0.00960512 1:0.753821 2:0 
-0.1 0:0.00361174 1:0.710391 2:6 
-0.1 0:0 1:1.03493 2:0 
-0.1 0:0.000221705 1:0.248485 2:7 
-0.1 0:0.17067 1:0.8117 2:4 
-0.1 0:0 1:0.453674 2:4 
-0.1 0:0 1:1.07229 2:0 
-0.1 0:0.0113065 1:0.386595 2:6 
-0.1 0:0 1:0.830065 2:6 
-0.1 0:0.407572 1:0.70086 2:4 
-0.002359970042573653 0:0 1:0.827229 2:122 
-0.1 0:0 1:1.02572 2:0 
-0.1 0:5.17565 1:0.153364 2:4 
-0.1 0:0.00928641 1:0.922869 2:6 
-0.1 0:0 1:1.0129 2:0 
-0.1 0:0 1:0.984127 2:2 
-0.002821325703541348 0:0.00389207 1:0.834834 2:58 
-0.1 0:0.000479754 1:0.333312 2:3 
-0.003255712734879704 0:0 1:0.78127 2:124 
-0.1 0:0 1:0.631838 2:4 
-0.1 0:0 1:1.04 2:4 
-0.1 0:0.574198 1:0.6068 2:4 
-0.1 0:0.00156881 1:0.948762 2:4 
-0.1 0:0 1:0.876 2:2 
-0.1 0:0.0823171 1:0.381395 2:7 
-0.1 0:0 1:1.05359 2:0 
-0.1 0:0 1:0.903525 2:0 
-0.1 0:0 1:0.221916 2:4 
-0.1 0:0 1:0.245779 2:2 
-0.1 0:0 1:0.998014 2:0 
-0.1 0:0.108946 1:0.821688 2:2 
-0.1 0:0 1:0.918033 2:0 
-0.1 0:0 1:1.04961 2:0 
-0.1 0:0 1:0.63142 2:4 
-0.1 0:0.0949153 1:0.410731 2:0 
-0.1 0:0.256548 1:0.711016 2:6 
-0.1 0:0 1:0.225655 2:5 
-0.1 0:0.003003 1:1.01216 2:2 
-0.1 0:0.00505732 1:0.535766 2:0 
-0.1 0:0.304045 1:0.586359 2:6 
-0.1 0:0 1:0.949622 2:4 
-0.1 0:0 1:0.850299 2:0 
-0.1 0:0 1:1.00763 2:0 
-0.1 0:0.041212 1:0.790354 2:0 
-0.1 0:0 1:0.697864 2:6 
-0.1 0:0 1:0.598131 2:5 
-0.005612022838934647 0:0 1:0.849579 2:132 
-0.1 0:0.159466 1:0.863183 2:0 
-0.1 0:0 1:1.03609 2:0 
-0.1 0:0 1:0.302835 2:4 
-0.1 0:0.011045 1:1.01817 2:0 
-0.1 0:0.115175 1:0.282752 2:5 
-0.1 0:0 1:1.02459 2:4 
-0.1 0:0.00170378 1:0.874441 2:4 
-0.1 0:0 1:1.06296 2:0 
-0.1 0:0.00301205 1:1.0122 2:1 
-0.1 0:0 1:0.727165 2:4 
-0.1 0:0 1:1.04332 2:0 
-0.1 0:0 1:0.718062 2:5 
-0.1 0:0.876062 1:0.42341 2:4 
-0.1 0:0.165289 1:0.85574 2:0 
-0.002528580829877055 0:0.0414087 1:0.833003 2:48 
-0.1 0:0.0311448 1:0.470123 2:0 
-0.1 0:0 1:0.977466 2:2 
-0.1 0:0 1:0.360637 2:6 
-0.1 0:0 1:0.267954 2:0 
-0.1 0:0 1:0.912698 2:6 
-0.1 0:0 1:0.99336 2:0 
-0.1 0:0.0138151 1:0.717226 2:4 
-0.1 0:0.0595356 1:0.916148 2:4 
-0.1 0:0.270769 1:0.411914 2:5 
-0.1 0:0.00410846 1:0.248723 2:3 
-0.1 0:0 1:0.278912 2:3 
-0.1 0:0 1:0.831081 2:6 
-0.1 0:0 1:0.562942 2:2 
-0.1 0:0.236703 1:0.777483 2:2 
-0.1 0:0.157796 1:0.776453 2:0 
-0.1 0:0.0191112 1:0.954086 2:4 
-0.1 0:0.245061 1:0.117024 2:10 
-0.1 0:0 1:0.974028 2:2 
-0.1 0:0.00402361 1:0.497067 2:4 
-0.1 0:0 1:1.03618 2:0 
-0.1 0:0 1:0.824324 2:6 
-0.1 0:0.0186014 1:0.584755 2:0 
-0.1 0:0 1:1.09294 2:0 
-0.1 0:0 1:0.25192 2:2 
-0.1 0:0.0249597 1:0.714067 2:0 
-0.1 0:0 1:0.330585 2:5 
-0.1 0:0.441323 1:0.66909 2:6 
-0.1 0:0.894954 1:0.526002 2:2 
-0.1 0:0 1:0.964789 2:2 
-0.1 0:0 1:1.00677 2:0 
-0.1 0:0.122353 1:0.528573 2:0 
-0.1 0:0 1:0.339777 2:7 
-0.1 0:0 1:0.433548 2:1 
-0.1 0:0.942245 1:0.50168 2:0 
-0.1 0:0.0121951 1:0.908867 2:2 
-0.001525204346306761 0:2.481 1:0.245996 2:23 
-0.1 0:0 1:1.00863 2:0 
-0.1 0:0.010707 1:0.276163 2:6 
-0.1 0:0 1:0.573529 2:4 
-0.1 0:0 1:0.769426 2:4 
-0.1 0:0 1:0.766979 2:4 
-0.1 0:0 1:1.08738 2:6 
-0.002148564411976391 0:0 1:0.83787 2:88 
-0.1 0:0.00245266 1:0.25015 2:4 
-0.1 0:0 1:0.582682 2:4 
-0.1 0:0 1:1.07485 2:0 
-0.1 0:0.0478399 1:0.393054 2:10 
-0.1 0:0.00186441 1:0.326021 2:1 
-0.1 0:0 1:0.18377 2:1 
-0.1 0:0.126364 1:0.879915 2:4 
-0.1 0:0 1:0.451902 2:2 
-0.1 0:0.0323036 1:0.624009 2:0 
-0.1 0:0 1:1.01823 2:0 
-0.1 0:0.00141459 1:0.0866952 2:2 
-0.1 0:0 1:1.09266 2:2 
-0.1 0:0 1:1.02274 2:0 
-0.1 0:0.0505407 1:0.505302 2:2 
-0.1 0:0 1:1 2:0 
-0.1 0:0.0311111 1:0.558313 2:7 
-0.1 0:0 1:1.12371 2:2 
-0.02917352970003949 0:0.0805849 1:0.778208 2:19 
-0.1 0:0.153616 1:0.376124 2:6 
-0.1 0:0 1:0.545676 2:5 
-0.1 0:0.0271186 1:0.831838 2:6 
-0.1 0:0 1:1.15741 2:2 
-0.1 0:0.0303979 1:0.782164 2:6 
-0.003863190721898676 0:0 1:0.854312 2:84 
-0.1 0:0.0296679 1:0.619457 2:4 
-0.1 0:0 1:1.07547 2:4 
-0.1 0:0 1:1.0323 2:0 
-0.1 0:0 1:0.911306 2:4 
-0.1 0:0.293917 1:0.646888 2:0 
-0.1 0:0.00505902 1:0.572947 2:0 
-0.1 0:0 1:0.927385 2:4 
-0.1 0:0 1:1.02661 2:0 
-0.1 0:0 1:0.631821 2:5 
-0.1 0:0 1:1.0079 2:0 
-0.1 0:0 1:1.02157 2:4 
-0.1 0:0 1:0.856383 2:6 
-0.1 0:0 1:1.05804 2:0 
-0.1 0:0 1:1.00216 2:0 
-0.1 0:0.00973236 1:0.718531 2:0 
-0.1 0:0.000159757 1:0.823023 2:2 
-0.1 0:0.022584 1:0.708333 2:6 
-0.1 0:0.00368189 1:0.631041 2:0 
-0.1 0:0 1:0.888889 2:4 
-0.1 0:0.00350263 1:0.836018 2:6 
-0.1 0:0.000924462 1:0.923729 2:6 
-0.1 0:0 1:0.681682 2:6 
-0.1 0:0 1:0.194149 2:2 
-0.1 0:0.115576 1:0.488664 2:6 
-0.1 0:0.0362694 1:0.893059 2:6 
-0.1 0:0 1:0.364381 2:1 
-0.1 0:0.00305177 1:0.641026 2:6 
-0.1 0:0.0203252 1:0.568786 2:0 
-0.1 0:0.0170828 1:1.01467 2:0 
-0.1 0:0.35377 1:0.722056 2:3 
-0.1 0:0 1:1.01629 2:2 
-0.1 0:0.00183038 1:0.973278 2:0 
-0.1 0:0 1:0.913043 2:6 
-0.1 0:0 1:1.00743 2:0 
-0.1 0:0 1:0.444828 2:7 
-0.1 0:0 1:1.0208 2:0 
-0.1 0:0 1:0.144344 2:1 
-0.1 0:1.56684 1:0.383538 2:0 
-0.1 0:0.025224 1:0.640141 2:7 
-0.1 0:0.195212 1:0.684542 2:0 
-0.1 0:0.0012205 1:0.916651 2:2 
-0.002168924127127185 0:0 1:1.03789 2:26 
-0.1 0:0.00623936 1:1.01908 2:0 
-0.1 0:0 1:0.872093 2:1 
-0.1 0:0 1:1.01938 2:0 
-0.1 0:0 1:0.806818 2:2 
-0.003815727886455004 0:0 1:0.825048 2:100 
-0.1 0:0 1:1.02699 2:0 
-0.1 0:0 1:0.826772 2:2 
-0.1 0:0 1:0.986207 2:3 
-0.1 0:0.00673401 1:0.266129 2:5 
-0.1 0:0 1:1.03753 2:0 
-0.1 0:0.00486564 1:0.568778 2:3 
-0.1 0:0.00148739 1:0.981833 2:6 
-0.1 0:0 1:0.890995 2:2 
-0.1 0:0 1:1.1028 2:3 
-0.1 0:0 1:0.812102 2:5 
-0.1 0:0.00224042 1:0.970652 2:2 
-0.1 0:0.136905 1:0.635401 2:6 
-0.1 0:0 1:1.00854 2:2 
-0.1 0:0 1:0.999578 2:0 
-0.1 0:0.0321011 1:0.521271 2:0 
-0.1 0:0 1:1.40698 2:4 
-0.1 0:0.000762195 1:0.578568 2:5 
-0.1 0:0 1:0.442308 2:7 
-0.1 0:0 1:0.829457 2:2 
-0.1 0:0 1:0.564252 2:6 
-0.1 0:0 1:1.00302 2:4 
-0.1 0:0 1:1.03877 2:0 
-0.1 0:0 1:0.92644 2:6 
-0.1 0:0.462555 1:0.727564 2:0 
-0.1 0:0 1:1.11881 2:2 
-0.1 0:0 1:0.936306 2:2 
-0.1 0:0 1:0.903537 2:4 
-0.1 0:0 1:1.00019 2:0 
-0.1 0:0 1:0.708529 2:5 
-0.1 0:0 1:0.436055 2:0 
-0.1 0:0 1:0.891587 2:4 
-0.1 0:0 1:0.640698 2:4 
-0.1 0:0.067557 1:0.745098 2:6 
-0.005774404572276494 0:0 1:0.81677 2:114 
-0.1 0:0 1:0.856404 2:2 
-0.1 0:0 1:0.20829 2:2 
-0.1 0:0 1:0.906015 2:4 
-0.1 0:0 1:1.03297 2:2 
-0.1 0:0.00567576 1:0.384457 2:10 
-0.1 0:0 1:0.79927 2:4 
-0.1 0:0 1:0.995074 2:6 
-0.1 0:0 1:1.04098 2:2 
-0.1 0:0 1:1.03721 2:2 
-0.1 0:0.169879 1:0.542031 2:0 
-0.1 0:0 1:1.03365 2:0 
-0.1 0:0.000312965 1:0.302475 2:6 
-0.1 0:0.0194454 1:0.179457 2:4 
-0.1 0:0 1:0.310132 2:7 
-0.1 0:0 1:1.03468 2:0 
-0.1 0:0 1:1.035 2:0 
-0.1 0:0.0400626 1:0.514369 2:0 
-0.1 0:0 1:1.00619 2:0 
-0.1 0:0 1:1.11458 2:0 
-0.1 0:0.0224551 1:0.423053 2:5 
-0.005386997552399874 0:0.0528169 1:0.879257 2:25 
-0.1 0:0 1:1.07111 2:0 
-0.1 0:0.415323 1:0.744745 2:0 
-0.1 0:0 1:0.594947 2:4 
-0.1 0:0 1:0.954508 2:0 
-0.1 0:0 1:1.04272 2:2 
-0.1 0:0 1:0.206597 2:2 
-0.1 0:0 1:0.607345 2:6 
-0.1 0:0.00290229 1:0.98947 2:2 
-0.1 0:0.177533 1:0.579426 2:7 
-0.1 0:0 1:1.11465 2:0 
-0.1 0:0 1:0.531599 2:6 
-0.1 0:0.0557834 1:0.423229 2:0 
-0.003821761191255851 0:0.0686941 1:0.520756 2:62 
-0.1 0:0 1:0.938838 2:0 
-0.1 0:0 1:0.934259 2:6 
-0.1 0:0 1:1.10194 2:0 
-0.1 0:0 1:1.03626 2:4 
-0.1 0:0 1:0.815504 2:2 
-0.1 0:0 1:0.907407 2:6 
-0.1 0:0 1:0.62707 2:5 
-0.1 0:0 1:0.765092 2:3 
-0.1 0:0.00111562 1:0.672395 2:3 
-0.1 0:0.0380294 1:0.753121 2:32 
-0.1 0:0.443503 1:0.626745 2:6 
-0.1 0:0 1:1.00887 2:0 
-0.1 0:0 1:0.656122 2:2 
-0.1 0:0 1:1.00651 2:6 
-0.1 0:0 1:0.278384 2:0 
-0.1 0:0 1:0.928985 2:3 
-0.004934631263720315 0:0.0361851 1:0.485761 2:93 
-0.1 0:0.0204168 1:0.983325 2:0 
-0.1 0:0 1:1.04023 2:0 
-0.1 0:0.0307102 1:1.01165 2:0 
-0.1 0:0.0113636 1:0.51302 2:2 
-0.1 0:0 1:0.694737 2:6 
-0.1 0:0 1:1.02344 2:2 
-0.1 0:0 1:0.216203 2:1 
-0.1 0:0 1:1.10762 2:0 
-0.1 0:0.00712483 1:0.139358 2:0 
-0.1 0:3.58431 1:0.0498721 2:1 
-0.1 0:0 1:0.652889 2:5 
-0.1 0:0 1:0.271445 2:11 
-0.1 0:0.243195 1:0.158565 2:0 
-0.1 0:0 1:1.00839 2:4 
-0.1 0:0 1:1.02981 2:2 
-0.1 0:0 1:1.07732 2:0 
-0.004526501496264716 0:0.240735 1:0.546885 2:53 
-0.1 0:0 1:0.697417 2:0 
-0.1 0:0 1:0.964029 2:4 
-0.1 0:0 1:0.29354 2:4 
-0.001777732317100759 0:0.0250284 1:0.884602 2:19 
-0.1 0:0.0369783 1:0.775787 2:0 
-0.1 0:0 1:1.05584 2:0 
-0.1 0:0 1:0.982641 2:2 
-0.1 0:0 1:0.694649 2:4 
-0.1 0:0.118864 1:0.753957 2:0 
-0.1 0:0 1:0.525962 2:2 
-0.1 0:3.68308 1:0.191564 2:4 
-0.1 0:0.00159909 1:0.966229 2:6 
-0.1 0:0.135955 1:0.570967 2:1 
-0.1 0:0.000824629 1:0.60452 2:0 
-0.1 0:0.00974817 1:0.85784 2:6 
-0.1 0:0 1:0.276553 2:3 
-0.1 0:2.93255e-05 1:0.950655 2:4 
-0.1 0:0.00630537 1:0.587191 2:4 
-0.1 0:0.065294 1:0.722901 2:0 
-0.002856070846934014 0:0 1:0.804398 2:72 
-0.1 0:0 1:1.11268 2:0 
-0.1 0:0 1:0.0708222 2:2 
-0.1 0:0.0107848 1:0.498132 2:10 
-0.1 0:0 1:1.07767 2:0 
-0.1 0:0 1:1.44944 2:2 
-0.1 0:0.0594222 1:0.447612 2:0 
-0.1 0:0.300885 1:0.77931 2:0 
-0.1 0:0.0130088 1:0.961275 2:4 
-0.1 0:0 1:0.712098 2:2 
-0.1 0:0 1:0.698507 2:6 
-0.1 0:0 1:0.853481 2:6 
-0.1 0:0.0480769 1:0.506964 2:4 
-0.1 0:0.00423918 1:0.712673 2:6 
-0.1 0:0 1:0.419501 2:10 
-0.1 0:0 1:0.973333 2:6 
-0.1 0:0 1:1.01286 2:0 
-0.1 0:0 1:0.274629 2:2 
-0.1 0:0 1:1 2:2 
-0.1 0:8.00958 1:0.112227 2:0 
-0.1 0:0 1:1.00474 2:2 
-0.1 0:0.0934066 1:0.825397 2:2 
-0.1 0:0 1:0.181658 2:5 
-0.1 0:0 1:0.800149 2:6 
-0.1 0:0.00267112 1:0.994246 2:0 
-0.1 0:0 1:1.05317 2:0 
-0.1 0:0.125465 1:0.72118 2:0 
-0.1 0:0 1:0.856549 2:6 
-0.1 0:0.00244566 1:0.371758 2:6 
-0.1 0:0.00325499 1:0.759681 2:3 
-0.1 0:0.122001 1:0.440247 2:10 
-0.1 0:0 1:1.02104 2:0 
-0.1 0:0 1:1.00518 2:0 
-0.1 0:0.0220603 1:0.747391 2:0 
-0.1 0:0.00358102 1:0.495673 2:3 
-0.1 0:0 1:1.05556 2:0 
-0.1 0:0 1:1.08808 2:0 
-0.1 0:0 1:0.819444 2:5 
-0.1 0:0 1:1.06074 2:0 
-0.1 0:0 1:0.987337 2:0 
-0.1 0:0 1:1 2:2 
-0.1 0:0 1:1.03711 2:0 
-0.1 0:0 1:1.09091 2:2 
-0.1 0:0 1:0.827957 2:4 
-0.1 0:0.00208117 1:0.914367 2:6 
-0.1 0:0 1:0.987312 2:2 
-0.1 0:0 1:1.04922 2:0 
-0.1 0:0 1:1.06989 2:0 
-0.1 0:0 1:1.06318 2:0 
-0.1 0:0 1:0.641318 2:2 
-0.1 0:0.0103175 1:0.942408 2:4 
-0.1 0:0 1:0.329448 2:6 
-0.1 0:0.0999338 1:0.773682 2:4 
-0.1 0:0 1:1.11443 2:0 
-0.004493449573113325 0:0 1:0.805621 2:104 
-0.1 0:0.00566038 1:1.00952 2:3 
-0.1 0:0 1:0.576302 2:7 
-0.1 0:0.0132159 1:0.893701 2:5 
-0.1 0:0 1:0.935652 2:2 
-0.0007650568984458628 0:0.658305 1:0.377036 2:41 
-0.1 0:0 1:1.02725 2:0 
-0.1 0:0 1:1.0078 2:0 
-0.1 0:0.00739833 1:0.694223 2:5 
-0.1 0:0.0013471 1:0.982356 2:6 
-0.1 0:0.00161031 1:0.550239 2:2 
-0.1 0:0.0510638 1:0.531975 2:0 
-0.1 0:0.0385463 1:0.931282 2:4 
-0.1 0:0.00109534 1:0.9203 2:4 
-0.1 0:0 1:0.970696 2:0 
-0.1 0:0.0575472 1:0.409741 2:0 
-0.1 0:0 1:1.00935 2:6 
-0.1 0:0.16641 1:0.815327 2:2 
-0.1 0:0.519519 1:0.467133 2:0 
-0.1 0:0 1:1.10945 2:0 
-0.00415902148809465 0:0 1:0.895706 2:68 
-0.1 0:1.15835 1:0.465043 2:0 
-0.1 0:0.00020024 1:0.704074 2:2 
-0.1 0:0 1:1.05045 2:0 
-0.1 0:0.00080918 1:0.0954079 2:0 
-0.003214693147527775 0:0.0459402 1:0.579567 2:45 
-0.1 0:0.00030696 1:0.568865 2:4 
-0.1 0:0 1:0.998366 2:0 
-0.1 0:0 1:0.509728 2:10 
-0.0008674030402588112 0:0.000844951 1:0.720183 2:122 
-0.1 0:0 1:1.0904 2:0 
-0.1 0:0.516269 1:0.69012 2:0 
-0.1 0:0 1:1.05227 2:0 
-0.1 0:1.46597 1:0.400823 2:2 
-0.1 0:0.0112298 1:0.852401 2:6 
-0.09378862691751692 0:0 1:1.13542 2:0 
-0.1 0:0.242279 1:0.737827 2:4 
-0.1 0:0.00833333 1:0.972734 2:2 
-0.1 0:0 1:0.854839 2:6 
-0.1 0:0 1:1.01618 2:0 
-0.1 0:0 1:0.634751 2:4 
-0.1 0:0.000788955 1:0.866075 2:4 
-0.1 0:0 1:0.436392 2:3 
-0.1 0:0 1:0.921413 2:0 
-0.1 0:0 1:0.681197 2:6 
-0.00450595499271622 0:0.0259933 1:0.659403 2:78 
-0.1 0:0 1:0.509777 2:10 
-0.1 0:0 1:0.994112 2:0 
-0.1 0:0 1:1.08257 2:0 
-0.1 0:0 1:0.86194 2:4 
-0.1 0:0.00766232 1:0.387887 2:10 
-0.1 0:0 1:0.959353 2:4 
-0.1 0:0.188344 1:0.572154 2:0 
-0.1 0:0.0260655 1:0.581513 2:0 
-0.1 0:0 1:1.25263 2:6 
-0.1 0:0.0226492 1:0.69833 2:6 
-0.1 0:0 1:1.13333 2:0 
-0.1 0:0.023766 1:0.697704 2:6 
-0.1 0:0 1:1.11062 2:0 
-0.1 0:0.15155 1:0.820893 2:6 
-0.1 0:0 1:0.767742 2:4 
-0.1 0:0.132548 1:0.462212 2:0 
-0.1 0:0 1:1.2 2:4 
-0.1 0:0.00578778 1:0.825372 2:6 
-0.1 0:0 1:0.5 2:3 
-0.1 0:0 1:0.481894 2:3 
-0.1 0:0 1:0.239627 2:1 
-0.1 0:0 1:0.757042 2:6 
-0.1 0:0.0470205 1:0.395507 2:10 
-0.1 0:0 1:0.312366 2:2 
-0.1 0:0.33659 1:0.441982 2:0 
-0.1 0:0 1:0.156728 2:3 
-0.1 0:0 1:1.10526 2:0 
-0.1 0:0.00830189 1:0.806943 2:3 
-0.1 0:0.0412058 1:0.352273 2:0 
-0.1 0:0.00907441 1:0.967515 2:2 
-0.1 0:0 1:0.389375 2:6 
-0.1 0:0 1:0.140265 2:2 
-0.1 0:0 1:1.10959 2:6 
-0.1 0:2.82441 1:0.260365 2:0 
-0.1 0:0 1:1.06349 2:2 
-0.1 0:0.000420521 1:0.952724 2:4 
-0.1 0:0.0103352 1:0.546648 2:7 
-0.001674839679347073 0:0 1:0.849398 2:30 
-0.1 0:0 1:0.611679 2:6 
-0.1 0:0.559816 1:0.640135 2:0 
-0.1 0:0 1:0.463215 2:2 
-0.1 0:0.0898151 1:0.336222 2:4 
-0.1 0:0.0122456 1:0.509625 2:10 
-0.1 0:0 1:0.751634 2:2 
-0.1 0:0.0985088 1:0.805313 2:4 
-0.1 0:0.0259584 1:0.908246 2:0 
-0.1 0:0 1:1.07923 2:0 
-0.1 0:0 1:0.598881 2:4 
-0.1 0:0 1:1.02538 2:0 
-0.1 0:0 1:1.00935 2:4 
-0.1 0:0.00135196 1:0.492236 2:4 
-0.1 0:0 1:0.832882 2:6 
-0.1 0:0 1:0.565924 2:7 
-0.1 0:0.0512106 1:0.694112 2:0 
-0.1 0:7.97481 1:0.11161 2:0 
-0.1 0:0 1:0.430746 2:2 
-0.1 0:0.0330224 1:0.656516 2:0 
-0.1 0:0 1:0.938425 2:2 
-0.002307434833903875 0:0.0166955 1:0.871113 2:40 
-0.1 0:0 1:0.96875 2:0 
-0.1 0:0 1:1.02254 2:0 
-0.1 0:0.0325702 1:0.607688 2:1 
-0.1 0:0 1:0.53 2:4 
-0.1 0:0.002197 1:0.951568 2:6 
-0.1 0:0 1:0.966102 2:4 
-0.1 0:0 1:0.495385 2:6 
-0.1 0:0 1:0.969904 2:2 
-0.1 0:0 1:0.874439 2:6 
-0.1 0:0 1:0.669935 2:6 
-0.1 0:0 1:0.473479 2:2 
-0.1 0:0.05074 1:0.829825 2:6 
-0.1 0:0.010763 1:0.513384 2:10 
-0.1 0:0 1:0.940741 2:6 
-0.1 0:0.00191005 1:0.937795 2:3 
-0.1 0:0.00701754 1:0.863636 2:4 
-0.1 0:0.0439331 1:0.884094 2:2 
-0.1 0:0 1:0.404489 2:6 
-0.1 0:0.089701 1:0.677492 2:0 
-0.1 0:0 1:0.764706 2:6 
-0.1 0:0.000735294 1:0.989811 2:2 
-0.1 0:0 1:1.07347 2:0 
-0.1 0:0 1:1.00455 2:0 
-0.1 0:0 1:0.692794 2:6 
-0.1 0:0 1:0.867936 2:4 
-0.1 0:0 1:0.547521 2:6 
-0.1 0:0.00674764 1:0.192118 2:0 
-0.1 0:0.00568828 1:0.935106 2:6 
-0.1 0:0.00619835 1:0.82383 2:2 
-0.1 0:0 1:0.879592 2:4 
-0.1 0:0 1:0.515072 2:6 
-0.1 0:0 1:0.818777 2:4 
-0.1 0:0.000434028 1:0.407824 2:4 
-0.1 0:0.287596 1:0.655396 2:7 
-0.1 0:0 1:1.06005 2:0 
-0.1 0:0 1:1.13889 2:4 
-0.09754272812287387 0:0.0119048 1:0.607229 2:19 
-0.1 0:0.231588 1:0.754687 2:4 
-0.1 0:0 1:0.939736 2:0 
-0.1 0:0.00129569 1:0.843642 2:6 
-0.1 0:0.0101523 1:1.05914 2:0 
-0.1 0:0.157252 1:0.493065 2:0 
-0.1 0:0 1:0.563218 2:6 
-0.1 0:0 1:0.960191 2:4 
-0.1 0:0 1:0.853885 2:2 
-0.1 0:0 1:0.102531 2:1 
-0.1 0:0 1:0.140078 2:0 
-0.1 0:0.0195659 1:0.379603 2:0 
-0.1 0:0.0296596 1:0.971039 2:2 
-0.1 0:0.428996 1:0.690356 2:0 
-0.1 0:0 1:1.00984 2:0 
-0.1 0:0 1:1.11 2:4 
-0.1 0:0 1:0.699571 2:6 
-0.1 0:0 1:0.330128 2:5 
-0.1 0:0.000449035 1:0.0822621 2:2 
-0.1 0:0.00298507 1:0.618081 2:4 
-0.1 0:0 1:0.56 2:7 
-0.1 0:0 1:0.709302 2:6 
-0.1 0:0.057971 1:0.310811 2:4 
-0.1 0:0.114035 1:0.515837 2:7 
-0.1 0:0.0163934 1:0.635417 2:4 
-0.1 0:0.0133333 1:0.663717 2:4 
-0.1 0:0 1:0.435897 2:10 
-0.1 0:0.015625 1:0.566372 2:7 
-0.1 0:0.0241379 1:0.279923 2:4 
-0.1 0:0.0367647 1:0.456376 2:7 
-0.1 0:0.0657895 1:0.628099 2:6 
-0.1 0:0 1:0.513514 2:10 
-0.1 0:0.172222 1:0.584416 2:7 
-0.1 0:0 1:0.20597 2:11 
-0.1 0:0 1:0.493333 2:6 
-0.1 0:0 1:0.317901 2:4 
-0.1 0:0 1:0.574803 2:6 
-0.1 0:0.0140845 1:0.628319 2:7 
-0.1 0:0.0412371 1:0.718518 2:3 
-0.1 0:0 1:0.493243 2:6 
-0.1 0:0.015625 1:0.551724 2:5 
-0.1 0:0 1:0.542222 2:7 
-0.1 0:0 1:0.176166 2:2 
-0.1 0:0 1:0.473118 2:2 
-0.1 0:0.0140845 1:0.755319 2:6 
-0.1 0:0.0273973 1:0.450617 2:10 
-0.1 0:0 1:0.486667 2:7 
-0.1 0:0 1:0.680851 2:6 
-0.1 0:0.222222 1:0.827586 2:4 
-0.1 0:0 1:0.637255 2:7 
-0.1 0:0 1:0.709302 2:6 
-0.1 0:0 1:0.691489 2:6 
-0.1 0:0.0384615 1:0.702703 2:5 
-0.1 0:0.0277778 1:0.580645 2:5 
-0.1 0:0 1:0.477204 2:7 
-0.1 0:0 1:0.453728 2:4 
-0.1 0:0 1:0.495098 2:5 
-0.1 0:0.091954 1:0.6 2:7 
-0.1 0:0.016129 1:0.626263 2:7 
-0.1 0:0 1:0.725694 2:4 
-0.1 0:0.015873 1:0.588785 2:7 
-0.1 0:0.0107527 1:0.69403 2:6 
-0.1 0:0 1:0.619835 2:6 
-0.1 0:0 1:0.717647 2:4 
-0.1 0:0.0298507 1:0.744444 2:4 
-0.1 0:0 1:0.569697 2:6 
-0.1 0:0.0111111 1:0.775862 2:6 
-0.1 0:0 1:0.655738 2:6 
-0.1 0:0.0227273 1:0.480874 2:4 
-0.1 0:0 1:0.574506 2:5 
-0.1 0:0.025641 1:0.764706 2:6 
-0.1 0:0 1:0.535088 2:1 
-0.1 0:0.130435 1:0.638889 2:6 
-0.1 0:0 1:0.811966 2:6 
-0.1 0:0.011236 1:0.644928 2:4 
-0.1 0:0 1:0.752577 2:3 
-0.1 0:0 1:0.574627 2:4 
-0.1 0:0 1:0.632911 2:6 
-0.1 0:0 1:0.686131 2:4 
-0.1 0:0 1:0.59633 2:7 
-0.1 0:0 1:0.566372 2:7 
-0.1 0:0.1 1:0.714286 2:6 
-0.1 0:0.015625 1:0.719101 2:6 
-0.1 0:0.000729483 1:0.379102 2:2 
-0.1 0:0.0126582 1:0.526667 2:7 
-0.1 0:0.0625 1:0.744186 2:5 
-0.1 0:0.0246914 1:0.794118 2:5 
-0.1 0:0 1:0.331887 2:6 
-0.1 0:0 1:0.640625 2:1 
-0.1 0:0 1:0.504132 2:10 
-0.1 0:0 1:0.521368 2:4 
-0.1 0:0.1875 1:0.771084 2:4 
-0.1 0:0.045045 1:0.61326 2:7 
-0.1 0:0 1:0.526316 2:10 
-0.1 0:0.01 1:0.60241 2:6 
-0.1 0:0.0381679 1:0.617925 2:5 
-0.1 0:0.028 1:0.59952 2:6 
-0.1 0:0 1:0.525424 2:10 
-0.1 0:0 1:0.475983 2:7 
-0.1 0:0 1:0.580311 2:7 
-0.1 0:0.027027 1:0.544118 2:6 
-0.1 0:0.047619 1:0.7 2:5 
-0.1 0:0 1:0.514493 2:7 
-0.1 0:0 1:0.772152 2:6 
-0.1 0:0.0153846 1:0.550847 2:4 
-0.1 0:0 1:0.469231 2:1 
-0.1 0:0.287671 1:0.640351 2:6 
-0.1 0:0.015625 1:0.688172 2:6 
-0.1 0:0 1:0.589041 2:7 
-0.1 0:0.014218 1:0.805344 2:5 
-0.1 0:0.0229885 1:0.432836 2:4 
-0.1 0:0.0106383 1:0.552941 2:7 
-0.1 0:0 1:0.628571 2:6 
-0.1 0:0.0111111 1:0.505618 2:10 
-0.1 0:0 1:0.247748 2:1 
-0.1 0:0 1:0.590164 2:6 
-0.1 0:0.205882 1:0.641509 2:7 
-0.1 0:0.0118343 1:0.601424 2:5 
-0.1 0:0 1:0.628788 2:7 
-0.1 0:0.208333 1:0.648649 2:5 
-0.1 0:0.0136986 1:0.646018 2:7 
-0.1 0:0.0208333 1:0.545455 2:7 
-0.1 0:0 1:0.270042 2:7 
-0.1 0:0 1:0.76087 2:6 
-0.1 0:0.0327869 1:0.616162 2:7 
-0.1 0:0.151515 1:0.702128 2:6 
-0.1 0:0 1:0.578947 2:6 
-0.1 0:0.0136986 1:0.613445 2:6 
-0.1 0:0.241935 1:0.568807 2:7 
-0.1 0:0 1:0.508333 2:4 
-0.1 0:0.0105263 1:0.365385 2:6 
-0.1 0:0.0217391 1:0.643357 2:6 
-0.1 0:0 1:0.618182 2:7 
-0.1 0:0 1:0.640523 2:7 
-0.1 0:0 1:0.65625 2:4 
-0.1 0:0 1:0.426056 2:2 
-0.1 0:0 1:0.610619 2:6 
-0.1 0:0 1:0.318325 2:2 
-0.1 0:0.0327869 1:0.709302 2:5 
-0.1 0:0 1:0.513514 2:6 
-0.1 0:0 1:0.506148 2:10 
-0.1 0:0 1:0.284912 2:2 
-0.1 0:0.015625 1:0.444444 2:10 
-0.1 0:0 1:0.633987 2:4 
-0.1 0:0.025641 1:0.612565 2:7 
-0.1 0:0 1:0.729412 2:6 
-0.1 0:0.105691 1:0.61194 2:5 
-0.1 0:0.0245902 1:0.566125 2:6 
-0.1 0:0.00704225 1:0.436923 2:6 
-0.1 0:0 1:0.467949 2:10 
-0.1 0:0.0306122 1:0.586826 2:7 
-0.1 0:0.00819672 1:0.51046 2:2 
-0.1 0:0 1:0.556338 2:7 
-0.1 0:0.0584795 1:0.428571 2:7 
-0.1 0:0 1:0.568807 2:6 
-0.1 0:0.0405405 1:0.569231 2:7 
-0.1 0:0 1:0.489426 2:10 
-0.1 0:0 1:0.490323 2:4 
-0.1 0:0 1:0.527559 2:7 
-0.1 0:0.0519481 1:0.641667 2:7 
-0.1 0:0.0121951 1:0.414141 2:11 
-0.1 0:0 1:0.450704 2:6 
-0.1 0:0.01 1:0.689655 2:4 
-0.1 0:0 1:0.380368 2:2 
-0.1 0:0 1:0.563758 2:5 
-0.1 0:0 1:0.728972 2:6 
-0.1 0:0.138462 1:0.601852 2:7 
-0.1 0:0.123077 1:0.706522 2:3 
-0.1 0:0.0208333 1:0.450704 2:10 
-0.1 0:0.030303 1:0.481752 2:7 
-0.1 0:0 1:0.646465 2:6 
-0.1 0:0.0319149 1:0.505376 2:10 
-0.1 0:0.0416667 1:0.6 2:6 
-0.1 0:0 1:0.791667 2:5 
-0.1 0:0.0134228 1:0.358173 2:10 
-0.1 0:0 1:0.415781 2:4 
-0.1 0:0.127119 1:0.674286 2:4 
-0.1 0:0.08 1:0.588235 2:7 
-0.1 0:0.00862069 1:0.640884 2:7 
-0.1 0:0.0642202 1:0.495455 2:10 
-0.1 0:0 1:0.738095 2:6 
-0.1 0:0 1:0.304498 2:2 
-0.1 0:0 1:0.250536 2:1 
-0.1 0:0.03125 1:0.853333 2:4 
-0.1 0:0 1:0.692308 2:5 
-0.1 0:0 1:0.585938 2:7 
-0.1 0:0.0142857 1:0.7 2:5 
-0.1 0:0 1:0.471698 2:6 
-0.1 0:0 1:0.647059 2:5 
-0.1 0:0.205882 1:0.623853 2:6 
-0.1 0:0 1:0.632653 2:6 
-0.1 0:0 1:0.503987 2:4 
-0.1 0:0.00719424 1:0.612335 2:7 
-0.1 0:0 1:0.876543 2:6 
-0.1 0:0 1:0.497312 2:6 
-0.1 0:0.0347826 1:0.766667 2:4 
-0.1 0:0.0967742 1:0.632653 2:7 
-0.1 0:0.0344828 1:0.625899 2:3 
-0.1 0:0.0120482 1:0.597122 2:7 
-0.1 0:0 1:0.470199 2:6 
-0.1 0:0 1:0.727273 2:6 
-0.1 0:0 1:0.732824 2:6 
-0.1 0:0.012987 1:0.7 2:6 
-0.1 0:0.131148 1:0.598039 2:5 
-0.1 0:0.154412 1:0.697436 2:5 
-0.1 0:0 1:0.645833 2:5 
-0.1 0:0.016129 1:0.688889 2:5 
-0.1 0:0 1:0.648855 2:2 
-0.1 0:0 1:0.703297 2:5 
-0.1 0:0.116883 1:0.611111 2:7 
-0.1 0:0 1:0.756098 2:6 
-0.1 0:0 1:0.448454 2:7 
-0.1 0:0.0128205 1:0.690265 2:5 
-0.1 0:0 1:0.626984 2:6 
-0.1 0:0.00694444 1:0.501742 2:5 
-0.1 0:0 1:0.573964 2:6 
-0.1 0:0.0285714 1:0.503597 2:7 
-0.1 0:0 1:0.564103 2:5 
-0.1 0:0 1:0.613636 2:6 
-0.1 0:0.0212766 1:0.569697 2:6 
-0.1 0:0 1:0.573964 2:6 
-0.1 0:0.0352941 1:0.47486 2:5 
-0.1 0:0 1:0.335165 2:4 
-0.1 0:0.0163934 1:0.54955 2:6 
-0.1 0:0.010101 1:0.744361 2:6 
-0.1 0:0 1:0.356287 2:2 
-0.1 0:0.0224719 1:0.570513 2:6 
-0.1 0:0 1:0.521053 2:7 
-0.1 0:0.00473934 1:0.56117 2:2 
-0.1 0:0.0769231 1:0.506494 2:7 
-0.1 0:0.0185185 1:0.426877 2:10 
-0.1 0:0.0564516 1:0.514523 2:10 
-0.1 0:0 1:0.584615 2:5 
-0.1 0:0.0192308 1:0.53886 2:6 
-0.1 0:0 1:0.907104 2:6 
-0.1 0:0 1:0.633987 2:4 
-0.1 0:0.016129 1:0.54386 2:5 
-0.1 0:0.00395257 1:0.65544 2:6 
-0.1 0:0 1:0.637168 2:7 
-0.1 0:0.0147059 1:0.5 2:10 
-0.1 0:0.0963855 1:0.597122 2:6 
-0.1 0:0.0149254 1:0.650485 2:6 
-0.1 0:0 1:0.480447 2:6 
-0.1 0:0 1:0.585714 2:7 
-0.1 0:0 1:0.514493 2:6 
-0.1 0:0 1:0.63964 2:7 
-0.1 0:0.275362 1:0.64486 2:6 
-0.1 0:0.010989 1:0.505556 2:10 
-0.05584715503237111 0:0 1:0.428571 2:11 
-0.1 0:0.207921 1:0.459091 2:10 
-0.1 0:0 1:0.431487 2:2 
-0.1 0:0.0897436 1:0.614173 2:5 
-0.1 0:0.391304 1:0.691729 2:4 
-0.1 0:0.0246914 1:0.578571 2:7 
-0.1 0:0 1:0.423841 2:6 
-0.1 0:0 1:0.794541 2:2 
-0.1 0:0 1:0.572414 2:4 
-0.1 0:0 1:0.778846 2:6 
-0.1 0:0.0147059 1:0.552846 2:3 
-0.1 0:0 1:0.478947 2:7 
-0.1 0:0.0576923 1:0.597701 2:6 
-0.1 0:0 1:0.686441 2:6 
-0.1 0:0 1:0.861538 2:4 
-0.1 0:0 1:0.352201 2:1 
-0.1 0:0 1:0.64539 2:7 
-0.1 0:0 1:0.534483 2:7 
-0.1 0:0.031746 1:0.538462 2:7 
-0.1 0:0.0217391 1:0.585987 2:4 
-0.1 0:0.103896 1:0.574627 2:7 
-0.1 0:0.025 1:0.512821 2:7 
-0.1 0:0 1:0.521834 2:10 
-0.1 0:0.0625 1:0.633663 2:5 
-0.1 0:0 1:0.805195 2:6 
-0.1 0:0.389968 1:0.694382 2:3 
-0.1 0:0.00925926 1:0.513064 2:6 
-0.1 0:0.414286 1:0.654206 2:6 
-0.1 0:0 1:0.676471 2:6 
-0.1 0:0 1:0.659259 2:4 
-0.1 0:0 1:0.632812 2:7 
-0.1 0:0.0153846 1:0.575221 2:7 
-0.1 0:0 1:0.570513 2:2 
-0.1 0:0.047619 1:0.57931 2:6 
-0.1 0:0.0978261 1:0.575 2:6 
-0.1 0:0.030303 1:0.611111 2:5 
-0.1 0:0 1:0.76699 2:6 
-0.1 0:0 1:0.601942 2:7 
-0.1 0:0.00746269 1:0.326829 2:6 
-0.1 0:0 1:0.617647 2:6 
-0.1 0:0 1:0.6 2:6 
-0.1 0:0.211268 1:0.67619 2:5 
-0.1 0:0.925816 1:0.509063 2:2 
-0.1 0:0.04 1:0.653595 2:6 
-0.1 0:0.0918367 1:0.657718 2:6 
-0.1 0:0 1:0.611111 2:7 
-0.1 0:0.0277778 1:0.631579 2:6 
-0.1 0:0.572424 1:0.639109 2:0 
-0.1 0:0.0294118 1:0.641509 2:6 
-0.1 0:0 1:0.596899 2:7 
-0.1 0:0.0130719 1:0.552347 2:6 
-0.1 0:0 1:0.340324 2:2 
-0.1 0:0 1:0.524164 2:7 
-0.1 0:0.0142857 1:0.666667 2:5 
-0.1 0:0.0984849 1:0.481752 2:7 
-0.1 0:0 1:0.491124 2:10 
-0.1 0:0.0411765 1:0.618182 2:6 
-0.1 0:0.292308 1:0.670103 2:4 
-0.1 0:0 1:0.509677 2:7 
-0.1 0:0.0307692 1:0.656566 2:6 
-0.1 0:0 1:0.245896 2:1 
-0.1 0:0.140625 1:0.8 2:4 
-0.1 0:0.0103093 1:0.405858 2:11 
-0.1 0:0.0151515 1:0.564103 2:5 
-0.1 0:0 1:0.365583 2:2 
-0.1 0:0 1:0.5 2:5 
-0.1 0:0 1:0.764706 2:6 
-0.1 0:0.0289855 1:0.715026 2:4 
-0.1 0:0 1:0.368715 2:6 
-0.1 0:0 1:0.627451 2:6 
-0.1 0:0.00970874 1:0.562842 2:7 
-0.1 0:0.0617284 1:0.529412 2:7 
-0.1 0:0.0163934 1:0.628866 2:5 
-0.1 0:0 1:0.627119 2:5 
-0.1 0:0.0684932 1:0.708738 2:6 
-0.1 0:0 1:0.316993 2:5 
-0.1 0:0 1:0.528926 2:4 
-0.1 0:0 1:0.503448 2:4 
-0.1 0:0 1:0.642458 2:6 
-0.1 0:0.0192308 1:0.688742 2:6 
-0.1 0:0.0263158 1:0.496732 2:10 
-0.1 0:0 1:0.592593 2:6 
-0.1 0:0.012987 1:0.340708 2:6 
-0.1 0:0 1:0.342593 2:6 
-0.1 0:0 1:0.399103 2:11 
-0.1 0:0.0119048 1:0.641221 2:7 
-0.1 0:0.0625 1:0.603774 2:5 
-0.1 0:0 1:0.382572 2:2 
-0.1 0:0 1:0.525397 2:4 
-0.1 0:0.0125 1:0.356083 2:2 
-0.1 0:0 1:0.451448 2:2 
-0.1 0:0 1:0.309417 2:2 
-0.1 0:0.0105263 1:0.629139 2:6 
-0.1 0:0.0543478 1:0.691729 2:6 
-0.1 0:0.0581395 1:0.581081 2:5 
-0.1 0:0 1:0.444444 2:10 
-0.1 0:0 1:0.521739 2:2 
-0.1 0:0.1 1:0.547945 2:7 
-0.1 0:0.0121951 1:0.61194 2:4 
-0.1 0:0 1:0.332215 2:3 
-0.1 0:0 1:0.553719 2:6 
-0.1 0:0.000663394 1:0.349242 2:2 
-0.1 0:0 1:0.297767 2:1 
-0.1 0:0.0731707 1:0.788462 2:3 
-0.1 0:0.0151515 1:0.741573 2:6 
-0.1 0:0 1:0.663043 2:6 
-0.1 0:0.000185667 1:0.32397 2:2 
-0.1 0:0.0412371 1:0.692857 2:5 
-0.1 0:0 1:0.683206 2:4 
-0.1 0:0 1:0.466667 2:10 
-0.1 0:0.0102041 1:0.685315 2:5 
-0.1 0:0 1:0.633333 2:4 
-0.1 0:0 1:0.642857 2:6 
-0.1 0:0 1:0.628866 2:5 
-0.1 0:0.0153846 1:0.53719 2:7 
-0.1 0:0 1:0.62 2:7 
-0.1 0:0 1:0.617188 2:7 
-0.1 0:0.158333 1:0.470588 2:6 
-0.1 0:0 1:0.554913 2:6 
-0.1 0:0 1:0.226951 2:2 
-0.1 0:0.0465116 1:0.5 2:4 
-0.1 0:0.0307692 1:0.585586 2:7 
-0.1 0:0 1:0.872549 2:4 
-0.1 0:0.07 1:0.571429 2:5 
-0.1 0:0.016129 1:0.568807 2:6 
-0.1 0:0.00847458 1:0.386885 2:5 
-0.1 0:0.114286 1:0.546875 2:5 
-0.1 0:0.0508475 1:0.584158 2:7 
-0.1 0:0 1:0.810526 2:6 
-0.1 0:0.0135135 1:0.517483 2:6 
-0.1 0:0 1:0.355049 2:7 
-0.1 0:0.0361446 1:0.605839 2:6 
-0.1 0:0.0183486 1:0.60221 2:7 
-0.1 0:0 1:0.472492 2:2 
-0.1 0:0.0144928 1:0.616071 2:4 
-0.1 0:0.03125 1:0.662069 2:5 
-0.1 0:0 1:0.455224 2:7 
-0.1 0:0.0819672 1:0.622449 2:5 
-0.1 0:0.0322581 1:0.411504 2:7 
-0.1 0:0.131148 1:0.73494 2:6 
-0.1 0:0.0190476 1:0.527638 2:10 
-0.1 0:0 1:0.187814 2:2 
-0.1 0:0.0126582 1:0.512987 2:7 
-0.1 0:0 1:0.586207 2:5 
-0.1 0:0 1:0.243733 2:2 
-0.1 0:0 1:0.239859 2:6 
-0.1 0:0.0147059 1:0.673267 2:6 
-0.1 0:0 1:0.400794 2:6 
-0.1 0:0 1:0.529915 2:10 
-0.1 0:0 1:0.38674 2:2 
-0.1 0:0 1:0.343313 2:2 
-0.1 0:0 1:0.514124 2:7 
-0.1 0:0.148148 1:0.617143 2:6 
-0.1 0:0 1:0.628571 2:2 
-0.1 0:0.0730337 1:0.399103 2:10 
-0.1 0:0 1:0.581152 2:7 
-0.1 0:0 1:0.465517 2:2 
-0.1 0:0.0615385 1:0.613208 2:7 
-0.1 0:0 1:0.56875 2:7 
-0.1 0:0.0307692 1:0.643564 2:7 
-0.1 0:0.024 1:0.486381 2:10 
-0.1 0:0 1:0.537815 2:7 
-0.1 0:0.00377358 1:0.382395 2:7 
-0.1 0:0.0340909 1:0.564103 2:6 
-0.1 0:0.075 1:0.555556 2:7 
-0.1 0:0.0595238 1:0.661417 2:5 
-0.1 0:0 1:0.636943 2:7 
-0.1 0:0.0126582 1:0.537415 2:7 
-0.1 0:0 1:0.606838 2:4 
-0.1 0:0.0493827 1:0.680672 2:5 
-0.1 0:0 1:0.275578 2:6 
-0.1 0:0.282353 1:0.68 2:5 
-0.1 0:0.343137 1:0.6375 2:6 
-0.1 0:0.0340909 1:0.575163 2:5 
-0.1 0:0 1:0.516393 2:7 
-0.1 0:0 1:0.5953 2:2 
-0.1 0:0 1:0.598131 2:6 
-0.1 0:0 1:0.633929 2:6 
-0.1 0:0.00990099 1:0.651613 2:5 
-0.1 0:0 1:0.606557 2:7 
-0.1 0:0.0151057 1:0.548922 2:6 
-0.1 0:0.047619 1:0.571429 2:7 
-0.1 0:0 1:0.795858 2:6 
-0.1 0:0.0163934 1:0.655914 2:6 
-0.1 0:0 1:0.522581 2:7 
-0.1 0:0.0163934 1:0.67033 2:6 
-0.1 0:0.0129032 1:0.510708 2:10 
-0.1 0:0 1:0.52381 2:6 
-0.1 0:0.345679 1:0.604478 2:2 
-0.1 0:0 1:0.381818 2:4 
-0.1 0:0 1:0.688073 2:2 
-0.1 0:0.0100223 1:0.443019 2:10 
-0.1 0:0.037037 1:0.631579 2:6 
-0.1 0:0.0107527 1:0.62 2:6 
-0.1 0:0 1:0.371658 2:2 
-0.1 0:0 1:0.588235 2:7 
-0.1 0:0.1 1:0.686275 2:6 
-0.1 0:0.075 1:0.597015 2:7 
-0.1 0:0 1:0.841379 2:4 
-0.1 0:0 1:0.740385 2:6 
-0.1 0:0 1:0.539823 2:5 
-0.1 0:0.00641026 1:0.5 2:5 
-0.1 0:0 1:0.897059 2:6 
-0.1 0:0 1:0.627273 2:6 
-0.1 0:0.302817 1:0.625551 2:7 
-0.1 0:0 1:0.395257 2:6 
-0.1 0:0.1375 1:0.64 2:7 
-0.1 0:0.00819672 1:0.628866 2:4 
-0.1 0:0 1:0.483516 2:6 
-0.1 0:0 1:0.757009 2:6 
-0.1 0:0.011236 1:0.674242 2:6 
-0.1 0:0 1:0.547297 2:5 
-0.1 0:0 1:0.625899 2:6 
-0.1 0:0 1:0.458432 2:6 
-0.1 0:0 1:0.381139 2:6 
-0.1 0:0 1:0.426136 2:7 
-0.1 0:0 1:0.866667 2:5 
-0.1 0:0 1:0.613043 2:6 
-0.1 0:0 1:0.60177 2:6 
-0.1 0:0.0232558 1:0.704918 2:6 
-0.1 0:0.08 1:0.707547 2:6 
-0.1 0:0 1:0.609649 2:5 
-0.1 0:0 1:0.511811 2:10 
-0.1 0:0.0133333 1:0.669643 2:6 
-0.1 0:0 1:0.452991 2:5 
-0.1 0:0.0408163 1:0.640523 2:5 
-0.1 0:0.0327869 1:0.567442 2:6 
-0.1 0:0.00729927 1:0.411411 2:11 
-0.1 0:0.0457516 1:0.487261 2:10 
-0.1 0:0 1:0.369906 2:6 
-0.1 0:0 1:0.585828 2:2 
-0.1 0:0.0989011 1:0.572327 2:6 
-0.1 0:0.00598802 1:0.491176 2:10 
-0.1 0:0 1:0.808511 2:6 
-0.1 0:0.0689655 1:0.679688 2:6 
-0.1 0:0.0273973 1:0.574803 2:7 
-0.1 0:0.00619195 1:0.178158 2:7 
-0.1 0:0 1:0.7 2:6 
-0.1 0:0.111111 1:0.741176 2:6 
-0.1 0:0 1:0.565217 2:7 
-0.1 0:0.0322581 1:0.452555 2:4 
-0.1 0:0.0384615 1:0.586466 2:5 
-0.1 0:0.0163934 1:0.7625 2:5 
-0.1 0:0.58159 1:0.642473 2:6 
-0.1 0:0 1:0.572727 2:6 
-0.1 0:0.0140845 1:0.586777 2:7 
-0.1 0:0.047619 1:0.608696 2:6 
-0.1 0:0.038961 1:0.647059 2:4 
-0.1 0:0.0652174 1:0.445161 2:7 
-0.1 0:0.0104167 1:0.516129 2:7 
-0.1 0:0.00289017 1:0.489392 2:2 
-0.1 0:0.0136986 1:0.701923 2:6 
-0.1 0:0 1:0.710938 2:4 
-0.1 0:0 1:0.444972 2:6 
-0.1 0:0 1:0.35426 2:3 
-0.1 0:0 1:0.349057 2:7 
-0.1 0:0 1:0.426573 2:2 
-0.1 0:0.0275229 1:0.383803 2:10 
-0.1 0:0.0357143 1:0.604317 2:7 
-0.1 0:0 1:0.642105 2:5 
-0.1 0:0.0138889 1:0.529412 2:6 
-0.1 0:0.0135135 1:0.704762 2:4 
-0.1 0:0.183908 1:0.583893 2:7 
-0.1 0:0 1:0.59434 2:4 
-0.1 0:0.0983607 1:0.575472 2:6 
-0.1 0:0 1:0.684848 2:4 
-0.1 0:0 1:0.632075 2:6 
-0.1 0:0 1:0.462121 2:6 
-0.1 0:0 1:0.38125 2:6 
-0.1 0:0 1:0.846154 2:6 
-0.1 0:0.0147059 1:0.647619 2:5 
-0.1 0:0.0151515 1:0.503817 2:10 
-0.1 0:0 1:0.453767 2:2 
-0.1 0:0.0151515 1:0.496241 2:7 
-0.1 0:0 1:0.693023 2:6 
-0.1 0:0.00200133 1:0.61891 2:5 
-0.1 0:0.0277778 1:0.648649 2:5 
-0.1 0:0 1:0.622222 2:7 
-0.1 0:0 1:0.585586 2:7 
-0.1 0:0.00806452 1:0.563636 2:7 
-0.1 0:0 1:0.490196 2:7 
-0.1 0:0.0285714 1:0.636364 2:7 
-0.1 0:0 1:0.648936 2:6 
-0.1 0:0 1:0.475177 2:5 
-0.1 0:0 1:0.518797 2:6 
-0.1 0:0 1:0.62037 2:7 
-0.1 0:0 1:0.337461 2:4 
-0.1 0:0.016129 1:0.72093 2:6 
-0.1 0:0.0819672 1:0.458647 2:5 
-0.1 0:0 1:0.646154 2:5 
-0.1 0:0.0140845 1:0.622807 2:6 
-0.1 0:0 1:0.190118 2:2 
-0.1 0:0 1:0.590476 2:7 
-0.1 0:0.019802 1:0.43913 2:10 
-0.1 0:0 1:0.450867 2:5 
-0.1 0:0 1:0.295566 2:2 
-0.1 0:0 1:0.564815 2:4 
-0.1 0:0 1:0.69 2:4 
-0.1 0:0.0724638 1:0.633027 2:6 
-0.1 0:0 1:0.228542 2:1 
-0.1 0:0 1:0.631068 2:6 
-0.1 0:0.012987 1:0.641667 2:7 
-0.1 0:0.0163934 1:0.5 2:4 
-0.1 0:0 1:0.452736 2:4 
-0.1 0:0 1:0.625954 2:2 
-0.1 0:0 1:0.494048 2:1 
-0.1 0:0 1:0.489011 2:2 
-0.1 0:0.0731707 1:0.689076 2:6 
-0.1 0:0 1:0.361502 2:1 
-0.1 0:0 1:0.686275 2:4 
-0.1 0:0 1:0.0708692 2:2 
-0.1 0:0 1:0.516949 2:4 
-0.1 0:0 1:0.421769 2:5 
-0.1 0:0 1:0.537879 2:7 
-0.1 0:0.0285714 1:0.578512 2:7 
-0.1 0:0.042328 1:0.369863 2:6 
-0.1 0:0.0840336 1:0.607143 2:7 
-0.1 0:0 1:0.407895 2:3 
-0.1 0:0.0967742 1:0.584906 2:6 
-0.1 0:0.030303 1:0.628571 2:6 
-0.1 0:0 1:0.529412 2:6 
-0.1 0:0 1:0.308081 2:7 
-0.1 0:0 1:0.542614 2:5 
-0.1 0:0 1:0.520325 2:5 
-0.1 0:0.0253165 1:0.598485 2:6 
-0.1 0:0 1:0.433333 2:6 
-0.1 0:0.0116279 1:0.562092 2:5 
-0.1 0:0 1:0.681564 2:6 
-0.1 0:0.0533333 1:0.547445 2:7 
-0.1 0:0.075 1:0.695652 2:6 
-0.1 0:0.0104167 1:0.690647 2:6 
-0.1 0:0.0246914 1:0.543624 2:6 
-0.1 0:0.015748 1:0.647959 2:7 
-0.1 0:0 1:0.655172 2:5 
-0.1 0:0.0125 1:0.479042 2:6 
-0.1 0:0.0348837 1:0.508876 2:7 
-0.1 0:0.0136986 1:0.561538 2:6 
-0.1 0:0 1:0.492958 2:7 
-0.1 0:0 1:0.537415 2:5 
-0.1 0:0.016129 1:0.632653 2:6 
-0.1 0:0.107143 1:0.531646 2:7 
-0.1 0:0.0113636 1:0.53012 2:6 
-0.1 0:0.0985916 1:0.633929 2:6 
-0.1 0:0 1:0.6 2:5 
-0.1 0:0.81019 1:0.563309 2:0 
-0.1 0:0 1:0.590909 2:2 
-0.1 0:0 1:0.526646 2:4 
-0.1 0:0 1:0.367209 2:1 
-0.1 0:0 1:0.574627 2:5 
-0.1 0:0.0438596 1:0.478992 2:7 
-0.1 0:0.0153846 1:0.613208 2:7 
-0.1 0:0 1:0.311273 2:2 
-0.1 0:0 1:0.887324 2:2 
-0.1 0:0.0519481 1:0.616 2:6 
-0.1 0:0.0909091 1:0.634615 2:7 
-0.1 0:0 1:0.717647 2:2 
-0.1 0:0 1:0.531034 2:10 
-0.1 0:0.0108696 1:0.585987 2:6 
-0.1 0:0.0116279 1:0.511905 2:10 
-0.1 0:0 1:0.711538 2:6 
-0.1 0:0 1:0.793103 2:4 
-0.1 0:0 1:0.728261 2:6 
-0.01489498834840648 0:0 1:0.531915 2:10 
-0.1 0:0.0181818 1:0.564103 2:7 
-0.1 0:0 1:0.513514 2:6 
-0.0822133642626231 0:0.0561798 1:0.649635 2:7 
-0.1 0:0.0113636 1:0.578947 2:6 
-0.1 0:0 1:0.222222 2:5 
-0.1 0:0.0416667 1:0.434783 2:7 
-0.1 0:0.0104167 1:0.666667 2:6 
-0.1 0:0 1:0.485075 2:6 
-0.1 0:0 1:0.72619 2:6 
-0.1 0:0.0853659 1:0.625954 2:6 
-0.1 0:0.02 1:0.724638 2:6 
-0.1 0:0 1:0.270886 2:2 
-0.1 0:0 1:0.570755 2:7 
-0.1 0:0 1:0.609524 2:4 
-0.1 0:0.0259067 1:0.386774 2:10 
-0.1 0:0 1:0.521008 2:7 
-0.1 0:0.010989 1:0.54491 2:7 
-0.1 0:0.0555556 1:0.55814 2:7 
-0.1 0:0.0533333 1:0.619835 2:7 
-0.1 0:0.0506329 1:0.50641 2:7 
-0.1 0:0 1:0.420168 2:10 
-0.1 0:0.147059 1:0.607143 2:7 
-0.1 0:0.164179 1:0.705263 2:5 
-0.1 0:0.0983607 1:0.616162 2:4 
-0.1 0:0 1:0.411894 2:6 
-0.1 0:0 1:0.350598 2:2 
-0.1 0:0.015873 1:0.557522 2:5 
-0.1 0:0 1:0.277796 2:6 
-0.1 0:0 1:0.650943 2:4 
-0.1 0:0 1:0.407583 2:10 
-0.1 0:0.1 1:0.610687 2:6 
-0.1 0:0 1:0.598214 2:5 
-0.1 0:0 1:0.365169 2:1 
-0.1 0:0 1:0.754545 2:6 
-0.1 0:0.016129 1:0.652632 2:6 
-0.1 0:0.0104167 1:0.370656 2:6 
-0.1 0:0 1:0.467949 2:2 
-0.1 0:0 1:0.675106 2:2 
-0.1 0:0 1:0.673684 2:6 
-0.1 0:0.0512821 1:0.65 2:5 
-0.1 0:0 1:0.433301 2:6 
-0.1 0:0 1:0.568965 2:6 
-0.1 0:0 1:0.320574 2:2 
-0.1 0:0 1:0.376916 2:2 
-0.1 0:0.0145985 1:0.424149 2:10 
-0.1 0:0 1:0.696629 2:6 
-0.1 0:0.012987 1:0.611111 2:7 
-0.1 0:0 1:0.304778 2:2 
-0.1 0:0 1:0.843137 2:4 
-0.1 0:0.0285714 1:0.642202 2:7 
-0.1 0:0.019802 1:0.454955 2:5 
-0.1 0:0.0123457 1:0.75 2:6 
-0.1 0:0 1:0.63 2:6 
-0.1 0:0 1:0.337778 2:4 
-0.1 0:0.0197368 1:0.575758 2:7 
-0.1 0:0 1:0.619048 2:6 
-0.1 0:0 1:0.329004 2:6 
-0.1 0:0.0108696 1:0.70229 2:6 
-0.1 0:0 1:0.530233 2:3 
-0.1 0:0.0106383 1:0.408696 2:10 
-0.1 0:0 1:0.376543 2:4 
-0.1 0:0.0147059 1:0.641509 2:4 
-0.1 0:0.00952381 1:0.576923 2:7 
-0.1 0:0 1:0.512195 2:10 
-0.1 0:0 1:0.447761 2:6 
-0.1 0:0 1:0.586777 2:6 
-0.1 0:0.0848485 1:0.509259 2:10 
-0.1 0:0.355263 1:0.649573 2:6 
-0.1 0:0 1:0.575342 2:4 
-0.1 0:0.196721 1:0.616162 2:6 
-0.1 0:0 1:0.642105 2:7 
-0.1 0:0.0923077 1:0.575221 2:7 
-0.1 0:0 1:0.561947 2:5 
-0.1 0:0.0853659 1:0.546667 2:6 
-0.1 0:0 1:0.488 2:10 
-0.1 0:0.0454545 1:0.769231 2:6 
-0.1 0:0.0190476 1:0.495283 2:10 
-0.1 0:0.104478 1:0.638095 2:6 
-0.1 0:0.153226 1:0.677596 2:6 
-0.1 0:0 1:0.372401 2:7 
-0.1 0:0.046875 1:0.719101 2:5 
-0.1 0:0 1:0.670663 2:6 
-0.1 0:0 1:0.0602437 2:2 
-0.1 0:0.0470588 1:0.639098 2:5 
-0.1 0:0 1:0.639098 2:6 
-0.1 0:0 1:0.535088 2:7 
-0.1 0:0.164179 1:0.603604 2:5 
-0.1 0:0.0316456 1:0.589552 2:4 
-0.1 0:0.0128205 1:0.829787 2:3 
-0.1 0:0.0235294 1:0.620438 2:7 
-0.1 0:0 1:0.512658 2:7 
-0.1 0:0.016129 1:0.666667 2:3 
-0.1 0:0.0588235 1:0.62963 2:7 
-0.1 0:0 1:0.859155 2:5 
-0.1 0:0.0319149 1:0.643836 2:7 
-0.1 0:0 1:0.59633 2:7 
-0.1 0:0 1:0.532895 2:7 
-0.1 0:0.12 1:0.604839 2:6 
-0.1 0:0.149533 1:0.640719 2:6 
-0.1 0:0.0571429 1:0.549738 2:4 
-0.1 0:0.156716 1:0.611872 2:6 
-0.1 0:0.0151515 1:0.468085 2:2 
-0.1 0:0.00454545 1:0.382609 2:4 
-0.1 0:0 1:0.338095 2:3 
-0.1 0:0.0618557 1:0.610063 2:6 
-0.1 0:0.0123457 1:0.632812 2:6 
-0.1 0:0 1:0.265107 2:1 
